tree
version=v4
num_class=3
num_tree_per_iteration=3
label_index=0
max_feature_idx=15
objective=multiclass num_class:3
feature_names=Column_0 Column_1 Column_2 Column_3 Column_4 Column_5 Column_6 Column_7 Column_8 Column_9 Column_10 Column_11 Column_12 Column_13 Column_14 Column_15
feature_infos=[-1.8179837247629205:2.526883860490249] [-0.60179740949963723:6.6633587586356642] [-1.1801478233712721:7.2910889865708848] [-4.588552825671373:3.1537796971113878] [-1.0528151996263997:6.6420806026433823] [-0.80254306661310248:6.3277282017765577] [-1.8089460058040516:7.023169429619931] [-1.5675755441259589:9.1887811903572292] [-2.3236778185881612:3.4046521178433578] [-2.0845501382912817:9.4290335079394385] [0:1] [0:1] [0:1] [0:1] [0:1] [0:2]
tree_sizes=6706 6534 6579 6799 6716 6747 6766 6695 6761 6795 6735 6765 6802 6714 6773 6776 6725 6756 6785 6718 6773 6798 6730 6763 6790 6737 6777 6793 6728 6768 6806 6746 6788 6791 6739 6762 6787 6744 6775 6779 6738 6784 6815 6727 6781 6782 6743 6753 6817 6724 6774 6788 6742 6779 6792 6738 6783 6799 6757 6791 6811 6740 6800 6808 6740 6815 6802 6748 6797 6787 6739 6789 6788 6716 6777 6803 6733 6793 6797 6750 6791 6798 6747 6805 6801 6755 6801 6803 6754 6807 6799 6764 6803 6810 6766 6803 6788 6775 6773 6798 6782 6781 6801 6778 6813 6788 6770 6786 6819 6784 6796 6806 6784 6783 6792 6757 6793 6800 6762 6785 6801 6778 6774 6805 6771 6791 6794 6782 6802 6798 6795 6795 6806 6778 6804 6811 6798 6785 6816 6791 6776 6827 6821 6791 6807 6794 6795 6819 6806 6798 6799 6822 6799 6802 6818 6799 6815 6830 6796 6804 6822 6817 6798 6829 6781 6798 6815 6810 6809 6815 6797 6831 6811 6785 6786 6816 6799 6833 6815 6798 6821 6822 6798 6785 6846 6762 6805 6834 6794 6825 6842 6796 6811 6834 6798 6820 6837 6803 6805 6845 6793

Tree=0
num_leaves=63
num_cat=0
split_feature=1 0 0 13 9 1 15 2 1 2 4 5 1 9 4 4 7 5 11 9 4 6 4 1 4 14 7 4 6 9 5 4 13 6 2 6 9 2 0 7 13 6 13 0 2 4 5 9 6 2 2 0 0 6 2 4 2 6 1 5 7 4
split_gain=973.141 156.629 150.088 63.7627 50.7768 32.1738 20.4778 16.1253 13.2582 12.8801 10.7487 10.4778 10.2921 10.1239 8.8139 8.65816 8.44738 9.98575 8.11744 7.32646 7.26433 7.21679 8.37934 6.21078 5.88683 5.75381 10.8952 5.42059 4.99007 4.84032 4.69099 4.57559 4.31068 4.06998 3.78722 3.76778 3.6309 3.58638 4.42242 3.56789 3.78154 3.49274 4.75361 3.46636 3.40479 5.65858 3.39302 4.24832 3.17606 2.9783 6.46498 3.83078 2.85975 2.78553 2.83368 2.72843 5.08665 2.57302 3.45193 2.56935 5.13496 2.45121
threshold=-0.16903539948435745 -0.76421167474253671 -1.0479898373889627 1.0000000180025095e-35 0.41005965172537456 -0.40508740494723722 1.0000000180025095e-35 -0.16155197734197355 -0.37885940434025056 0.68301241760694242 0.11327774301208603 1.0355239739290922 -0.58868340919614381 1.0000000180025095e-35 0.45585872051039827 1.0883159097380517 0.57417690300564972 0.11832904601063772 1.0000000180025095e-35 0.41005965172537456 0.21868727455002826 0.28122566169968627 2.1753517037230812 -0.037895396449424225 0.21868727455002826 1.0000000180025095e-35 -0.28252407584699385 -0.46647468044659612 0.11981255180420262 0.41005965172537456 -0.61526930269389901 -0.30177228741856138 1.0000000180025095e-35 0.58970404949994371 0.043190906282006052 0.28122566169968627 0.41005965172537456 -0.54800417018223502 -0.26200201170159937 0.34572330864494466 1.0000000180025095e-35 -0.093867660343151901 1.0000000180025095e-35 -0.23823958906453954 0.26328950617778418 -0.16342227727501227 0.52675920434775014 -0.86922742007803866 1.4997665357678132 -0.38932843537365086 1.0000000180025095e-35 0.40334582213607573 -0.10389050723193209 -0.74464432563605387 0.34518665962737605 -0.12389370294828396 -0.082214109937681454 0.49439345127594375 0.14570060779948238 0.15483823701311913 -0.28252407584699385 0.0078682114741437971
decision_type=2 2 2 2 2 2 2 2 2 2 2 2 2 2 2 2 2 2 2 2 2 2 2 2 2 2 2 2 2 2 2 2 2 2 2 2 2 2 2 2 2 2 2 2 2 2 2 2 2 2 2 2 2 2 2 2 2 2 2 2 2 2
left_child=2 19 13 8 7 11 9 24 12 20 16 15 -4 32 36 29 17 57 35 33 25 23 48 52 41 53 -27 -13 -16 44 -31 -18 -1 59 -32 -10 -14 -26 -39 40 -15 -3 -43 -19 -5 -46 47 -12 -23 -25 -51 -52 -6 -7 -55 56 -37 58 -9 60 -2 -57
right_child=1 4 3 5 21 6 -8 10 18 -11 46 27 14 39 28 -17 31 43 -20 -21 -22 22 -24 49 37 26 -28 -29 -30 30 34 -33 -34 -35 -36 55 -38 38 -40 -41 -42 42 -44 -45 45 -47 -48 -49 -50 50 51 -53 -54 54 -56 61 -58 -59 -60 -61 -62 -63
leaf_value=-0.4587417802637212 -0.49397940109649097 -0.4274445512928608 -0.47478202674106584 -0.42424239578450423 -0.45214236457018514 -0.46008610568277486 -0.52772138715568151 -0.43124421487398767 -0.42582440488412709 -0.50707960573830557 -0.47321418310042312 -0.44033036691581262 -0.41625728213532898 -0.50218793357950031 -0.43054214937467528 -0.47827453360953198 -0.46882422090662357 -0.46882422090662357 -0.48669763840995039 -0.54840592560913559 -0.48191185995277541 -0.541234476432922 -0.48073983257550812 -0.52888863074773551 -0.44774275410782777 -0.49992106111566376 -0.44317536189055001 -0.49414489570300324 -0.47563314186027184 -0.48073983257550812 -0.43077113848018578 -0.51648666758216177 -0.50235419792836844 -0.54131843846464645 -0.47052645114503561 -0.46124155893551516 -0.42835833177367894 -0.45690860923773896 -0.5078581212012454 -0.49503856657816958 -0.54394438142785229 -0.4228640044694974 -0.47141457126942454 -0.51648666758216177 -0.47120734324040048 -0.41546300343292314 -0.53023545027702856 -0.50754995883049836 -0.51251479702586689 -0.4664410985728466 -0.50235419792836844 -0.54573407804215113 -0.49503856657816958 -0.43124421487398762 -0.46286641507218124 -0.48414429305233225 -0.41639552956353149 -0.41945954399267321 -0.47733537209868393 -0.49373868166883672 -0.53698151965264318 -0.44329076733044237
leaf_weight=9.0917142629623413 9.4413955807685834 19.232472479343414 8.3923516273498517 143.36934030056 6.9936263561248788 15.735659301280974 12.238846123218535 9.0917142629623466 48.256021857261658 13.287890076637266 13.287890076637263 8.0426703095436114 506.33854818344116 6.9936263561248806 16.435021936893467 10.140758216381071 8.3923516273498553 8.3923516273498517 8.3923516273498517 182.88332921266556 21.330560386180878 40.912714183330536 8.3923516273498517 17.134384572505951 9.0917142629623431 14.336934030055998 20.63119775056839 11.189802169799803 9.7910768985748273 7.6929889917373648 32.520362555980682 12.588527441024778 15.036296665668488 45.80825263261795 7.3433076739311209 11.539483487606049 70.635626196861267 7.3433076739311245 10.140758216381071 6.993626356124877 24.128010928630829 7.3433076739311245 16.085340619087219 6.993626356124877 10.490439534187319 8.0426703095436078 9.0917142629623395 27.974505424499515 12.588527441024778 8.7420329451560992 15.036296665668489 7.6929889917373648 8.7420329451560939 45.458571314811707 8.3923516273498517 7.34330767393112 13.987252712249756 9.7910768985748273 7.3433076739311209 7.6929889917373648 26.226098835468292 7.3433076739311218
leaf_count=26 27 55 24 410 20 45 35 26 138 38 38 23 1448 20 47 29 24 24 24 523 61 117 24 49 26 41 59 32 28 22 93 36 43 131 21 33 202 21 29 20 69 21 46 20 30 23 26 80 36 25 43 22 25 130 24 21 40 28 21 22 75 21
internal_value=-0.462163 -0.515022 -0.435733 -0.431454 -0.490629 -0.447684 -0.465715 -0.473741 -0.422514 -0.460262 -0.485388 -0.436253 -0.419792 -0.511265 -0.419027 -0.433153 -0.471553 -0.458511 -0.439702 -0.542677 -0.45532 -0.515001 -0.527191 -0.503276 -0.454742 -0.449895 -0.466441 -0.471641 -0.447376 -0.430969 -0.444993 -0.497422 -0.485921 -0.530926 -0.438094 -0.435244 -0.417739 -0.473214 -0.486459 -0.527309 -0.534561 -0.443235 -0.456197 -0.490489 -0.426849 -0.447016 -0.502585 -0.496493 -0.534477 -0.512115 -0.502982 -0.517037 -0.475974 -0.44158 -0.436172 -0.446547 -0.436668 -0.43975 -0.451838 -0.519946 -0.525599 -0.463718
internal_weight=0 580.471 1160.94 1098.7 308.419 390.244 151.412 182.184 708.454 139.173 112.947 238.832 611.593 62.2433 603.2 219.6 62.593 41.6121 96.8617 272.052 125.885 126.235 61.8936 64.3414 69.2369 104.555 34.9681 19.2325 26.2261 209.459 47.5567 20.9809 24.128 89.1687 39.8637 88.4694 576.974 26.5758 17.4841 38.1153 31.1216 42.6611 23.4286 15.386 161.902 18.5331 50.3541 41.2624 53.5012 48.6057 31.4713 22.7293 15.7357 69.5866 53.8509 40.2134 25.5267 26.2261 16.435 43.3605 35.6675 14.6866
internal_count=4980 1660 3320 3142 882 1116 433 521 2026 398 323 683 1749 178 1725 628 179 119 277 778 360 361 177 184 198 299 100 55 75 599 136 60 69 255 114 253 1650 76 50 109 89 122 67 44 463 53 144 118 153 139 90 65 45 199 154 115 73 75 47 124 102 42
is_linear=0
shrinkage=1


Tree=1
num_leaves=63
num_cat=0
split_feature=1 1 1 4 1 4 4 4 4 9 3 9 0 3 2 7 4 3 4 6 2 2 9 7 7 0 3 3 0 9 4 4 7 2 3 0 0 1 2 11 9 7 5 2 9 2 0 0 5 5 4 0 0 0 0 2 6 7 6 5 0 9
split_gain=43.0391 15.8319 25.4983 18.9175 42.7949 18.97 25.2332 35.7344 40.4511 35.9332 10.5808 15.2587 6.9657 6.89841 15.8256 7.42157 5.50508 11.3384 5.81382 8.98439 6.28505 7.98177 7.72741 5.19966 23.1272 5.80628 8.6547 5.49249 4.94282 4.51109 4.44853 3.93598 6.25281 11.3134 3.38017 3.01046 9.10494 6.13351 2.95524 2.64461 3.95007 3.0688 2.42128 3.45997 2.30112 5.60186 2.17882 12.6373 2.0848 9.5164 2.71382 2.0453 5.31706 6.94141 2.00851 1.42019 1.97713 1.40656 2.07127 1.3865 2.19681 0.854065
threshold=-0.43131540555422393 1.0112246278300419 -0.064123397056410888 -0.6377651691957521 0.25061261022742892 4.5338899718845385 0.79185160228758911 0.41633014618366992 0.49538729483712657 0.41005965172537456 -1.0207242190905104 -0.3575125913566729 -1.0173728697604434 0.62596590702373323 0.14556234809399587 1.1548297886724412 -0.12389370294828396 1.2326412166447711 -0.50600325477332442 0.53128787639491171 -0.37909129119245183 -0.59663060504293008 -0.3575125913566729 0.57417690300564972 0.39331780747009154 0.25528765032054912 -1.0496135195486549 -0.35627030855318403 -0.74364803976815808 0.41005965172537456 0.25821584887675658 -0.07118893717931285 -0.22541067725681763 -0.17946697965907174 1.0304161134377585 -0.65728077287576758 -0.76421167474253671 0.14570060779948238 1.21022534293869 1.0000000180025095e-35 0.41005965172537456 -0.72039346503834489 1.0764983177879921 -0.38420986328305134 1.0000000180025095e-35 0.14556234809399587 0.20593492638204022 0.18491432174156422 -0.25779441813003418 -0.10282734840727137 0.45585872051039827 -0.29901655465548099 -0.54440926534973333 -0.48637411775537576 -0.43062381849150461 -0.17434840756847228 1.0000000180025095e-35 -0.47290207114758126 0.15619455435207349 1.6027559803244795 -1.1558346785879263 1.0497031876270815
decision_type=2 2 2 2 2 2 2 2 2 2 2 2 2 2 2 2 2 2 2 2 2 2 2 2 2 2 2 2 2 2 2 2 2 2 2 2 2 2 2 2 2 2 2 2 2 2 2 2 2 2 2 2 2 2 2 2 2 2 2 2 2 2
left_child=38 2 16 4 -4 6 7 10 9 -9 11 -5 -10 15 -15 35 18 23 19 20 21 -2 -23 24 25 26 -18 -28 -13 -14 -19 -29 33 -33 -8 36 37 -12 46 41 -41 -3 51 -44 -22 -46 47 48 -1 -50 -51 52 61 -54 -34 56 -25 58 -37 -43 -61 -20
right_child=1 39 3 5 -6 -7 34 8 12 -11 13 28 29 14 -16 -17 17 30 42 -21 44 22 -24 55 -26 -27 27 31 -30 -31 -32 32 54 -35 -36 57 -38 -39 -40 40 -42 59 43 -45 45 -47 -48 -49 49 50 -52 -53 53 -55 -56 -57 -58 -59 -60 60 -62 -63
leaf_value=-3.3806220236593236 -3.3886700272387182 -3.294521159968661 -2.9393231607225356 -3.1159629634220005 -3.3886700272387182 -3.0921010953380375 -3.3886700272387182 -2.8773442825823725 -3.1909574059715977 -3.2142177143559647 -3.259727013368857 -3.3886700272387182 -3.2723684853168828 -3.3651328104212039 -3.1627127457905804 -3.2304999302250219 -3.198561737558796 -3.1415292506548176 -3.3886700272387182 -3.2325811157120441 -3.3886700272387182 -3.1605400796228103 -3.3248917623138405 -3.3886700272387182 -3.1225184216868254 -3.3802207699196103 -3.3886700272387178 -3.3656801875564946 -3.2403855612883774 -3.3886700272387182 -3.289813716605158 -3.1062234254285483 -3.3886700272387182 -3.3204932612845388 -3.2945211599686606 -3.3886700272387182 -3.2239095095161181 -3.3886700272387182 -3.3197005081920481 -3.2538659672838635 -3.3886700272387182 -3.3860338589551566 -3.3886700272387182 -3.2650996389467677 -3.3886700272387182 -3.2403855612883778 -3.3852104888088475 -3.2003722926986033 -3.2513695958032178 -3.383521261059887 -3.3027080179921442 -3.3886700272387182 -3.2003722926986038 -3.3612099409516181 -3.2945211599686597 -3.3886700272387182 -3.289813716605158 -3.3886700272387182 -3.289813716605158 -3.3886700272387182 -3.289813716605158 -3.3392418719219381
leaf_weight=37.276325091719627 1.6185107231140134 1.0621476620435775 1.1127261221408837 1.4667753428220751 1.0115692019462583 1.0115692019462574 9.3064366579055768 1.4667753428220742 1.264461502432823 1.7196676433086393 1.1633045822381971 1.2644615024328234 1.7196676433086397 2.1242953240871425 1.7702461034059522 1.2644615024328221 1.3150399625301457 1.0115692019462579 6.4234644323587418 1.9219814836978901 6.3223075121641141 1.3150399625301361 1.5679322630166999 1.0115692019462588 1.315039962530135 5.9176798313856116 3.2370214462280353 2.174873784184463 1.0115692019462539 1.6185107231140134 1.0115692019462583 1.0621476620435792 1.2138830423355105 1.4667753428220747 1.0621476620435704 1.1127261221408855 1.5173538029193885 4.4509044885635376 2.174873784184455 1.1127261221408837 1.0621476620435713 18.966922536492351 1.0621476620435717 1.2138830423355091 1.7196676433086397 1.0115692019462583 57.811179891228676 1.0621476620435704 1.8208245635032643 9.7110643386840803 1.1633045822381962 14.617174968123438 1.0621476620435717 1.8208245635032669 1.0621476620435504 5.1590029299259177 1.0115692019462583 6.2717290520668127 1.0115692019462583 1.2644615024328234 1.0115692019462574 1.0115692019462583
leaf_count=737 32 21 22 29 20 20 184 29 25 34 23 25 34 42 35 25 26 20 127 38 125 26 31 20 26 117 64 43 20 32 20 21 24 29 21 22 30 88 43 22 21 375 21 24 34 20 1143 21 36 192 23 289 21 36 21 102 20 124 20 25 20 20
internal_value=-3.35413 -3.33578 -3.32809 -3.299 -3.1533 -3.3061 -3.31118 -3.28935 -3.19609 -3.05915 -3.31908 -3.24172 -3.2909 -3.33308 -3.27312 -3.34698 -3.34692 -3.32968 -3.35822 -3.33375 -3.34809 -3.29981 -3.24992 -3.33857 -3.32472 -3.33996 -3.3193 -3.33484 -3.32277 -3.32876 -3.21567 -3.30987 -3.28461 -3.2305 -3.37903 -3.35647 -3.33258 -3.36195 -3.37741 -3.37233 -3.3197 -3.37746 -3.37213 -3.32277 -3.3721 -3.33375 -3.37856 -3.37103 -3.37466 -3.35716 -3.37488 -3.37664 -3.35959 -3.30195 -3.34473 -3.37475 -3.33924 -3.37676 -3.3416 -3.38161 -3.34473 -3.38195
internal_weight=0 140.861 116.381 45.7229 2.1243 43.5986 42.5871 32.2185 7.78908 3.18644 24.4294 3.74281 4.60264 20.6866 3.89454 16.792 70.6581 27.9699 42.6882 15.477 13.555 4.50148 2.88297 25.9468 18.7646 17.4496 11.5319 10.2168 2.27603 3.33818 2.02314 6.97983 4.80495 2.52892 10.3686 15.5276 7.13156 5.61421 111.02 24.48 2.17487 22.3051 27.2112 2.27603 9.05354 2.73124 108.845 51.0337 49.9715 12.6952 10.8744 24.9352 10.318 2.88297 2.27603 7.18214 2.02314 8.39602 2.1243 21.243 2.27603 7.43503
internal_count=4980 2785 2301 904 42 862 842 637 154 63 483 74 91 409 77 332 1397 553 844 306 268 89 57 513 371 345 228 202 45 66 40 138 95 50 205 307 141 111 2195 484 43 441 538 45 179 54 2152 1009 988 251 215 493 204 57 45 142 40 166 42 420 45 147
is_linear=0
shrinkage=1


Tree=2
num_leaves=63
num_cat=0
split_feature=1 0 0 13 8 1 6 15 4 2 1 4 4 15 0 8 13 7 14 0 8 5 8 6 8 13 14 4 6 3 5 4 3 3 0 4 7 7 2 7 4 6 5 8 7 3 4 5 1 2 6 7 10 5 3 7 11 8 3 1 3 0
split_gain=871.208 183.464 143.161 56.6137 28.3062 27.128 23.0875 17.2846 13.8333 12.2735 10.5123 10.4974 10.4054 9.93181 9.06512 9.05014 9.04707 10.8798 8.23241 8.10978 10.496 8.09621 8.01423 7.56474 9.21532 7.49357 7.43064 6.98 6.95884 6.92222 6.88465 6.87702 6.39375 6.23859 6.10901 6.02111 5.75751 5.50086 5.36395 5.92989 5.19886 4.78709 4.72799 4.62684 4.52681 4.47556 4.37781 3.72338 3.67651 3.84814 3.65388 3.55956 3.4607 3.27047 3.2682 3.21799 3.08382 3.0215 2.90127 2.84723 2.78516 2.69274
threshold=-0.16903539948435745 -0.76421167474253671 -1.0479898373889627 1.0000000180025095e-35 -0.62575966377762116 -0.40508740494723722 0.28122566169968627 1.0000000180025095e-35 0.38338966757806298 0.68301241760694242 -0.58868340919614381 0.9104373252677741 -0.15024608583276952 1.0000000180025095e-35 -0.42194139483565585 0.077418561951996381 1.0000000180025095e-35 0.23149651146459219 1.0000000180025095e-35 0.49656763401992582 -1.5004447738315356 1.0355239739290922 -0.14554038766958968 0.26236851108332476 -0.5914582869127617 1.0000000180025095e-35 1.0000000180025095e-35 0.79185160228758911 0.28122566169968627 -0.9629456181742212 0.39700711546123341 1.0000000180025095e-35 0.019290597402695842 -0.55849541176019657 -1.3765510273129244 0.73255874079749661 -0.53001546973775737 -0.28252407584699385 0.23001878758888747 0.079194115224122244 0.79185160228758911 0.28122566169968627 -0.28905048812496437 -0.32276416813802983 0.28860991005476849 0.048179897860840502 0.45585872051039827 -0.29771813778742401 0.32929661204838884 -0.28439770751636129 -0.74464432563605387 -0.14925947913658266 1.0000000180025095e-35 -0.61894648739918501 -1.0207242190905104 0.13630751381429848 1.0000000180025095e-35 -0.34563175271460278 0.3370729024422871 -0.3264034031262773 0.91485891160517963 -0.34151473360253032
decision_type=2 2 2 2 2 2 2 2 2 2 2 2 2 2 2 2 2 2 2 2 2 2 2 2 2 2 2 2 2 2 2 2 2 2 2 2 2 2 2 2 2 2 2 2 2 2 2 2 2 2 2 2 2 2 2 2 2 2 2 2 2 2
left_child=2 13 16 10 19 11 14 9 15 18 -4 21 59 27 35 51 43 58 29 20 -3 38 37 56 -25 -10 31 28 30 -7 34 32 -16 -17 -2 -6 -30 -20 53 -40 44 -19 46 -1 47 -39 -36 -22 49 -28 -31 -8 -23 -5 -55 -35 -14 -56 -18 -12 -26 -57
right_child=1 4 3 5 6 7 8 -9 25 -11 12 -13 23 -15 26 33 17 41 22 -21 40 52 -24 24 60 -27 48 -29 36 50 -32 -33 -34 55 42 -37 -38 45 39 -41 -42 -43 -44 -45 -46 -47 -48 -49 -50 -51 -52 -53 -54 54 57 61 -58 -59 -60 -61 -62 -63
leaf_value=-1.0436100506390935 -1.0087041644544379 -1.0889423703594252 -1.0747760204468215 -1.1059419902545495 -1.1230832736487999 -1.0652907252879478 -1.0331120397564904 -1.0322122102522671 -1.0706799215578058 -1.048859056080395 -1.1362314171614354 -1.0726982891263064 -1.1320382956402206 -0.99684816398982179 -1.0835024919929854 -1.0614191762435095 -1.0050775788768114 -1.0984621575006948 -1.0407605905423869 -1.0167593689585892 -1.0416154285713988 -1.0617429785272261 -1.1115120784755053 -1.0507337008808599 -1.1189172103377669 -1.0225130864615544 -1.0997087962930039 -1.0047096987953115 -1.0560764385621846 -1.0934756023314582 -0.9999776929082741 -1.073701331832762 -1.1360437562151844 -1.1164137561099463 -1.0572097465551931 -1.0768537517673367 -1.0112100982704502 -1.1121751842160952 -1.1219702032985239 -1.0711220791590188 -1.0052519339526589 -1.038623495469857 -1.0325288169296791 -1.096914605896449 -1.0260897216661005 -1.0587865228932916 -1.1077229028149911 -1.087934985476751 -1.0327697133146663 -1.0525146134413015 -1.1213146526627786 -1.0685428264852759 -1.1072316165914211 -1.1025420662755248 -1.120486109498156 -1.1059419902545495 -1.102073111243935 -1.1357602424489706 -1.0413434346530768 -1.118749923052246 -1.0835024919929854 -1.0610629937314211
leaf_weight=7.0188733041286495 6.6846412420272783 14.70621073246002 8.0215694904327375 17.380067229270935 32.086277961730957 7.6873374283313742 12.700818359851839 11.698122173547743 11.698122173547743 12.700818359851835 513.38044738769531 12.032354235649107 75.202213972806931 80.549926966428757 10.026961863040926 14.037746608257292 22.059316098690037 6.6846412420272809 11.698122173547745 21.725084036588669 8.3558015525341016 7.3531053662300119 15.708906918764113 7.018873304128646 32.754742085933685 26.070100843906403 8.0215694904327428 63.83832386136055 8.0215694904327375 15.040442794561384 8.0215694904327375 19.38545960187912 13.703514546155928 16.71160310506821 11.029658049345018 9.0242656767368299 65.843716233968735 8.0215694904327375 14.037746608257295 9.6927298009395582 8.6900336146354658 6.6846412420272827 9.024265676736837 9.6927298009395582 12.366586297750471 7.687337428331376 7.018873304128646 9.024265676736837 7.6873374283313742 9.3584977388381958 54.479826122522354 16.043138980865479 9.6927298009395599 11.029658049345015 48.129416942596436 6.6846412420272827 9.6927298009395582 98.932690382003784 7.3531053662300101 24.398940533399582 6.6846412420272818 6.6846412420272809
leaf_count=21 20 44 24 52 96 23 38 35 35 38 1536 36 225 241 30 42 66 20 35 65 25 22 47 21 98 78 24 191 24 45 24 58 41 50 33 27 197 24 42 29 26 20 27 29 37 23 21 27 23 28 163 48 29 33 144 20 29 296 22 73 20 20
internal_value=-1.09321 -1.04205 -1.11878 -1.12306 -1.06905 -1.10742 -1.07809 -1.09048 -1.06199 -1.09561 -1.13167 -1.11815 -1.13236 -1.01143 -1.09439 -1.07472 -1.04333 -1.03114 -1.10054 -1.0425 -1.05302 -1.12068 -1.08304 -1.11974 -1.10352 -1.03743 -1.08321 -1.01798 -1.02531 -1.11031 -1.04162 -1.09579 -1.11384 -1.08894 -1.05151 -1.11294 -1.01608 -1.06672 -1.12351 -1.1012 -1.03927 -1.06854 -1.06208 -1.07453 -1.04921 -1.08605 -1.07685 -1.06567 -1.06156 -1.0743 -1.11529 -1.05289 -1.08761 -1.12653 -1.12879 -1.10179 -1.12862 -1.13076 -1.01414 -1.13544 -1.11291 -1.0835
internal_weight=0 554.825 1109.65 1050.16 294.793 373.003 219.925 144.722 110.631 133.024 677.154 228.28 669.133 260.033 109.294 72.8626 59.4933 42.7817 120.324 74.868 53.1429 216.248 43.1159 131.353 46.4583 37.7682 68.1833 179.483 115.644 77.2076 41.779 43.1159 23.7305 44.1186 33.7574 41.1105 73.8653 27.407 199.202 23.7305 38.4367 13.3693 27.0728 16.7116 29.7467 15.7089 18.0485 17.3801 25.0674 17.3801 69.5203 28.744 17.0458 175.472 158.092 30.0809 84.8949 147.062 29.4124 537.779 39.4394 13.3693
internal_count=4980 1660 3320 3142 882 1116 658 433 331 398 2026 683 2002 778 327 218 178 128 360 224 159 647 129 393 139 113 204 537 346 231 125 129 71 132 101 123 221 82 596 71 115 40 81 50 89 47 54 52 75 52 208 86 51 525 473 90 254 440 88 1609 118 40
is_linear=0
shrinkage=1


Tree=3
num_leaves=63
num_cat=0
split_feature=1 0 0 13 9 1 15 2 1 2 5 4 1 9 4 4 11 2 13 9 8 6 4 0 6 1 8 9 7 5 4 7 4 9 5 14 8 4 5 2 14 4 6 6 9 6 8 8 2 8 6 2 2 1 6 6 0 7 2 2 0 13
split_gain=842.259 132.059 127.212 58.5578 45.0292 28.7295 17.5128 14.3859 12.5067 11.3434 9.69201 9.48362 9.36771 8.71106 8.48594 8.34135 7.51441 6.49141 6.34282 6.18473 6.05751 5.96289 7.33913 5.46013 5.44548 5.43397 14.7604 5.37991 5.34553 7.39488 6.68153 6.16657 5.05634 4.24992 4.09845 5.24534 3.88825 3.84236 3.79786 3.73844 3.87194 3.7127 3.65016 5.09644 3.56449 3.50841 3.55056 3.38396 4.25071 3.33502 3.18713 4.31892 3.12124 2.9351 2.80468 2.706 2.64519 2.64257 2.60947 5.74403 3.1894 2.54464
threshold=-0.16903539948435745 -1.0479898373889627 -0.76421167474253671 1.0000000180025095e-35 0.41005965172537456 -0.40508740494723722 1.0000000180025095e-35 -0.16155197734197355 -0.37885940434025056 0.32983094335557755 0.014054594010744702 0.61397301781731162 -0.58868340919614381 1.0000000180025095e-35 1.0883159097380517 0.45585872051039827 1.0000000180025095e-35 -0.58895274690703092 1.0000000180025095e-35 0.41005965172537456 0.48903508433030923 0.28122566169968627 2.1753517037230812 -0.50099714707048937 -0.093867660343151901 -0.037895396449424225 -0.45425277945332421 -0.74129871289769766 0.68840370018600205 0.11832904601063772 0.040808690079750749 -0.092146080546406453 0.23186346599227101 0.28213094454503368 -0.092583762442546361 1.0000000180025095e-35 -0.32276416813802983 -0.15024608583276952 -0.61526930269389901 1.0259567476771083 1.0000000180025095e-35 -0.37424134035089668 -0.74464432563605387 -0.16663166543889363 0.41005965172537456 0.28122566169968627 -0.17412486839030583 0.75201230696089794 -0.50705559345743911 -0.67149483293076695 0.057296998130396196 -0.21017841220266872 -0.43027701209844676 -0.48377140676819713 1.4997665357678132 -0.46896098238598977 0.39374945914803233 -0.073108281016347698 -0.38932843537365086 1.0000000180025095e-35 0.40334582213607573 1.0000000180025095e-35
decision_type=2 2 2 2 2 2 2 2 2 2 2 2 2 2 2 2 2 2 2 2 2 2 2 2 2 2 2 2 2 2 2 2 2 2 2 2 2 2 2 2 2 2 2 2 2 2 2 2 2 2 2 2 2 2 2 2 2 2 2 2 2 2
left_child=1 13 19 8 7 10 9 27 12 17 14 28 -3 37 33 44 45 -7 -13 41 24 25 54 -12 -17 26 -6 55 29 30 -9 -31 42 -5 35 -29 -25 -1 -35 40 -11 -2 52 -44 -14 -10 -47 -46 -49 -45 51 -43 -19 -15 -23 -4 -51 -40 -27 -60 -61 -57
right_child=2 3 4 5 21 6 -8 11 16 39 23 18 15 53 -16 20 -18 32 -20 -21 -22 22 -24 36 -26 58 -28 34 -30 31 -32 -33 -34 38 -36 -37 -38 -39 57 -41 -42 50 43 49 47 46 -48 48 -50 56 -52 -53 -54 -55 -56 61 -58 -59 59 60 -62 -63
leaf_value=-0.0040496723089896193 -0.0354458344806656 -0.01164885363888511 0.042776352141559101 0.036882027561591979 -0.057661779807103436 -0.027677368406712557 -0.059795192370147146 0.023244307202027362 0.034705229796145799 0.0039567239312169678 -0.035395785558400721 -0.016046941821012736 0.044138292068156101 -0.034351248814743135 -0.017291053157192059 0.022709362073846436 -0.02394991993560543 0.020057119049098897 -0.066613561822636877 -0.077782916355399467 0.039555603191288681 -0.072797345417685441 -0.016624587107139301 -0.010073732960587932 -0.039938547660665617 -0.062003394818351078 0.03915837506566977 0.023053270214464433 -0.031076019523769913 -0.061928468302446305 -0.023427516925757591 -0.0076529772046722792 -0.012864021321964523 -0.010179693919818626 -0.031226542404959534 -0.026881134420718975 0.02302891770550038 -0.044005687567343715 0.032440144574227767 -0.051768060756508319 -0.037379921513079784 -0.018204715984293761 0.041986598592215263 -0.0086687924302817632 0.039207960718105735 -0.0075010920574518749 0.024669201682713002 -0.014881633735185583 0.03230949635915558 0.034569592943248233 -0.070627519526992297 -0.07114895510416934 -0.020962409677303593 -0.066954809620652589 -0.046126651877659672 0.032170047304842582 0.00063257938442051547 0.0019080881652691628 -0.003571491192600083 -0.037676737035423902 -0.076774839938755626 -0.00074059485329483737
leaf_weight=13.796843886375429 11.526439875364302 8.4492566883563978 10.406461119651793 128.42672148346901 8.5048161149024946 10.514873236417769 12.584756493568419 25.441213250160217 47.339511603116989 13.278637915849686 7.3484557569026938 9.9523591399192828 494.41477692127228 8.9475595951080305 9.1698107421398145 6.8796440958976746 8.4232537746429426 9.1007643938064593 16.454591155052185 189.63792896270752 12.072982013225554 42.088452458381653 8.4990507662296277 13.567074656486509 6.996014356613161 17.530304074287415 7.3284161686897269 15.033255815505981 28.737653911113739 8.1721153259277362 10.977117061614988 14.552532166242598 15.10967120528221 8.7297637760639173 11.235680937767027 8.0889003276824951 25.627814739942551 10.670315504074095 33.685595989227295 8.9244151115417463 9.8800113201141357 7.5141775906085968 24.860478281974785 12.203655660152426 48.659880816936493 12.503490567207335 27.310816437005997 7.5333015322685268 13.017176836729048 16.967121154069925 65.096588134765625 7.9033612906932813 9.4560981988906772 30.208106487989426 12.871867299079893 9.7510776519775391 8.6788029670715314 8.9750630855560285 8.7857212722301501 15.251829117536547 7.9269492924213401 14.769962191581726
leaf_count=39 32 24 30 374 24 30 35 73 138 38 21 28 1448 25 26 20 24 26 46 523 35 117 24 39 20 49 21 43 81 23 31 41 43 25 32 23 74 30 98 25 28 21 72 35 142 36 79 22 38 49 180 22 27 84 36 28 25 26 25 43 22 42
internal_value=0 0.025125 -0.0482557 0.0292464 -0.0262833 0.0136666 -0.00331429 -0.0103824 0.0379412 0.0018003 0.0245935 -0.0212807 0.0406254 -0.0448796 0.0296269 0.0413745 0.0211467 0.0096263 -0.0475558 -0.0726214 0.0136568 -0.0489484 -0.0598644 0.00415538 -0.0088773 -0.0383446 -0.0128485 0.00759439 -0.0133853 -0.00478941 0.00917661 -0.0271712 0.0136962 0.0320195 -0.00645339 0.00558455 0.0115706 -0.0214748 0.019868 -0.0242737 -0.0136784 -0.0619866 0.0186345 0.0243988 0.0426506 0.0255052 0.0145663 0.032023 0.0150104 0.0128468 -0.0657862 -0.0453451 -0.000845374 -0.0595045 -0.066551 0.0214131 0.023085 0.0260167 -0.0465008 -0.0379986 -0.051048 0.0123467
internal_weight=0 1144.31 594.039 1080.69 312.36 387.09 151.559 183.573 693.6 138.975 235.53 114.288 598.023 63.6228 188.987 589.574 95.5771 106.891 26.407 281.678 25.9486 128.787 63.4594 46.5433 13.8757 65.328 15.8332 69.2853 87.8806 59.143 36.4183 22.7246 96.3766 179.817 34.3578 23.1222 39.1949 24.4672 51.3904 32.0831 23.1586 92.0406 81.2669 62.7101 563.625 87.1538 39.8143 69.2104 20.5505 37.8496 80.5141 15.4175 18.5569 39.1557 54.9603 34.9275 25.6459 42.6607 49.4948 31.9645 23.1788 24.521
internal_count=4980 3320 1660 3142 882 1116 433 521 2026 398 683 323 1749 178 549 1725 277 307 74 778 75 361 177 134 40 184 45 198 249 168 104 64 277 523 98 66 113 69 149 91 66 255 234 181 1650 253 115 202 60 109 223 43 53 109 153 100 74 124 139 90 65 70
is_linear=0
shrinkage=0.05


Tree=4
num_leaves=63
num_cat=0
split_feature=1 8 6 6 1 0 2 1 8 2 5 2 0 7 7 1 8 9 8 0 5 1 6 2 0 1 8 7 2 2 0 5 1 1 5 0 7 2 7 8 6 7 2 9 7 8 7 2 8 9 6 0 5 0 0 7 0 0 9 5 5 8
split_gain=38.8992 17.5725 18.677 35.9641 21.4471 18.9171 22.8305 33.5114 13.4165 16.6068 13.3307 12.635 14.1187 6.52968 15.0047 6.09836 6.01346 4.76013 10.953 10.3769 7.13392 6.61655 8.84329 4.58306 4.84042 4.47254 7.30464 6.55705 9.57173 5.95589 4.26598 4.21452 4.15085 10.6335 4.08197 4.01195 4.16574 5.65088 8.11378 3.74105 13.8713 3.39093 3.36843 2.94588 2.71058 2.6493 2.6036 2.49305 1.69857 1.1598 1.98367 1.03742 2.71189 0.989946 2.42579 1.391 3.27968 7.82803 0.952182 0.905743 0.901083 1.78194
threshold=-0.43131540555422393 -0.4428189871650377 -0.31779632391244172 0.13272560059584138 -0.037895396449424225 0.46777854505579564 -0.21017841220266872 0.27684061083441563 -0.19127555682273553 0.45267667352996538 -0.085229393031974562 0.37077952008037346 -0.54440926534973333 0.53610130394553213 -0.073108281016347698 0.32929661204838884 0.077418561951996381 -0.22958388417633205 2.2898573697354276 -1.030624990077265 -0.094685010845566867 -0.2214914006983307 0.40625676904729879 0.34518665962737605 -0.43062381849150461 0.14570060779948238 -0.60289207920104826 -0.41578867255740498 -0.32534628424115725 0.92870387795571796 -0.54440926534973333 -0.25779441813003418 0.19815660901345558 1.0000000180025095e-35 -0.23756990225096178 -0.26748564769476701 -0.47290207114758126 -0.54800417018223502 -0.054070481486288964 2.0383139393931256 -0.97851398708462101 -0.24444847678687637 1.21022534293869 -0.74129871289769766 1.0406029914920889 1.8896746396454012 0.43139340653020902 0.54481097116075616 -0.34563175271460278 -0.74129871289769766 0.53128787639491171 1.5576511986978665 -0.31190156450781242 0.40334582213607573 0.38735188382267005 0.13630751381429848 -0.43062381849150461 -0.6079280489372586 1.689346723528788 -0.63549381857297149 0.034016453839439589 0.59765611106903072
decision_type=2 2 2 2 2 2 2 2 2 2 2 2 2 2 2 2 2 2 2 2 2 2 2 2 2 2 2 2 2 2 2 2 2 2 2 2 2 2 2 2 2 2 2 2 2 2 2 2 2 2 2 2 2 2 2 2 2 2 2 2 2 2
left_child=39 15 23 4 13 6 10 -8 9 11 -6 12 -5 14 16 25 -4 19 20 -10 32 49 -23 45 -25 29 27 28 -27 35 -28 -14 33 34 -19 36 -2 38 -38 42 -41 -39 53 46 -43 48 -24 -26 -3 -21 -51 -37 -53 54 55 -1 57 -57 -55 -58 -50 -62
right_child=1 2 3 8 5 -7 7 -9 17 -11 -12 -13 31 -15 -16 -17 -18 18 -20 21 -22 22 43 24 47 26 30 -29 -30 -31 -32 -33 -34 -35 -36 51 37 41 -40 40 -42 44 -44 -45 -46 -47 -48 -49 60 50 -52 52 -54 58 -56 56 59 -59 -60 -61 61 -63
leaf_value=-0.028364832621853398 -0.034597277584932022 0.024474786260065832 0.1123806398098941 -0.0092700367148327249 0.17578465968504153 -0.0002179912499515355 0.39039716955949161 0.078632649235454058 0.13863557897875051 -0.034536169180571258 -0.034608474433507862 0.26404298797028153 0.24658878860030226 -0.034544255028570392 0.21638783276969997 -0.02891765687685733 -0.016257950319273223 -0.019557649065724065 0.15472894135017232 -0.034520339327361642 -0.034574690233309953 0.15394814673172172 -0.034533012953365132 0.099256457530155703 0.05986242508724994 0.15169070348346508 0.046562399893711838 -0.024230505867836705 -0.034600365366348446 0.09072699658040112 0.18013238817882113 0.10602929036617958 -0.02051724480009251 0.16160406742435546 0.086867838691173926 -0.034541334055101167 0.0064274375624711125 0.062845520605907229 0.19406845393097125 0.16213290271946179 -0.023930089037020201 -0.025252855379770081 0.038064249034698044 0.075294144005823474 0.06378075038347715 0.057301993561056447 0.043052712033511548 -0.034537598808844633 -0.034557414419537823 -0.034524890688005391 0.05933575785163319 0.066233852382283923 -0.034557150422561848 -0.033299061132575414 0.047771489055677088 -0.021074286453109159 0.016357319667261058 0.10663662769117305 0.01658939429875186 -0.034501992868230538 -0.034530657363101194 0.038905588292502555
leaf_weight=40.720327746123075 3.8707489594817153 1.6937335431575853 1.3607314303517339 1.9721207469701765 2.1377022415399556 1.452201224863529 2.4684069901704766 1.3244200460612772 2.0195373557508018 2.111060407012701 1.1622077301144589 1.3389647863805292 1.0667904056608675 1.8199358843266962 1.3946216180920608 17.714407946914434 2.7335556857287884 3.32983361557126 1.056307230144738 4.3187636211514473 12.7515080831945 1.5903690867125924 2.4563321880996236 1.8678783699870107 1.0584973320364945 1.6095096021890642 1.2303314842283728 4.7985286824405193 1.2063038162887094 1.5961908921599377 1.1626996658742408 1.0663903802633279 3.5565796568989754 1.5285157226026056 1.2352126240730306 11.121465966105463 1.2182522974908354 2.0507217049598676 1.0929888896644104 1.2710530199110506 4.7268767245113841 5.3636611737310922 2.0652154274284831 1.819335751235484 1.0169359929859636 1.0882259048521508 1.9316455386579034 2.0616113878786564 12.306526675820349 1.1948988847434532 1.064305894076824 0.99253116175532374 2.037115514278411 42.042938861995935 1.2156319804489601 3.7195824384689331 0.98303237929940124 1.7712528221309174 0.97870923951268096 7.9948118440806857 2.1032194681465639 1.3603496104478834
leaf_count=829 74 33 26 37 38 27 38 25 37 42 22 24 20 36 27 346 54 65 20 87 247 29 49 36 20 29 22 89 23 31 19 20 69 28 24 221 23 37 20 25 96 104 40 34 20 21 37 41 242 24 20 20 40 866 25 75 20 36 20 163 42 26
internal_value=0 0.0168269 0.0310709 0.0452188 0.110411 0.164195 0.197858 0.281532 0.023418 0.0845075 0.101686 0.130668 0.0871667 0.0475299 0.0747429 -0.0044603 0.0264949 0.0118367 -0.00260971 0.0325065 -0.0100287 0.0175971 0.0487527 -0.00695032 0.0355975 0.00627216 0.0352605 0.0113126 0.071883 -0.00328291 0.11146 0.176322 0.0224059 0.0474584 0.00923902 -0.00849969 0.00987589 0.0259004 0.0951631 -0.022871 0.0154995 0.00691373 -0.0251387 0.0218006 -0.0110627 -0.0183899 -0.000378756 -0.00251238 -0.0231065 -0.0193354 0.00969263 -0.0274754 -0.00153739 -0.0264515 -0.0220942 -0.0236331 -0.0103164 0.0201231 -0.0321641 -0.0289331 -0.0282168 -0.00568788
internal_weight=0 144.885 86.8023 63.2623 15.8538 8.54494 7.09274 3.79283 47.4085 7.55533 3.29991 5.44427 4.1053 7.30884 5.48891 58.0824 4.09429 39.8531 23.458 16.3952 22.4016 14.3757 7.79768 23.54 4.98799 40.368 10.0074 7.61434 2.81581 30.3606 2.39303 2.13318 9.65014 6.09356 4.56505 28.7644 14.6133 10.7426 2.31124 107.489 5.99793 8.43132 101.492 6.20731 6.3806 18.5521 4.38798 3.12011 17.4638 6.57797 2.2592 14.1511 3.02965 99.4263 56.4046 55.189 14.4687 5.49084 43.0216 8.97784 15.7701 3.46357
internal_count=4980 2785 1667 1206 293 150 123 63 913 143 60 101 77 143 107 1118 80 770 453 317 433 280 149 461 97 772 182 141 52 590 41 40 186 117 89 559 278 204 43 2195 121 161 2074 120 124 364 86 61 343 131 44 281 60 2034 1148 1123 294 111 886 183 310 68
is_linear=0
shrinkage=0.05


Tree=5
num_leaves=63
num_cat=0
split_feature=1 0 0 9 13 1 9 9 2 4 9 9 4 6 8 8 4 1 0 6 4 2 4 6 3 14 7 0 9 0 0 4 1 1 8 8 0 3 3 2 9 6 7 1 8 9 2 4 6 0 0 8 2 4 3 4 8 2 4 0 3 3
split_gain=750.6 147.23 125.931 55.4412 52.3231 24.2786 16.9475 15.9442 14.87 13.3878 11.6805 10.5248 9.46207 9.31642 10.1795 9.00157 8.68287 6.81915 6.64439 8.6648 6.49735 6.07196 7.98472 6.00195 7.86928 5.94861 6.35873 5.9287 9.75732 9.43837 5.90262 5.82419 5.73312 5.67364 5.5625 5.22853 6.74761 6.33785 4.82218 4.73999 4.47488 4.43177 4.14371 3.95992 3.91391 3.69737 3.65154 3.60714 3.49644 3.42923 4.13281 3.42482 3.22256 3.18436 3.15151 3.1037 5.21285 3.56841 3.08686 2.95671 3.65841 2.8974
threshold=-0.16903539948435745 -0.76421167474253671 -1.0479898373889627 0.41005965172537456 1.0000000180025095e-35 -0.40508740494723722 0.28213094454503368 0.41005965172537456 -0.16155197734197355 0.857732559498803 0.41005965172537456 1.0000000180025095e-35 0.9104373252677741 0.28122566169968627 -0.5914582869127617 0.060267873519566681 0.50856348627936943 -0.58868340919614381 -0.19345656178700374 -0.093867660343151901 0.040808690079750749 0.43220238516756737 0.0078682114741437971 0.58970404949994371 0.077069198318985163 1.0000000180025095e-35 -0.28252407584699385 1.6458463442546463 1.3055606019877632 -0.34060079427033568 -0.45667108945905099 2.1753517037230812 -0.3526314037332639 -0.40508740494723722 -0.34563175271460278 -0.32276416813802983 -0.22133171141893929 0.22151570060970846 0.51040870519115511 0.12508805973159792 -0.74129871289769766 -0.35417832646031261 0.31716660934985658 0.17192860840646898 0.077418561951996381 0.41005965172537456 0.43220238516756737 -0.15024608583276952 0.28122566169968627 0.52398581398576416 -0.26200201170159937 -0.20842624525516523 0.26328950617778418 0.06057297724311491 -0.73183121450906452 0.45585872051039827 0.75201230696089794 -0.50705559345743911 -0.12389370294828396 0.20593492638204022 -0.1684898555752441 -0.70294191405091988
decision_type=2 2 2 2 2 2 2 2 2 2 2 2 2 2 2 2 2 2 2 2 2 2 2 2 2 2 2 2 2 2 2 2 2 2 2 2 2 2 2 2 2 2 2 2 2 2 2 2 2 2 2 2 2 2 2 2 2 2 2 2 2 2
left_child=2 7 11 8 10 12 25 23 40 15 17 47 35 14 49 21 27 -4 20 -20 -16 22 -10 24 51 54 -27 28 29 -8 -23 44 55 -19 -31 36 37 -6 42 -28 61 -13 46 -25 -15 52 -17 -1 -35 50 -5 -2 -37 -42 -7 56 -12 -58 -50 -38 -61 -3
right_child=1 3 4 13 5 6 16 -9 9 -11 32 41 -14 31 18 38 -18 33 19 -21 -22 30 -24 43 -26 26 39 -29 -30 34 -32 -33 -34 48 -36 45 59 -39 -40 -41 53 -43 -44 -45 -46 -47 -48 -49 58 -51 -52 -53 -54 -55 -56 -57 57 -59 -60 60 -62 -63
leaf_value=0.0017864570732425641 0.07142817334249002 0.0018415800978374586 0.011663091705296729 0.070315824448005881 0.029461887020459598 0.010634622702809016 -0.022708036495081924 0.081397352388777711 -0.026902490653685541 0.052859309941559997 -0.037696747194461186 0.039550644714266822 0.019138390806264553 0.077468416963336978 -0.037359670844307941 0.005207685445105751 0.068411029479413438 -0.04275136580229285 0.06552054496003587 0.00018344357394405449 0.022924416350857908 0.0092123039761870581 0.033444208705464447 0.042791337299385841 0.014185671806773735 0.040222915240690771 -0.031189694207776422 -0.028187550266262809 0.07570569431065817 0.054366726929744924 0.060643970044373975 0.022380272082926297 0.0098399127277853191 -0.037208888700107953 0.0016962432124261351 -0.039518449334427691 -0.045668677384853362 -0.022017559067774084 -0.036893338479451254 0.020187284968124837 -0.015096202981824859 0.074932562565365193 0.017487322201143445 0.076680210849450092 0.048728700653654367 -0.017170497933156444 -0.043481874315178234 0.041292605909262786 -0.029616732172912653 0.085944171130918956 0.018362877274965547 0.033976970780861142 -0.011924131215345461 0.016352300794093218 -0.024244325477677048 0.0055998116029209186 0.020806908409734346 -0.022906312627320402 -0.002600298065405857 0.0080530425867871465 -0.028128715789989236 -0.034929800015701631
leaf_weight=13.245507955551149 17.741702079772949 6.7072197794914237 6.4160716831684104 8.2106704711914045 13.255177825689318 7.3782556951045981 12.707087248563761 183.51774278283119 10.708458214998247 19.593129098415375 48.615248799324036 14.171305507421492 12.166232466697691 35.041969805955887 7.980122625827792 8.0735256075859052 9.1944379806518537 445.89400333166122 11.968527883291246 8.8091813921928388 10.160402268171309 9.1456131339073199 11.229584902524946 11.512381017208098 15.863347202539442 9.8565986156463641 10.65290540456772 6.7218438088893881 7.1074582636356345 11.864651650190348 14.303040921688078 8.163531541824339 13.497066795825956 72.345286756753922 8.6799828708171933 94.375987023115158 13.789648622274397 10.891426205635069 11.34856006503105 7.7591664791107169 18.636840581893921 23.570306748151779 17.578624457120895 34.311191588640213 17.896556973457336 32.573815673589706 7.3622190952301017 10.248556345701216 28.147459715604782 8.3181765675544721 7.1713022291660335 9.3066012263298052 11.916308730840681 14.169145643711088 52.983457446098328 7.2570729255676261 7.1683345139026668 13.388063430786131 16.93398317694664 9.55975693464279 25.953562289476395 26.613180547952652
leaf_count=39 51 20 19 24 40 22 38 523 32 57 149 41 36 101 24 24 27 1373 35 26 30 27 33 33 46 29 32 20 21 35 42 24 41 222 26 289 42 33 34 23 56 68 52 98 52 99 22 30 86 24 21 27 36 42 160 22 22 41 51 29 79 80
internal_value=0 0.0463782 -0.0243672 0.0221682 -0.0285124 -0.0134457 0.00250901 0.0729835 0.00409505 0.0154143 -0.0369492 0.0452925 -0.0237446 0.0478008 0.0342473 0.00723974 0.0239681 -0.0395925 0.0185154 0.0378194 -0.0035949 0.0228949 0.00398761 0.0555824 0.0421447 -0.0111164 0.00781207 0.0152889 0.0225299 0.0111637 0.0405842 0.0616906 -0.0202023 -0.0401763 0.0321138 -0.0262019 -0.0154132 0.00624187 -0.00877674 -0.00953854 -0.0146218 0.0616473 0.00088823 0.0681662 0.0677526 -0.0319084 -0.0180152 0.0190198 -0.0303982 0.0600808 0.0460946 0.0585422 -0.0364249 -0.00151336 -0.0199809 -0.0255077 -0.0287713 -0.00766284 -0.0194685 -0.0260189 -0.018389 -0.0275279
internal_weight=0 571.443 1090.29 299.19 1029.05 369.388 144.906 272.253 175.469 109.343 659.663 61.2357 224.482 123.72 62.6184 89.7496 56.2755 569.737 38.9182 20.7777 18.1405 45.3867 21.938 88.7352 42.9117 88.6304 28.2687 47.081 40.3592 33.2517 23.4487 61.1021 89.9258 563.321 20.5446 212.316 73.4496 24.1466 44.3629 18.4121 66.1264 37.7416 33.0144 45.8236 52.9385 138.866 15.4357 23.4941 117.427 23.7001 15.382 27.0483 106.292 32.806 60.3617 76.4287 69.1716 20.5564 45.0814 49.303 35.5133 33.3204
internal_count=4980 1660 3320 882 3142 1116 433 778 521 323 2026 178 683 361 184 266 167 1751 115 61 54 134 65 255 124 266 84 140 120 99 69 177 275 1732 61 647 223 73 132 55 198 109 98 131 153 424 46 69 359 69 45 78 325 98 182 234 212 63 137 150 108 100
is_linear=0
shrinkage=0.05


Tree=6
num_leaves=63
num_cat=0
split_feature=1 0 0 1 9 14 4 9 15 0 2 1 5 4 9 9 3 7 2 6 4 5 5 5 9 2 9 6 4 1 1 3 2 6 3 1 4 4 0 3 7 0 4 4 4 6 7 0 0 0 7 2 4 1 6 6 7 5 10 2 2 0
split_gain=734.189 116.642 106.404 52.6961 38.02 27.8828 12.8823 12.693 10.5023 10.3323 10.2077 9.01765 7.64644 7.63326 7.62613 7.29707 6.55324 6.51651 8.12358 5.8388 5.81561 5.61745 6.38059 5.3466 5.19689 5.12799 5.03573 4.96955 6.16494 4.82832 4.75694 4.4474 4.75116 4.22789 4.05063 3.64065 3.67498 3.54479 3.46981 3.42873 3.60604 3.30264 3.26746 3.12358 3.77544 3.05655 3.19511 5.61492 3.0442 2.92632 2.84811 2.65031 2.62754 2.58126 2.56236 2.52361 2.48385 2.45296 2.43107 2.33832 5.21629 2.69928
threshold=-0.16903539948435745 -1.0479898373889627 -0.76421167474253671 -0.40508740494723722 0.41005965172537456 1.0000000180025095e-35 0.41633014618366992 -0.86922742007803866 1.0000000180025095e-35 -0.23823958906453954 -0.54800417018223502 -0.3264034031262773 -0.060277068246105965 -0.031660362852584528 0.41005965172537456 1.0000000180025095e-35 -0.21182380626246075 -0.22541067725681763 0.32983094335557755 0.28122566169968627 0.31092061464572773 -0.15982371133920278 -0.57587089513726442 0.2344230202775211 0.79384577326639838 -0.25368627497276436 0.41005965172537456 0.28122566169968627 2.1753517037230812 0.093244606585509024 -0.037895396449424225 0.077069198318985163 -0.1129255424812784 0.11981255180420262 -0.2984917076368947 0.25061261022742892 0.71938254935525381 0.06057297724311491 0.37912642983291861 -1.6129548784824757 2.0210496672901144 1.8080705757191893 0.23186346599227101 -0.54553182910005271 -0.23589133020734757 -0.21387702649401627 -0.33963747443717002 -0.30038746365377295 -0.54532320468192796 0.18491432174156422 0.34572330864494466 -0.72971347939851683 0.06057297724311491 0.17192860840646898 1.4792696329239423 1.4997665357678132 -0.035032681956230223 0.15483823701311913 1.0000000180025095e-35 -0.38932843537365086 1.0000000180025095e-35 0.40334582213607573
decision_type=2 2 2 2 2 2 2 2 2 2 2 2 2 2 2 2 2 2 2 2 2 2 2 2 2 2 2 2 2 2 2 2 2 2 2 2 2 2 2 2 2 2 2 2 2 2 2 2 2 2 2 2 2 2 2 2 2 2 2 2 2 2
left_child=1 15 26 6 7 11 14 16 17 -8 -9 24 13 29 23 34 20 19 37 38 -4 22 -13 39 42 -15 31 30 55 -12 -6 -2 -33 -11 -1 -14 58 -19 -7 -3 54 51 45 -25 49 -5 -47 -48 -23 -45 -17 -16 -18 -27 -41 -29 -31 -49 -37 -32 -61 -62
right_child=2 3 4 5 27 8 9 10 -10 33 12 21 35 25 41 50 52 18 -20 -21 -22 48 -24 43 -26 53 -28 28 -30 56 59 32 -34 -35 -36 36 -38 -39 -40 40 -42 -43 -44 44 -46 46 47 57 -50 -51 -52 -53 -54 -55 -56 -57 -58 -59 -60 60 61 -63
leaf_value=-0.045847250671153639 -0.06387022103914336 0.0083238094965825214 0.0065388175223470811 0.03867080606230873 -0.011531561835398083 0.0057176782952974839 -0.03006747642888536 0.026130990173937371 -0.068783236952676172 0.036742656507283103 0.027112583543442099 -0.020032902838703185 -0.056018908089969482 0.0027230707846422515 -0.0082806571603201064 -0.060791022438792933 0.032767419922872236 0.031809106789621594 -0.031939044732660508 -0.06307900207188806 -0.044285772665948638 0.016497248833335833 0.026103214217258898 0.03701613963876834 -0.0083850827256352831 -0.065589084971435771 -0.071044418818574456 -0.066698794363401495 -0.015313839652685516 0.0065828865700711704 -0.057408087928168497 -0.01366378203461171 -0.05659324898007221 -0.0049730436147031355 -0.0040938603823606314 -0.030268889630974551 -0.052371989330853498 -0.010185072226167944 -0.038845640745866862 0.041636298360456826 0.013639667060165759 0.04075936881805816 0.0061606353197971456 -0.026929863524267003 0.033067748531502079 0.03539717947509452 0.042139528484501011 -0.011229842622605615 -0.021308450931343596 0.014491008229915206 -0.026160342121951782 0.022710724951288008 0.0072170486175697768 -0.02836558214540363 0.013233868537364149 -0.041661447611102097 -0.031078765442918033 0.023707065032018748 0.0037309059837185355 -0.0021929257938664722 -0.034932389092334822 -0.070553003394205657
leaf_weight=9.3547655344009417 66.70841708779335 8.3605594336986524 15.034947633743288 61.526023626327515 15.929844111204146 10.498462110757833 12.607164382934569 11.181747347116469 8.7287721037864667 20.181307792663578 13.859948068857195 9.6759067475795728 18.345934242010117 7.7899428904056576 7.5231390297412863 32.694538444280624 20.956356227397919 17.5210235118866 10.997935235500334 8.5178258419036847 8.9962309300899488 6.9336465299129513 33.234761923551559 26.161182284355164 10.510399520397185 8.6489886641502398 193.86850592494011 43.05493575334549 8.5676430165767652 8.6918691992759722 17.867872089147568 10.567181766033174 16.522291660308838 8.6889233291149122 15.323776096105574 12.885093718767166 10.533648073673247 7.0460525453090659 7.4804667532443991 522.95306769013405 12.135468035936354 24.710305362939835 15.189131945371626 6.9260159730911282 14.166980683803557 28.828943014144897 11.208642125129694 16.742969304323204 22.947133243083954 11.094443440437315 7.2544773519039145 83.087033897638321 19.356092512607574 10.091354906558989 8.0633347630500776 13.134619414806364 8.820715516805647 7.1781126558780661 8.8815710842609406 8.8673396408557874 15.467918366193773 8.105380564928053
leaf_count=26 181 25 43 182 45 30 36 32 24 59 40 28 51 22 22 89 61 51 31 24 25 20 97 78 30 24 523 117 24 25 49 29 45 25 43 36 29 20 21 1568 36 73 44 20 42 85 33 49 66 33 20 245 55 28 24 36 25 21 25 25 43 22
internal_value=0 0.0239187 -0.044457 0.0278895 -0.0243834 0.0099225 0.0347975 -0.0097311 -0.0174309 0.00769669 -0.0193562 0.0185679 -0.0240419 -0.0116308 0.0363476 -0.0412972 0.00817929 -0.0102084 0.00377618 -0.0289791 -0.0124877 0.00410922 0.0157 0.0385773 0.0255294 -0.0313722 -0.0664429 -0.0449726 -0.0548221 0.00506365 -0.0353435 -0.0569322 -0.0398471 0.0241877 -0.0199211 -0.0382312 -0.0281282 0.0197648 -0.0128237 0.0401 0.0405891 0.0245563 0.0280633 0.0241841 0.0137545 0.0307145 0.0230609 0.0129371 -0.0125359 -0.00142876 -0.0545023 0.0201376 0.0204994 -0.0455449 0.041205 -0.0608462 -0.0123865 -0.000746159 -0.0163958 -0.0428833 -0.0348833 -0.0471801
internal_weight=0 1126.05 602.736 1061.43 315.07 294.766 766.659 184.074 70.7905 41.4774 119.731 223.976 108.549 57.9028 725.182 64.6276 64.3436 62.0618 35.565 26.4968 24.0312 72.7914 42.9107 609.861 151.184 26.5303 287.666 130.996 64.7572 31.3725 66.2384 93.7979 27.0895 28.8702 24.6785 50.6462 32.3003 24.5671 17.9789 551.512 543.152 115.32 140.674 58.3486 32.1874 125.485 63.9587 35.1297 29.8808 18.0205 39.949 90.6102 40.3124 18.7403 531.016 56.1896 17.5126 23.9211 21.7667 50.3085 32.4406 23.5733
internal_count=4980 3320 1660 3142 882 856 2286 521 201 120 337 655 305 164 2166 178 184 177 102 75 68 211 125 1826 444 74 778 361 177 90 184 255 74 84 69 141 90 71 51 1653 1628 340 414 173 95 370 188 103 86 53 109 267 116 52 1592 153 50 70 61 139 90 65
is_linear=0
shrinkage=0.05


Tree=7
num_leaves=63
num_cat=0
split_feature=1 8 8 1 1 9 9 7 1 0 0 3 6 1 0 0 4 3 3 4 3 3 8 7 0 0 3 4 3 3 8 6 1 2 8 8 9 4 8 8 10 1 2 3 8 3 7 3 7 0 0 7 4 6 7 9 8 8 3 4 8 2
split_gain=35.41 15.7082 15.6795 16.6927 28.151 17.2449 20.0828 15.971 15.8464 13.7123 8.42379 8.02613 11.3024 6.05668 5.36077 6.60128 15.2609 5.16659 5.76019 5.09765 6.14529 18.5064 4.70963 7.34418 4.54604 4.49281 4.43827 4.07218 3.98715 8.14896 3.64396 11.3472 3.56549 3.2242 2.94469 24.2549 2.92374 2.42543 3.84938 9.85051 3.29926 2.37837 2.37143 4.36816 2.07227 1.97645 5.59367 1.4653 1.96695 1.00622 2.28021 1.3837 3.80552 8.44438 2.53051 0.938193 0.925038 0.912869 0.8921 2.4037 0.86798 0.787157
threshold=-0.43131540555422393 -0.37993312957946218 -0.19127555682273553 -0.064123397056410888 0.27684061083441563 -0.22958388417633205 -0.99715612725837954 -0.51097767020769869 -0.30017540251929065 -0.55034987100899835 -0.34060079427033568 0.27929430152599782 0.11981255180420262 0.35552461265537555 -0.0929232352455968 -0.54532320468192796 -0.54553182910005271 1.5504235216843616 -1.0496135195486549 0.15280631733881436 -0.58738471221834121 -0.26960240717875 -1.3918237470928141 -0.41578867255740498 -0.43062381849150461 -0.22498746874771772 0.42374080381672113 -0.61141278631126661 -0.26960240717875 -1.0496135195486549 2.0383139393931256 -0.97851398708462101 0.98499662722305514 1.21022534293869 0.3689802653033013 0.20890717326729075 0.28213094454503368 -0.058012745737070083 0.2660761347087231 0.460450603609593 1.0000000180025095e-35 -0.09035139766339749 0.57040383161375374 0.27929430152599782 -1.6033489044261138 -0.55849541176019657 0.17438311287441596 -1.222949322297523 0.51706350441547344 0.40334582213607573 0.38735188382267005 0.13630751381429848 -1.0000000180025095e-35 -0.083619208921216423 0.21245871193453345 1.689346723528788 1.8896746396454012 -0.68864552136319668 0.019290597402695842 0.73255874079749661 -1.5633306314171111 -0.89606707234300031
decision_type=2 2 2 2 2 2 2 2 2 2 2 2 2 2 2 2 2 2 2 2 2 2 2 2 2 2 2 2 2 2 2 2 2 2 2 2 2 2 2 2 2 2 2 2 2 2 2 2 2 2 2 2 2 2 2 2 2 2 2 2 2 2
left_child=30 13 8 17 5 6 -5 -6 10 -8 -3 28 -13 14 15 19 -17 18 24 44 41 -22 -18 -24 -4 32 -23 36 29 -7 33 -32 -10 49 35 58 -16 42 -39 -40 -41 -21 45 -44 -2 46 -20 48 -36 50 51 -1 54 -54 -53 60 -47 -56 -9 -60 -51 -15
right_child=1 2 3 4 7 11 9 34 25 -11 -12 12 -14 61 27 16 22 -19 37 20 21 26 23 -25 -26 -27 -28 -29 -30 -31 31 -33 -34 -35 47 -37 -38 38 39 40 -42 -43 43 -45 -46 56 -48 -49 -50 55 -52 52 53 -55 57 -57 -58 -59 59 -61 -62 -63
leaf_value=-0.028080978733963775 0.035539072531548158 0.25133457707368551 0.14233674063168653 0.036166382718224671 0.14134666313318631 -0.03479202370803363 0.30405801281909456 -0.034639846709601074 -0.017896491700411597 0.11621534357696706 0.098727044356302085 0.23302782267375904 0.049752053285142664 0.013404251897433989 -0.0032803575207897631 0.2013476815216648 0.09183267637971404 0.084178992786332382 -0.034515316021288475 0.046034298588758918 0.2260340054915953 -0.034686011460738499 0.093721985805277908 -0.034611244475491555 0.0046211679318877335 0.10720873644134464 0.068278687224450921 -0.027409282381504224 -0.018638820314247628 0.11623010567388417 0.13675482167766903 -0.023499553309720284 0.081676370297245976 0.036280048066439308 -0.034557586009230187 0.22905148543454446 0.1029785545457213 -0.023862385574250442 0.15857152233248656 0.055938162846163847 -0.034550007342278116 -0.034759837067206166 0.099978658946051041 -0.034606091164087478 -0.029230478774779745 -0.03451473426668588 0.10349663827675788 -0.034588564851454028 0.060712042454898335 0.01021110151470964 0.044806967388228203 0.045541405850822732 -0.034480903109771706 0.1522021527438574 0.015959881516056748 0.01614951321351998 0.014663934085196726 -0.034478553628320321 -0.034616458072749483 0.062182691782212321 -0.034435381743762754 -0.031419817511958027
leaf_weight=39.203778233379126 1.4241819791495824 1.7478553690016272 1.1299837678670885 2.1161676086485386 1.988182164728644 1.4549403227865707 2.3548676706850529 4.1903678774833697 2.9698452465236187 1.653882641345265 1.8735680580139158 1.3059320747852328 2.3638651110231876 1.0433182977139974 1.5958694927394419 1.4819230809807775 1.9774673655629147 1.6834037378430355 2.267338383942842 1.2373736090958116 1.3413769602775572 2.2701288387179357 1.5568386130034917 3.9265288710594173 1.2758548595011223 1.7603048458695392 1.9418286383152006 13.969881866127251 3.0985894538462135 2.3136135451495647 1.4576879590749738 4.5603315830230704 1.2893511727452276 2.1162301413714877 1.1203644461929827 1.1368908286094663 1.0891955271363256 4.6607137769460696 1.2937223240733144 1.6561349891126154 2.5713270977139473 3.4520724155008793 1.1143854558467858 1.313562888652086 9.2937656082212943 16.672873362898834 1.0857583098113535 8.3872824311256355 1.0491039268672464 1.1197789348661888 1.2603464238345612 1.2496622018516053 1.3946520872414114 1.0708886496722687 0.99046286568045516 0.98699364066123862 1.014368463307618 9.5135157406330091 1.68996162340045 1.033539645373821 39.11933970823884 15.997603569179772
leaf_count=829 26 31 21 38 36 25 28 79 53 27 34 21 39 21 31 25 38 32 46 21 22 41 28 75 25 30 35 275 54 36 25 96 24 40 22 19 20 90 24 31 51 60 21 25 177 339 20 161 20 24 25 26 29 21 20 20 19 198 32 20 842 317
internal_value=0 0.0156051 0.0297142 0.0219982 0.0457393 0.0940603 0.160779 0.00664778 0.089737 0.22656 0.172382 0.0552782 0.114972 -0.00317118 0.00616369 0.0188255 0.0547914 -0.00143983 -0.00543725 0.00348087 0.028704 0.064293 0.0256813 0.00182515 0.069304 0.0400166 0.0127836 -0.0165702 0.0233776 0.0579244 -0.0224479 0.0153173 0.0122464 -0.0247663 -0.00774458 0.0150322 0.0398235 -0.0107809 0.00959876 0.037845 0.000899305 -0.0134412 -0.0196228 0.0271659 -0.020624 -0.025022 0.010174 -0.0251145 0.0115126 -0.0261133 -0.0216666 -0.0232348 -0.00987332 0.0466034 -0.0217204 -0.0320116 -0.0316943 -0.0297225 -0.0201603 0.00211779 -0.033193 -0.0286755
internal_weight=0 148.237 84.6379 74.997 37.2576 16.6619 6.12492 20.5957 9.64092 4.00875 3.62142 10.5369 3.6698 63.5994 46.5584 29.9035 8.94276 37.7394 36.056 20.9607 10.2428 5.55333 7.46083 5.48337 2.40584 6.0195 4.21196 16.6549 6.86714 3.76855 104.044 6.01802 4.2592 98.0256 18.6075 8.05076 2.68507 33.6502 10.1819 5.52118 4.22746 4.68945 23.4683 2.42795 10.7179 21.0403 3.3531 10.5568 2.16947 95.9094 54.6833 53.423 14.2192 2.46554 11.7536 41.2261 17.6872 10.504 6.91387 2.7235 40.2391 17.0409
internal_count=4980 2785 1573 1401 657 268 93 389 172 55 65 175 60 1212 874 548 166 744 712 382 179 98 141 103 46 107 76 326 115 61 2195 121 77 2074 353 150 51 666 196 106 82 81 470 46 203 424 66 203 42 2034 1148 1123 294 50 244 886 358 218 131 52 866 338
is_linear=0
shrinkage=0.05


Tree=8
num_leaves=63
num_cat=0
split_feature=1 0 0 9 14 5 1 9 13 4 9 0 1 1 0 5 2 4 1 13 14 5 5 8 5 0 0 9 8 8 9 7 4 13 5 4 6 7 8 10 6 9 2 6 8 5 7 4 8 9 8 6 7 0 2 6 0 13 8 6 8 0
split_gain=654.392 165.55 76.6584 65.2288 37.9065 20.3415 17.0241 15.2764 15.1123 10.1879 9.69874 8.5954 10.6058 8.35837 7.47178 6.9773 6.62224 6.58692 6.43904 5.75152 5.44132 5.39596 5.06921 4.99274 7.14014 5.89221 4.9698 4.86645 4.81789 4.81962 4.76051 4.39456 4.07898 4.0129 3.99318 4.16993 3.93642 3.62847 3.59607 3.04213 2.96307 3.62895 2.9318 5.61286 7.39556 2.81962 5.2399 2.75747 2.74342 2.69386 5.0028 2.62471 2.60373 3.28066 2.56143 2.55834 3.55209 2.49848 2.48214 3.09597 4.51673 2.44985
threshold=-0.3264034031262773 -0.76421167474253671 -1.0479898373889627 0.41005965172537456 1.0000000180025095e-35 -0.05239738673477904 -0.40508740494723722 0.41005965172537456 1.0000000180025095e-35 0.71938254935525381 1.0000000180025095e-35 -0.56451593065801475 0.64403261933222866 -0.58868340919614381 0.67661368246226383 -0.20106071124848038 0.061105908599104274 0.50856348627936943 0.32929661204838884 1.0000000180025095e-35 1.0000000180025095e-35 -0.46214082532377915 0.70983047146091238 0.037400288942993749 -0.12121327193370086 0.38415309615998894 0.96953123843063582 -0.10165517699599122 -1.5004447738315356 0.12315373110514224 0.28213094454503368 0.78359269783629582 0.23186346599227101 1.0000000180025095e-35 0.014054594010744702 -0.16342227727501227 -0.35417832646031261 -0.49193987067763995 0.077418561951996381 1.0000000180025095e-35 0.28122566169968627 0.92177448044674037 -0.38420986328305134 -0.25620313086660967 0.77487989153747083 -0.10282734840727137 0.68840370018600205 0.79185160228758911 0.020249600510564049 -0.61337000571735689 -0.094088322372300595 0.017840460155944714 -0.073108281016347698 -0.26200201170159937 0.52433668279835832 -0.21387702649401627 0.33937006888245308 1.0000000180025095e-35 -0.47712036402989716 -0.29852923523920311 -0.87158619797578007 0.045995543247983703
decision_type=2 2 2 2 2 2 2 2 2 2 2 2 2 2 2 2 2 2 2 2 2 2 2 2 2 2 2 2 2 2 2 2 2 2 2 2 2 2 2 2 2 2 2 2 2 2 2 2 2 2 2 2 2 2 2 2 2 2 2 2 2 2
left_child=2 7 10 5 8 14 22 15 13 16 37 12 39 -4 20 18 58 31 21 40 47 -2 27 24 25 -8 -16 -6 -21 51 -15 49 -23 -28 55 -36 -12 -1 -22 -5 41 -13 43 44 -32 -17 -47 -3 -45 50 -7 -30 53 -29 -33 -18 -57 -19 59 -10 -61 -51
right_child=1 3 4 11 6 17 23 -9 9 -11 36 19 -14 30 26 45 34 57 -20 28 38 32 -24 -25 -26 -27 33 52 29 -31 42 54 -34 -35 35 -37 -38 -39 -40 -41 -42 -43 -44 48 -46 46 -48 -49 -50 61 -52 -53 -54 -55 -56 56 -58 -59 -60 60 -62 -63
leaf_value=0.035066358148361058 0.051287445038224036 -0.028886221305274642 0.013110667407215525 0.01508749162766723 -0.037756499193054488 0.0184676038494919 -0.0099425555836865701 0.072602758635294556 -0.029726393455670574 0.017231979139072717 0.031801559166409178 -0.0098680138897622605 0.056446264824666227 -0.041112362344541992 0.045036797355905905 0.077142524187041234 -0.035328264100028685 0.017350283636657197 0.064909639195790098 0.024608289677593466 0.011150905988013118 0.023159911462776461 0.022288535495440409 -0.0035826027756016929 0.063132227320510881 0.047334926505443548 -0.021691099120630428 0.012859420769007144 0.050240931886879031 0.038881186188825814 -0.044436888899031989 0.013632059998901651 -0.025698183745137732 0.018599712611670944 0.033374233010897751 -0.019015758278362008 0.069776506333459762 -0.0094401288185989446 -0.021447913074051261 -0.029144438843047016 0.046862028817020403 0.037286804449389963 -0.039254806011175335 0.029315136797133969 0.0025848191944342382 0.039895156715267256 0.073294271571991393 0.001191520708047516 -0.01379694377572979 0.0022680099467537545 -0.030407209402801699 0.072538777239291044 0.013387750602567318 -0.02810749563799321 0.055426710413708162 -0.024063772257695747 0.020349170597671051 0.050426731159924645 -0.033990096476465385 -0.028751338788644266 0.026709134344569781 0.033144308710441432
leaf_weight=7.5139899551868465 8.0988623797893506 70.831497669219971 7.8042994439601889 6.7778277695178994 29.25472703576088 8.7044579684734362 11.064257681369783 202.79050916433334 28.613270372152328 14.61923226714134 11.665800064802172 8.4828774034977013 9.5233530402183515 459.41931357979774 7.3400011956691733 15.454382121562956 14.392007321119307 8.6352679431438464 10.01095327734947 13.568610519170759 20.943702906370163 9.8035144507885033 6.9385339319705954 13.973703026771544 11.709132045507433 7.5566384494304648 12.528365343809128 6.4831997752189627 20.29327067732811 26.126335710287094 29.460226893424988 7.7613185048103315 7.5708657205104819 12.195970594882965 8.9917011559009534 6.5758065581321707 16.442476540803909 11.726094424724577 14.192891448736189 9.1149891018867493 10.490395575761793 7.8610979616641989 39.807251125574112 6.426021844148635 11.676309973001478 30.656831234693527 19.034862607717514 8.5386846959590894 8.667010545730589 19.854632705450062 13.139039933681486 37.744450271129608 8.804947078227995 19.847875148057941 6.9473332464694977 12.037351071834566 7.1917070746421805 16.848997086286545 128.43113824725151 7.4678123295307159 7.2207670211791974 9.4974014461040479
leaf_count=22 23 216 23 20 92 26 33 560 88 43 33 25 27 1458 22 43 44 25 28 39 62 28 21 42 34 22 38 20 58 75 93 23 22 36 27 20 46 34 43 27 30 23 125 20 36 86 53 25 27 59 40 106 27 62 20 37 22 48 400 23 22 28
internal_value=0 0.0370339 -0.0267415 0.0153958 -0.0299535 -0.000881285 -0.00319705 0.0646996 -0.0338268 -0.0231918 0.0352933 0.0412205 0.0147216 -0.038274 -0.0124246 0.0487732 -0.0258667 0.0176322 0.030934 0.0466273 -0.0183984 0.0175816 -0.0183169 0.021146 0.032539 0.0133015 0.00890889 -0.0226924 0.052257 0.0567144 -0.038996 0.00928492 0.00187005 -0.00181653 -0.00969161 0.0112444 0.0540157 0.00794136 -0.00201689 -0.0102808 0.0261235 0.0128124 -0.0288719 -0.0215214 -0.0310901 0.05849 0.052689 -0.0256504 0.00455849 0.00236435 -0.010931 0.0647422 -0.0101499 -0.0180207 0.0333729 -0.0193856 -0.00745324 0.0392189 -0.0304997 -0.0201474 -0.00148749 0.0122586
internal_weight=0 691.364 961.783 387.943 914.434 237.96 115.633 303.421 798.801 235.541 47.3484 149.983 25.4162 563.26 146.571 100.63 220.922 91.3884 35.4842 124.567 114.507 25.4732 71.3293 44.3037 30.33 18.6209 32.0643 64.3907 97.7327 84.1641 555.456 65.9042 17.3744 24.7243 49.1886 15.5675 28.1083 19.2401 35.1366 15.8928 26.8344 16.344 96.0368 56.2296 41.1365 65.1461 49.6917 79.3702 15.093 51.1955 21.8435 58.0377 35.136 26.3311 14.7087 33.6211 19.2291 25.4843 171.733 43.3018 14.6886 29.352
internal_count=4980 1984 2996 1141 2861 711 353 843 2508 726 135 430 74 1782 442 283 683 269 101 356 346 73 222 131 89 55 96 201 278 239 1759 196 50 74 150 47 79 56 105 47 78 48 301 176 129 182 139 241 47 153 66 164 109 82 43 103 59 73 533 133 45 87
is_linear=0
shrinkage=0.05


Tree=9
num_leaves=63
num_cat=0
split_feature=1 0 0 13 1 14 15 2 15 2 1 8 6 8 13 0 6 14 5 5 3 13 7 8 3 8 3 0 2 7 2 8 3 8 6 0 1 6 3 8 0 7 5 0 8 14 1 0 8 7 5 7 8 5 7 0 2 8 6 0 5 8
split_gain=645.473 130.486 74.3018 37.7543 23.5405 15.8828 13.1468 10.0089 9.30016 9.76641 8.07317 7.96098 7.93383 7.41439 6.61188 7.48109 6.47053 6.64737 6.07682 5.69728 5.27731 5.1009 6.01148 5.02748 4.89411 4.52488 4.48503 4.79135 4.37245 6.35953 8.21694 4.49707 4.36533 4.33139 5.55252 4.26518 4.18534 3.94734 3.78182 3.61654 3.55404 3.40638 3.29645 5.216 3.29202 3.12479 3.78616 3.1118 3.76433 2.92858 2.89509 2.86436 2.72537 3.79421 2.66605 3.98461 2.64928 5.56829 2.47438 2.44885 2.37836 3.60595
threshold=-0.3264034031262773 -0.76421167474253671 -1.0479898373889627 1.0000000180025095e-35 -0.064123397056410888 1.0000000180025095e-35 1.0000000180025095e-35 0.11741020159569866 1.0000000180025095e-35 -0.14107768897957559 -0.58868340919614381 0.037400288942993749 0.97350855525142677 0.060267873519566681 1.0000000180025095e-35 0.97638578342209537 0.26236851108332476 1.0000000180025095e-35 0.029288644932643427 -0.05239738673477904 -1.7429567305441263 1.0000000180025095e-35 0.34572330864494466 -0.01976867249843858 0.91485891160517963 1.1236105563302081 0.42374080381672113 -0.54440926534973333 -0.38932843537365086 -0.22541067725681763 -0.4814627330044417 -0.5914582869127617 -1.0207242190905104 0.48903508433030923 0.56766987894278242 1.3054039430121545 -0.40508740494723722 -0.093867660343151901 1.0000000180025095e-35 -0.36278244114703245 0.17211917109083971 -0.18733507819670014 -0.085229393031974562 -0.15872686716360859 0.30609440771772572 1.0000000180025095e-35 0.014560604764549111 -0.54440926534973333 -0.14554038766958968 0.041118516164004741 -0.39174900382259198 0.13630751381429848 0.80346437225818701 -0.37257511214502975 0.23149651146459219 -1.1261316502916017 -0.75786562589681405 0.77487989153747083 0.10392745210020253 0.24249249966982458 0.032703173587551766 -0.49427105246232689
decision_type=2 2 2 2 2 2 2 2 2 2 2 2 2 2 2 2 2 2 2 2 2 2 2 2 2 2 2 2 2 2 2 2 2 2 2 2 2 2 2 2 2 2 2 2 2 2 2 2 2 2 2 2 2 2 2 2 2 2 2 2 2 2
left_child=2 38 21 10 6 7 14 32 9 12 -4 18 28 26 52 19 20 24 36 47 -12 23 -23 -1 -18 -13 27 -11 29 31 -31 -6 59 34 -15 -17 -7 -21 -2 -28 -30 -38 44 -44 49 46 50 -16 -49 -9 -40 -35 -3 -54 55 -48 57 -22 -33 -5 61 -34
right_child=1 4 3 5 8 11 -8 42 -10 13 16 25 -14 33 15 35 17 -19 -20 37 56 22 -24 -25 -26 -27 39 -29 40 30 -32 58 60 51 -36 -37 41 -39 45 -41 -42 -43 43 -45 -46 -47 54 48 -50 -51 -52 -53 53 -55 -56 -57 -58 -59 -60 -61 -62 -63
leaf_value=-0.034608558449375951 -0.063824021033052888 0.020180642438868496 -0.011994827269306304 0.0223467271181528 -0.06512952416822719 0.010755137791624856 -0.057194185201555919 0.02035879871736631 -0.056877803478907418 -0.0284521731619162 -0.00050742716092652327 0.02752592261450031 -0.060293571168881913 -0.024069519792070015 0.036541740951135583 -0.058112324181139069 0.034623164694335011 -0.01385792608326724 -0.043389130707783698 0.0014348775901809954 0.038942014815471555 -0.057873456985428152 -0.008664132075869739 0.020503697083207442 0.0055025477815620026 -0.018375877093288914 0.0019951540569259243 -0.058583084189901949 0.025403950695536012 0.020363656164571836 -0.038966708275597679 -0.00039208228489751593 0.018594694830911897 -0.016147634350778522 0.021726161991821272 -0.007403623671079349 -0.047789996996685735 -0.039425730837854313 -0.049927082160839548 -0.045315253166520048 -0.014361735797463127 -0.0036839650946328289 -0.04268822216529599 0.0076395613364090972 0.035647054971610373 -0.062371995140641005 -0.06437368620873242 -0.010606544795868722 0.022667010466824223 -0.022259012246486833 -0.0093337929833761865 -0.043002027693995637 0.02194742691504413 -0.030014504836019446 -0.064405900786413145 -0.014363256519311033 0.041488946556641475 -0.011988337957515773 -0.038037352212409982 -0.018211436499677915 0.016307911651416925 0.036247107827145561
leaf_weight=9.8027770817279833 215.85479480028152 47.028124362230301 8.4283719360828382 7.0691507160663587 7.2847582697868374 20.12737068533897 10.071883797645567 8.1284455358982139 23.173566222190857 19.68935039639473 7.951508253812789 23.340268731117252 7.2283262014389029 15.050745964050295 9.3482210934162122 9.8700046837329882 98.938669413328171 9.1651804447174055 14.029912918806074 11.540903717279436 20.419780641794208 24.063694655895233 8.3631253242492658 7.1608242094516745 16.891487389802933 6.9728912711143485 9.0651783943176287 39.994000732898712 16.348163247108463 19.586233675479889 8.3124424815177935 9.1374392807483691 39.012465000152588 19.360712558031082 11.814436107873915 7.1513725817203513 7.6275245547294643 12.115658909082411 7.3362396955490139 7.2861181795597068 8.5613272786140424 10.274229973554613 8.8112817406654376 12.384071409702299 10.082684725522993 41.796144217252731 7.4630780816078213 19.336684077978131 15.16779747605324 7.9967262148857108 10.94560670852661 20.38458725810051 6.79865762591362 7.2695065736770612 22.394702881574631 8.5413796901702863 449.45978051424026 7.2800557613372794 8.3573671877384168 7.8596266508102417 30.171885520219803 111.94245624542236
leaf_count=27 578 137 24 21 20 60 28 24 63 54 24 69 20 42 27 27 302 27 39 33 63 65 23 20 51 20 25 109 47 56 23 26 116 54 33 20 21 34 20 20 24 29 25 36 30 112 20 55 44 23 30 56 20 21 60 23 1384 22 23 23 89 339
internal_value=0 -0.0359298 0.026223 0.0293497 -0.017217 0.0155754 -0.00194789 0.0219966 -0.0267025 -0.0236283 0.0366057 -0.003403 -0.0101921 -0.0316173 0.00187307 -0.0071845 0.0372771 0.0271331 -0.0152643 0.000284473 0.0398908 -0.0335601 -0.045182 -0.0113441 0.0303765 0.0169672 -0.0422868 -0.048643 -0.00552454 -0.0136867 0.00268611 -0.0321203 0.0269816 -0.0194382 -0.00393006 -0.0368075 -0.00488827 -0.0194918 -0.0601197 -0.0190863 0.0117366 -0.0224765 0.00137913 -0.0132826 0.0132366 -0.052 -0.0443517 0.0109529 0.00402015 -0.000776044 -0.0256233 -0.0299207 0.0144048 -0.0049031 -0.0532683 -0.0376837 0.040564 0.0255565 -0.0183754 0.000993872 0.0291235 0.0316851
internal_weight=0 720.666 993.756 944.366 406.334 325.831 155.699 243.459 250.635 227.461 618.535 82.3722 84.8161 142.645 145.627 84.5306 610.106 124.995 52.059 67.5093 485.111 49.3904 32.4268 16.9636 115.83 30.3132 76.0346 59.6834 77.5877 52.6782 27.8987 24.7796 196.056 66.6105 26.8652 17.0214 38.0291 23.6566 314.332 16.3513 24.9095 17.9018 47.4032 21.1954 26.2079 98.4772 56.681 43.8527 34.5045 16.1252 18.2818 39.7453 61.0963 14.0682 38.3992 16.0045 477.16 27.6998 17.4948 14.9288 181.127 150.955
internal_count=4980 1984 2996 2861 1141 964 446 726 695 632 1897 238 239 393 418 240 1873 380 149 193 1493 135 88 47 353 89 208 163 219 148 79 69 588 185 75 47 110 67 843 45 71 50 138 61 77 265 153 126 99 47 50 110 178 41 103 43 1469 85 49 44 544 455
is_linear=0
shrinkage=0.05


Tree=10
num_leaves=63
num_cat=0
split_feature=6 6 4 4 3 4 4 9 2 8 9 5 0 4 4 4 8 0 5 0 5 6 2 4 3 2 10 4 4 0 5 0 6 8 6 9 2 6 8 7 7 4 9 8 0 5 4 9 0 0 0 3 4 9 5 5 13 5 5 5 3 9
split_gain=24.8582 14.4662 20.187 34.0514 11.2698 10.7912 21.1378 9.78847 8.43014 6.13644 13.5843 19.386 5.99952 8.80046 13.3997 10.653 10.6649 13.4535 12.2242 17.6103 13.1491 9.33027 8.64953 8.59846 8.06868 7.501 5.96379 14.0143 5.07884 4.51018 10.9003 4.34317 4.26983 8.47587 4.05159 6.24627 3.84937 4.90135 7.61168 3.41677 3.20703 2.74338 3.38567 2.53173 2.3944 3.70132 2.35765 2.27796 2.36103 4.12294 2.14562 2.11022 2.47442 1.65019 1.12563 2.37517 1.05981 1.0675 3.47239 1.52948 3.50444 0.894455
threshold=-0.31779632391244172 0.13272560059584138 0.45585872051039827 0.56126825204834063 0.42374080381672113 -0.67729374352248051 -0.69046993496472331 0.28213094454503368 0.80329886173603049 1.9925787702399795 -0.4854412985370149 -0.25779441813003418 -1.3765510273129244 -0.12389370294828396 0.79185160228758911 0.74573493223973941 -0.47712036402989716 -0.32095109862815158 0.78652603817116118 -0.64494259189114034 -0.014837571530787361 1.7969716270039418 -0.56335988645403345 0.0078682114741437971 0.42374080381672113 -0.12316268666247737 1.0000000180025095e-35 2.12264693795411 -0.11071751150604119 -0.42194139483565585 -0.19764618259357203 -0.17334989647872234 0.1869399086178799 -0.1112390108047303 0.10392745210020253 0.28213094454503368 0.34518665962737605 -0.49509453351192523 0.020249600510564049 1.7925960729294093 0.041118516164004741 -0.50600325477332442 0.92177448044674037 -1.4146913316693872 -1.3523316350097672 -0.35550246887048809 1.2332540156027221 -1.2530135416190633 -0.22498746874771772 -0.32095109862815158 -1.0032068101114267 0.62596590702373323 -0.044836554294827309 1.0000000180025095e-35 -0.35812902937426372 -0.23756990225096178 1.0000000180025095e-35 -0.52176374875948617 -0.53647248758062982 0.032703173587551766 0.3370729024422871 -1.0000000180025095e-35
decision_type=2 2 2 2 2 2 2 2 2 2 2 2 2 2 2 2 2 2 2 2 2 2 2 2 2 2 2 2 2 2 2 2 2 2 2 2 2 2 2 2 2 2 2 2 2 2 2 2 2 2 2 2 2 2 2 2 2 2 2 2 2 2
left_child=9 2 5 4 7 6 31 -4 34 36 11 -11 -3 32 15 16 22 18 19 21 40 23 -15 -18 -16 -26 53 29 -19 30 -28 -2 33 -14 54 -36 44 39 -39 -38 -21 42 47 -43 45 -1 -27 -34 49 50 -49 52 -30 -5 -7 -56 -46 58 61 -59 -61 -58
right_child=1 12 3 26 -6 8 -8 -9 -10 10 -12 -13 13 14 24 -17 17 28 -20 20 -22 -23 -24 -25 25 46 27 -29 51 -31 -32 -33 41 -35 35 -37 37 38 -40 -41 -42 43 -44 -45 56 -47 -48 48 -50 -51 -52 -53 -54 -55 55 -57 57 59 -60 60 -62 -63
leaf_value=-0.034517222592738657 0.088050708518747467 -0.03459244629035442 0.22749834086994497 0.029693988957183809 0.31087926243063152 -0.03455907746303865 0.26348839996661971 0.056364638608563888 0.097761127308795992 -0.0018867627065696693 -0.034549648108658078 0.26994035775487013 0.16425710521201925 0.095826040962746772 -0.034592693107180661 0.19213761844160804 0.11546760574094424 0.111878500120545 0.21228145662526396 0.16439134575416148 0.033221952772574684 0.14221900210107188 -0.03457405122311813 -0.025857475193468843 0.13603836462075719 0.057240048759739162 0.16551081479072521 0.22072501821176005 0.042227726234655295 -0.034507138422175336 -0.010880555066233363 -0.015680211030751019 0.068982398797060668 -0.034429703889771041 0.12649293619281129 -0.012929903456566326 -0.034569865356151322 0.14758655202029189 -0.0077293448065165376 0.041897494580249113 0.27681161124174936 0.042039880757886811 0.077608922134381475 -0.029745852184107014 -0.030686173931696533 0.083721089058871032 -0.034607429184948239 0.055951666145700366 -0.028287208294571722 0.099755316342088785 -0.022543525015454976 0.038375487169400022 -0.034645229157597157 -0.034707208597506881 0.03662545187836428 -0.025667403694371413 -0.0030848946056015788 -0.03448179132161542 0.063446688741966115 -0.025401918783768997 0.058488245038051168 -0.034482915634880096
leaf_weight=1.3875684775412085 1.6245816126465795 9.5832001715898496 1.7053542844951146 1.5519534982740859 1.4418870247900484 9.2759206965565753 1.1687798127531994 1.6382777504622934 1.8857658989727486 1.5291737355291846 3.5392954759299746 1.1485629528760908 1.0058469958603384 1.5329707525670526 13.048817172646524 1.1010687649250019 1.3302714489400314 1.0219848901033408 1.6167806833982474 1.2550335898995402 1.4682398997247226 1.408643417060375 7.4607146158814377 5.6367533020675182 1.46332636103034 1.0880625732243054 1.497264478355645 1.172504127025604 1.3012409768998612 1.803578112274409 2.1102423146367077 2.6634797006845474 0.96557962521910745 1.150991778820752 1.2389433383941644 2.2847611382603645 5.7469742074608803 1.3715207688510402 1.8567791134119032 1.9587421678006647 1.2828174792230127 1.3046782650053526 1.3357174992561329 20.962626114487648 53.430225379765034 1.2655673883855332 1.9524180106818674 1.1012246124446381 8.0797437727451307 1.1148466430604465 4.1565173864364633 2.0526858866214752 5.3536591827869477 2.7701311856508255 2.102040458470583 5.62539136782289 4.7873349897563449 15.138892568647863 1.5301906801760186 5.4791787788271895 1.6109188236296175 4.3106950074434272
leaf_count=28 27 185 18 28 17 186 13 24 33 30 71 20 20 29 252 18 22 17 24 22 25 20 146 102 25 20 25 17 25 37 41 57 19 25 21 40 113 25 35 36 20 25 25 429 1166 22 37 19 172 20 83 38 101 50 39 112 105 317 30 111 31 90
internal_value=0 0.0133565 0.0374814 0.0828437 0.194035 0.0119414 0.0749961 0.143648 -0.00341045 -0.0184603 0.0297372 0.114708 0.00306739 0.00696678 0.02077 0.0391653 0.0340178 0.0515917 0.0829796 0.0660956 0.152316 0.0248562 -0.0123474 0.00112689 -0.0146766 0.0430261 0.0340518 0.0640103 0.00643201 0.0300525 0.0623292 0.0236194 -0.0102548 0.0582284 -0.0127048 0.0360915 -0.0214605 0.00653562 0.0582555 -0.0151324 0.221217 -0.0140402 0.00124408 -0.0255398 -0.0249022 0.0218834 -0.00173901 -0.00537172 -0.0103394 0.0124164 -0.00610285 -0.00594395 -0.0196142 -0.0115823 -0.0228172 -0.0087223 -0.0263407 -0.0192745 -0.00624076 -0.0255062 -0.0063415 -0.0179614
internal_weight=0 145.697 43.5609 15.6912 4.78552 27.8697 5.45684 3.34363 22.4128 106.092 6.21703 2.67774 102.136 92.5533 51.3755 33.8229 32.7218 23.7281 13.9985 12.3818 4.00609 8.37567 8.99369 6.96702 17.5526 4.50381 10.9057 6.58359 9.72957 5.41108 3.60751 4.28806 41.1778 2.15684 20.5271 3.5237 99.8746 10.934 3.2283 7.70572 2.53785 39.0209 16.7536 22.2673 88.9406 2.65314 3.04048 15.4179 14.4523 6.37259 5.25774 8.70759 6.6549 4.32208 17.0034 7.72743 86.2874 32.8572 10.6282 22.229 7.0901 9.09803
internal_count=4980 2750 785 257 59 528 97 42 431 2230 121 50 1965 1780 943 609 591 416 235 211 67 144 175 124 334 82 198 120 181 103 66 84 837 45 398 61 2109 209 60 149 42 792 338 454 1900 50 57 313 294 122 102 164 126 78 337 151 1850 684 225 459 142 195
is_linear=0
shrinkage=0.05


Tree=11
num_leaves=63
num_cat=0
split_feature=1 9 13 5 15 4 15 6 4 5 9 3 9 1 5 5 4 2 7 1 2 14 5 5 4 6 7 3 9 1 9 3 7 1 9 14 3 6 4 3 4 1 2 7 3 1 1 13 6 7 9 4 4 6 10 6 4 3 5 14 4 6
split_gain=573.817 121.287 53.4699 27.0951 25.0313 16.9066 16.1056 14.9248 13.4342 12.3104 12.5081 11.0268 10.7767 8.84587 7.25261 10.999 6.98851 6.39797 6.72547 6.2205 6.1274 6.37325 6.08288 6.02564 6.02117 6.01715 5.43546 5.39686 5.3246 5.67646 5.16974 5.07471 6.14159 5.04143 4.85396 4.66579 6.16973 4.64861 4.36961 4.13902 3.99075 3.84134 3.81742 3.7628 3.75981 3.52912 3.3212 3.23464 3.6498 3.23462 4.32452 3.21419 3.86912 3.18804 3.29385 3.00264 4.29519 2.7659 2.85694 2.71991 2.64217 3.85637
threshold=-0.3264034031262773 0.41005965172537456 1.0000000180025095e-35 -0.20106071124848038 1.5000000000000002 0.49538729483712657 1.0000000180025095e-35 0.28122566169968627 0.857732559498803 0.034016453839439589 0.41005965172537456 -0.55849541176019657 0.41005965172537456 -0.11657939827038412 -0.1516813737774983 -0.060277068246105965 0.0078682114741437971 0.23001878758888747 0.80263049736635461 -0.58868340919614381 -0.17946697965907174 1.0000000180025095e-35 -0.5380484238828952 -0.40225524583769451 0.60079682637506882 2.0987885213799413 0.51706350441547344 1.0015268129796138 -0.86922742007803866 -0.50999940737518379 -0.22958388417633205 0.59707660656558847 0.31716660934985658 -0.45754340616121053 -0.99715612725837954 1.0000000180025095e-35 0.019290597402695842 -0.45307588268198989 0.11327774301208603 0.22151570060970846 -0.34788895746641113 -0.16903539948435745 -0.38932843537365086 0.041118516164004741 -1.7718460310022708 -0.037895396449424225 0.30306861144140224 1.0000000180025095e-35 1.3839590346999424 0.43139340653020902 -0.3575125913566729 2.5113445855002721 0.24503965743451381 0.63018543261658866 1.0000000180025095e-35 0.28122566169968627 -0.031660362852584528 0.71263380839816703 -0.25779441813003418 1.0000000180025095e-35 -0.15024608583276952 0.11981255180420262
decision_type=2 2 2 2 2 2 2 2 2 2 2 2 2 2 2 2 2 2 2 2 2 2 2 2 2 2 2 2 2 2 2 2 2 2 2 2 2 2 2 2 2 2 2 2 2 2 2 2 2 2 2 2 2 2 2 2 2 2 2 2 2 2
left_child=2 3 12 13 5 9 7 16 11 10 17 14 19 34 -5 -16 35 39 -19 -1 21 -15 37 42 -22 44 30 28 -11 -30 -17 32 -7 -24 -2 36 -3 -12 -14 -4 -13 -9 -18 -25 -21 -37 -26 48 -42 50 -49 52 -43 54 -10 -46 57 -57 -59 -31 61 -36
right_child=1 6 4 8 -6 31 -8 41 53 27 22 40 38 20 15 26 23 18 -20 25 24 -23 33 43 46 -27 -28 -29 29 59 -32 -33 -34 -35 60 45 -38 -39 -40 -41 47 51 -44 -45 55 -47 -48 49 -50 -51 -52 -53 -54 -55 -56 56 -58 58 -60 -61 -62 -63
leaf_value=0.011555738954811887 -0.042360705851532475 0.027217398654191344 -0.024300452175428911 0.078834633352416347 0.075978036970271667 0.056761372037502228 0.070269329702006819 0.028713205142059002 0.011206971083389783 -0.018425378913157032 0.0036768889576113449 -0.014616549372175262 -0.022683772925398582 -0.025696748284958056 -0.026084883467804038 0.0039255159229035913 0.046965644315862795 -0.019211291729644798 0.038575016787230736 -0.00090848066108839142 0.0073218384464767659 0.014046420295678243 -0.027557721157652738 0.037746117296329269 0.020824766739731163 0.00339424213099228 0.058364357000185246 -0.035787512008941709 -0.017589737029091567 0.02037096074787283 0.046470561596433119 -0.0097951562354928884 0.0034636687345934048 0.005535632718541344 -0.002323164968252178 0.012271055719172813 -0.020645396716332837 0.054303933289663042 0.010331517378958495 -0.041037127130227398 -0.017326687983469865 0.052226559672102747 0.0047415729061505525 0.07005983586166524 -0.04108540153992634 0.054751863590370153 0.067898783438234869 0.024164252298123814 0.026519739670919015 0.042796460387399628 -0.022367429327482358 0.02994882462890934 0.070072785876970717 0.059532532851337375 0.051297012180734042 -0.041505686459983676 -0.0054411116041435149 -0.038367539477426278 -0.0032127806377653836 0.053197121296391973 0.0060594989578717836 -0.040419278438807646
leaf_weight=6.4216266572475424 15.211612761020659 14.72641581296921 89.202130198478699 7.6676849424839011 8.2985033094882947 13.603730589151388 111.165551841259 10.399903565645216 9.1947396993637085 11.587629765272139 13.127046942710878 19.38915479183197 74.952400535345078 22.507523149251938 8.3042927384376508 15.877031177282332 9.710331469774248 20.13011804223061 6.7147063016891471 6.5008810758590689 38.090591371059418 18.279977113008499 24.198617070913315 15.231747478246687 7.3786599040031415 8.6434622406959516 17.522197067737579 6.9521718025207511 7.8512183129787401 21.221184670925147 12.97556781768799 8.4731272757053357 8.9685205817222577 21.944735765457153 14.944820046424864 8.3633709251880664 12.40440660715103 6.9267127215862265 11.568821370601652 63.050514310598373 15.023741483688356 53.860509246587753 11.92869848012924 22.051847010850906 397.29518592357635 11.768635869026182 7.6126014292240143 17.043620616197586 6.9378924965858451 11.461584150791166 7.0622198581695583 8.1921928226947767 69.639554023742676 27.342701345682144 11.571495473384857 57.029937297105789 13.85397884249687 11.700856000185015 11.419670730829237 8.9809326231479627 16.706464767456058 11.958278983831404
leaf_count=19 47 42 283 21 23 39 302 30 26 36 40 58 237 68 25 46 27 62 20 21 112 54 76 42 21 27 49 21 24 64 37 25 26 65 46 24 36 20 35 202 45 147 34 61 1301 33 21 50 20 33 21 23 189 75 32 186 43 38 37 26 50 37
internal_value=0 0.0342013 -0.0255975 0.0127963 -0.00979789 -0.0119359 0.0544522 0.0473702 0.0255368 -0.0155491 -0.0203989 0.0176679 -0.0345923 -0.00283822 0.0332951 0.0269091 0.0331891 -0.0272632 -0.00475718 -0.037346 0.00668841 -0.00788482 -0.00182737 0.0446773 0.0178863 -0.037966 0.0363986 0.00547147 0.0112497 0.0202861 0.0230588 0.0231994 0.0355849 -0.0118193 -0.0180412 0.0188669 0.00533419 0.0211638 -0.0182693 -0.0312314 0.00500109 0.0579676 0.0236893 0.0568585 -0.0386842 0.0371042 0.0447291 0.0116129 -0.00347518 0.0209292 0.010532 0.0602779 0.0622897 0.0483155 0.0335462 -0.039184 -0.0311482 -0.0355917 -0.0210039 0.0301322 -0.00955826 -0.0192567
internal_weight=0 699.508 940.618 340.064 341.232 332.933 359.443 248.278 187.374 301.888 245.295 139.265 599.387 152.691 62.3468 54.6791 106.185 179.097 26.8448 512.866 93.8694 40.7875 66.1971 58.9226 53.0819 506.444 46.3748 56.5931 49.641 38.0533 28.8526 31.0454 22.5723 46.1434 58.8212 47.2628 27.1308 20.0538 86.5212 152.253 76.9182 142.092 21.639 37.2836 497.801 20.132 14.9913 57.5291 21.9616 35.5674 24.1058 131.692 123.5 48.1089 20.7662 491.3 94.0044 80.1505 23.1205 30.2021 43.6096 26.9031
internal_count=4980 1984 2996 994 1052 1029 990 688 538 939 768 405 1944 456 178 157 299 567 82 1672 276 122 201 164 154 1653 132 171 150 114 83 90 65 141 180 135 78 60 272 485 227 389 61 103 1626 57 42 169 65 104 71 359 336 133 58 1605 304 261 75 90 133 83
is_linear=0
shrinkage=0.05


Tree=12
num_leaves=63
num_cat=0
split_feature=1 9 13 4 12 4 5 4 6 5 9 8 15 1 1 2 8 1 1 6 9 2 7 8 1 9 10 1 8 1 6 7 7 5 6 4 5 5 9 8 9 8 2 1 5 6 5 5 11 1 9 1 6 5 4 5 9 5 5 8 5 10
split_gain=569.797 81.0375 53.8219 27.9352 22.9305 15.7768 12.4506 12.2469 12.0928 10.4961 10.6129 9.59801 9.29494 9.58958 8.69481 7.36289 7.35233 7.02835 6.76145 6.7507 6.26351 6.21492 6.08964 6.02991 5.30627 5.18292 5.10144 4.79297 4.62518 4.48593 4.04744 5.00182 5.2281 4.12257 3.80315 3.80051 3.28346 4.75817 3.93549 3.18066 3.16519 3.13638 3.26022 3.1282 3.04921 3.03649 5.17749 3.01631 2.98537 2.97457 4.38899 2.94261 2.94115 2.86946 2.85004 2.81161 4.52275 3.06835 2.64501 2.6446 2.85399 2.70893
threshold=-0.3264034031262773 0.41005965172537456 1.0000000180025095e-35 0.06057297724311491 1.0000000180025095e-35 0.49538729483712657 -0.20106071124848038 -0.12389370294828396 0.26236851108332476 0.034016453839439589 0.41005965172537456 -0.43138519487675125 1.0000000180025095e-35 -0.16903539948435745 -0.58868340919614381 -0.54800417018223502 -0.32276416813802983 0.067016605978522339 -0.48377140676819713 0.28122566169968627 0.41005965172537456 0.11741020159569866 0.041118516164004741 -0.7286637943721993 -0.37885940434025056 -1.1250848344387214 1.0000000180025095e-35 -0.037895396449424225 -0.45425277945332421 0.040788605371535731 -0.093867660343151901 0.57417690300564972 -0.18733507819670014 0.15483823701311913 -0.86209157893143429 2.5113445855002721 0.36102323655950708 0.83380412723912267 0.28213094454503368 -1.3117872010748088 -0.86922742007803866 0.3689802653033013 -0.4814627330044417 -0.037895396449424225 0.026399428378490224 0.057296998130396196 -0.39174900382259198 -0.48656783800889264 1.0000000180025095e-35 -0.48377140676819713 0.92177448044674037 -0.40508740494723722 0.45637169650056336 -0.40094196558580669 0.50856348627936943 0.16245526247406852 -0.86922742007803866 -0.094685010845566867 -0.1516813737774983 -0.49427105246232689 -0.51178281884513876 1.0000000180025095e-35
decision_type=2 2 2 2 2 2 2 2 2 2 2 2 2 2 2 2 2 2 2 2 2 2 2 2 2 2 2 2 2 2 2 2 2 2 2 2 2 2 2 2 2 2 2 2 2 2 2 2 2 2 2 2 2 2 2 2 2 2 2 2 2 2
left_child=2 3 7 6 5 9 16 14 48 10 21 -10 13 26 -1 54 17 39 -12 27 -16 59 51 29 53 -17 -3 28 -15 -8 43 32 -32 -33 -20 -21 -11 -38 -39 -2 -18 42 -36 -25 -13 46 -27 -22 -9 50 -49 -23 -51 -7 -5 56 -47 -58 -48 60 -4 -62
right_child=1 12 4 15 -6 24 23 8 11 36 18 44 -14 19 20 25 40 -19 34 35 47 22 -24 30 -26 45 -28 -29 -30 -31 31 33 -34 -35 41 -37 37 38 -40 -41 -42 -43 -44 -45 -46 55 58 49 -50 52 -52 -53 -54 -55 -56 -57 57 -59 -60 -61 61 -63
leaf_value=-0.014356440946107364 -0.01596652011415526 -0.03776613847460409 0.035417168537680649 -0.020147900225070153 -0.068259991872374803 -0.02872573370355333 -0.0080635251036224789 0.033975190073599747 -0.050469461957718897 -0.024499319565046657 0.020975124414864481 -0.0018283477063458884 -0.061918477788490668 -0.040884298620532923 0.040070821834606161 -0.0076163618381772146 0.035360966058723568 -0.037301404213702025 0.016493431627162217 -0.057387658126369603 0.035236085968922658 0.040811354188691196 -0.017469592627138181 0.028405651108294502 -0.059101242779762711 -0.053414005530919621 0.0058215475510527163 -0.043312857219172836 0.0092715807582158388 -0.057364170536583207 -0.024230192254451839 -0.056691483111755564 0.0096837702711618928 -0.0089545344823967216 -0.0039886244479014924 -0.022689127939268673 0.028082363718347395 -0.02012335446640141 0.01827275157922675 0.022076839260564578 0.011156995494499241 0.0093372970502984005 -0.043194386049590416 -0.013189103604001036 0.036709407958253164 -0.0034969143008396876 0.012795868579752371 0.04900004763796853 -0.00074390910340876436 -0.011901512613797044 -0.0019393339637332177 0.0028654115372787406 0.028130031523908389 0.0049677793395833583 0.022705466009845007 -0.053181593538472238 -0.050769759597831698 -0.024005966101952492 -0.025183283365991002 0.033869696678222275 -0.0134098541158415 0.022243307157210335
leaf_weight=8.1022550463676435 8.6620068848133069 13.715650141239166 14.680698543787001 8.0456153452396375 9.2252855002880079 11.787676364183426 7.0578502416610744 58.886118620634079 9.0792403519153577 14.672247111797331 28.980349779129028 17.104654729366306 112.98298192024231 8.8561956882476824 440.65166139602661 14.701818645000456 21.966720342636108 13.259013414382933 9.6336936354637128 125.75222021341324 32.737818717956543 11.805465966463087 14.915461927652357 10.609402358531954 7.2724821865558615 10.207963705062868 13.147660285234451 75.266493439674377 9.5563257932662946 13.326109647750853 22.227103710174561 11.271867364645006 23.251464277505875 7.5534474849700919 8.4142059385776538 8.4198820590972883 13.084093600511549 20.98684731125832 9.7853216826915723 15.022756040096285 35.074307948350906 7.1158050298690787 14.338740617036821 7.8756798505783072 7.3334321677684775 9.0077609121799451 7.9216455519199398 11.037464231252672 6.9190879464149466 13.609224796295168 6.8547560274600974 9.0070619881153124 6.9220547676086417 13.620538353919983 7.4936212599277487 40.884476184844971 32.903289496898644 15.876244068145757 10.881696701049803 113.77546539902687 9.3622916340827942 12.363074511289597
leaf_count=23 25 38 45 23 25 33 20 184 26 42 87 51 302 24 1399 41 65 37 28 336 101 36 43 31 20 28 37 203 27 36 62 31 66 21 24 23 39 60 28 44 102 21 40 22 22 25 22 34 21 41 21 26 21 38 21 110 89 43 30 352 28 37
internal_value=0 -0.0335298 0.0250643 -0.0164929 0.00953772 0.0116144 -0.00394131 0.0339611 0.0178734 0.0150668 0.0194592 -0.00657247 -0.0499822 -0.0446877 0.0370345 -0.0321627 0.00922342 -0.00815366 0.00263259 -0.0480189 0.037848 0.0256575 0.00691444 -0.0159336 -0.0214426 -0.0357293 -0.0164331 -0.0377191 -0.0148528 -0.0402941 -0.00993572 -0.0158631 -0.00689127 -0.0375376 -0.0108241 -0.0552102 -0.00402451 0.00282539 -0.00791368 0.0081636 0.020478 -0.019635 -0.0286958 0.010684 0.00973614 -0.0389663 -0.0247462 0.0240839 0.0303247 0.014582 0.0294845 0.0243894 0.00159499 -0.0106637 0.000517651 -0.0431473 -0.036048 -0.042059 -0.00918308 0.0301165 0.018387 0.006879
internal_weight=0 722.779 974.065 355.082 354.827 345.602 197.158 619.238 99.3225 312.921 254.392 33.5173 367.697 254.714 519.915 157.924 93.9848 36.9438 68.4828 227.851 511.813 185.91 35.728 103.173 32.6807 142.385 26.8633 93.679 18.4125 20.384 82.789 64.3039 45.4786 18.8253 39.5024 134.172 58.5285 43.8563 30.7722 23.6848 57.041 29.8688 22.7529 18.4851 24.4381 127.683 29.0113 71.1613 65.8052 38.4235 17.8922 20.8125 20.5313 25.4082 15.5392 98.6718 57.7873 48.7795 18.8033 150.182 36.4061 21.7254
internal_count=4980 1984 2996 994 1052 1027 562 1944 304 936 767 99 990 688 1640 432 273 106 200 613 1617 567 105 289 91 388 75 254 51 56 233 180 128 52 113 359 169 127 88 69 167 85 64 53 73 347 80 218 205 117 55 62 62 71 44 267 157 132 52 462 110 65
is_linear=0
shrinkage=0.05


Tree=13
num_leaves=63
num_cat=0
split_feature=6 0 0 6 4 9 4 9 5 8 0 4 4 0 5 9 5 6 14 8 9 8 7 6 3 3 6 5 7 9 5 4 13 2 3 9 9 2 6 8 6 9 5 5 7 0 5 3 4 8 6 9 6 0 0 0 3 7 5 13 5 5
split_gain=22.8542 13.1736 28.5195 14.5082 13.6937 14.7972 8.73071 9.30942 8.28496 8.19327 6.83591 5.82501 11.9684 8.86685 7.66453 7.44581 7.24828 7.19693 6.99639 5.7782 11.4319 14.9017 5.62773 8.15744 6.26807 5.33012 5.2928 5.10991 10.9838 7.02583 4.98008 4.69344 4.32154 4.24593 4.00005 4.16838 3.93698 3.7144 4.34922 5.80972 3.45398 3.27199 5.87177 3.24036 3.21106 2.24722 3.19607 2.0569 1.52276 2.22378 2.65834 1.74362 1.26767 2.51275 1.84111 5.51228 4.94793 2.01154 1.18848 1.26237 1.15086 3.06356
threshold=-0.31779632391244172 0.41933976044948135 0.39923309514120003 0.13272560059584138 0.15280631733881436 0.41005965172537456 0.49538729483712657 -0.10165517699599122 -0.19764618259357203 -0.01976867249843858 -1.3765510273129244 -0.12389370294828396 1.0026706653634736 -1.1859946765503484 -0.5380484238828952 0.15420223736469166 0.78652603817116118 0.1869399086178799 1.0000000180025095e-35 1.9925787702399795 -0.4854412985370149 2.32987564274443 -0.43482647208746378 0.057296998130396196 1.2326412166447711 1.6370914230587952 0.11981255180420262 -0.39069837962108173 0.39331780747009154 -0.74129871289769766 -0.35812902937426372 -0.67729374352248051 1.0000000180025095e-35 -0.015672672759888092 -1.2518386227556675 0.79384577326639838 -0.3575125913566729 0.34518665962737605 -0.49509453351192523 0.020249600510564049 -0.057485657795281038 0.5379883589057155 -0.21524413796886885 0.13382575298291402 1.7925960729294093 -1.3523316350097672 -0.35550246887048809 -0.93405631771607645 -0.54553182910005271 0.20890717326729075 0.46877232272110508 -0.4854412985370149 0.39037166934329898 2.1462281286311948 1.1756245578405202 0.95627911811381405 0.019290597402695842 0.65984700089091397 -0.79702728955517343 1.0000000180025095e-35 -0.52176374875948617 -0.53647248758062982
decision_type=2 2 2 2 2 2 2 2 2 2 2 2 2 2 2 2 2 2 2 2 2 2 2 2 2 2 2 2 2 2 2 2 2 2 2 2 2 2 2 2 2 2 2 2 2 2 2 2 2 2 2 2 2 2 2 2 2 2 2 2 2 2
left_child=19 2 3 4 22 6 33 40 9 26 -5 17 13 -13 -14 16 27 -12 -17 37 21 -21 23 30 31 52 -7 28 -15 47 -2 -24 43 -6 -20 -36 -34 45 44 -40 -8 48 -43 -31 -39 46 -1 -29 49 50 51 -19 53 -3 55 57 -57 -54 -47 -60 61 -61
right_child=1 25 -4 10 5 8 7 -9 -10 -11 11 12 14 15 -16 18 -18 41 34 20 -22 -23 24 -25 -26 -27 -28 29 -30 32 -32 -33 36 -35 35 -37 -38 38 39 -41 -42 42 -44 -45 -46 58 -48 -49 -50 -51 -52 -53 54 -55 -56 56 -58 -59 59 60 -62 -63
leaf_value=-0.034489853557069051 -0.034545960473020922 -0.034482877457511191 0.20385154067238345 -0.034555599637222011 0.13071459546187905 -0.034765434557236567 0.078408071487220052 0.17989304073415174 -0.034624086216056671 0.1536862715327266 0.1000018666990483 0.13187675052797806 0.113310925109935 0.004514465932003925 -0.030215152737824325 -0.034661090604780474 0.14483295218043271 0.10530284087752294 -0.034647175758190887 0.19304645468500151 -0.034499567833051178 -0.034695902830043944 0.058922691435705547 0.1479409730953351 0.10943546339434629 0.087172291784163733 0.089618593157839002 0.036273486150059472 0.21554775854741678 -0.03475052130982554 0.077778950554151238 -0.034632132825621137 0.16173304565344279 0.23486286377963622 0.012223289949540181 0.10794855236906759 0.051528832171559881 -0.034523136984449844 0.12357038387150727 -0.0073432361063809574 -0.034760610751430263 0.087494192400041082 -0.034586858300967437 0.072686412850022572 0.038903691495269219 0.040464622614847651 0.073499977301418648 -0.034630464372655913 -0.030875570195314696 -0.034546416087403525 -0.015209239647164634 0.014093871840554851 -0.034468857041007432 0.03459550222171142 -0.027423177826259328 0.0051116988176856141 0.15127920674027806 0.032403088722088406 -0.031431192548084089 -0.016783994273322417 -0.0252339854386705 0.058391576568902342
leaf_weight=1.3578207865357401 2.2197334058582783 15.220130547881128 2.0865525007247916 9.3134088926017267 2.0978534184396271 1.8359109610319138 1.3234855160117149 1.3937977105379102 3.0514518246054632 1.8498750030994413 1.4849680848419691 2.3964427560567811 1.0121634304523457 1.2724770493805384 11.482954822480677 6.2386504597961885 1.9424563869833935 1.0695909857749941 1.3424273058772085 1.7537343800067904 3.3996951207518569 1.2165165059268472 1.5953692719340313 1.6357962489128111 1.0373911671340454 1.2286566458642472 1.6011485159397125 1.4026617333292923 1.1962109506130216 1.4183670058846627 1.7765650115907221 8.3948626741766912 1.5223944336175921 1.8342518582940117 2.1223276257514954 2.4501622505486012 1.7328687720000742 5.5366878882050514 1.5773380249738678 1.831499211490154 1.374389860779047 2.0450818203389649 1.900038793683051 1.3892143741250036 2.0366514623165131 0.66698428988456626 1.3830389156937588 3.7774493917822829 13.770990598946808 3.3524987697601318 2.5753079056739807 1.027190461754804 4.5513720884919149 1.4411007799208153 7.0628347732126704 1.2543290257453921 1.0753335095942018 1.4935896284878252 50.867201812565327 8.5057921074330789 21.644204128533602 1.6120846122503305
leaf_count=28 45 322 28 185 26 32 22 19 58 24 28 38 17 22 226 116 27 19 25 28 71 22 27 23 17 22 22 23 18 25 33 162 21 15 37 41 28 113 25 35 24 37 37 19 36 14 22 72 285 68 50 21 97 26 148 23 20 30 1160 187 459 30
internal_value=0 0.0126305 0.0206928 0.0172885 0.0451325 0.0776219 0.126094 0.0749649 0.0309788 0.0688427 0.00568479 0.0110445 0.0225679 0.039594 -0.0185889 0.0316412 0.0544384 -0.00702824 0.00227781 -0.0180212 0.0281095 0.0997707 0.0132233 0.0538872 -0.0075448 -0.0150314 0.0231787 0.0416326 0.106771 0.0273297 0.0153884 -0.0196921 0.0638648 0.179298 0.0412384 0.0635175 0.103068 -0.0210499 0.00633322 0.0532331 0.0207561 -0.0132027 0.0286978 0.0184102 -0.0147769 -0.0245453 0.0200019 -0.0154312 -0.020787 -0.00347398 0.0188223 0.0606206 -0.0189435 -0.028508 -0.0086207 0.00723658 0.0725802 -0.0179461 -0.0260111 -0.0265477 -0.0187267 -0.00480625
internal_weight=0 147.674 114.347 112.26 33.0219 16.3622 8.02378 4.09167 8.33839 5.28693 79.2383 69.9249 42.6992 30.2041 12.4951 27.8077 15.6541 27.2257 12.1536 103.389 6.36995 2.97025 16.6597 5.63209 11.0276 33.3273 3.43706 13.7116 2.46869 11.243 3.9963 9.99023 6.06284 3.93211 5.91492 4.57249 3.25526 97.0193 10.9822 3.40884 2.69788 25.7407 3.94512 2.80758 7.57334 86.0371 2.74086 5.18011 21.7956 8.02459 4.67209 2.09678 32.0987 16.6612 15.4375 8.37462 2.32966 6.04496 83.2963 82.6293 31.7621 10.1179
internal_count=4980 2750 2062 2034 549 242 106 65 136 78 1485 1300 755 512 243 474 255 545 219 2230 121 50 307 101 206 688 54 228 40 188 78 189 93 41 103 78 49 2109 209 60 46 517 74 44 149 1900 50 95 443 158 90 40 666 348 318 170 43 127 1850 1836 676 217
is_linear=0
shrinkage=0.05


Tree=14
num_leaves=63
num_cat=0
split_feature=1 0 0 14 15 4 13 1 4 13 0 1 15 8 1 3 4 2 2 4 4 13 2 7 3 5 0 8 5 0 5 8 8 1 4 5 4 8 0 0 4 8 3 0 0 2 1 13 5 4 8 2 1 7 7 7 5 10 8 7 2 4
split_gain=504.492 124.806 62.7248 33.3568 26.3393 20.9143 13.8844 13.6245 8.73444 7.8578 12.4155 7.59072 7.41339 7.07185 7.15472 6.67881 6.13309 5.92686 5.91429 5.78077 5.47203 5.30879 5.21076 5.14469 4.74154 4.3254 4.08347 4.05931 5.64552 5.25596 3.98274 3.7831 3.45456 3.42984 3.41972 3.38157 3.68501 3.33185 3.24134 3.21452 3.17951 3.06433 2.93934 2.91484 2.90012 4.69371 2.80172 3.69211 2.72862 2.67014 3.33126 2.63382 2.52484 2.4807 3.22148 3.11984 2.4061 3.91883 2.35075 3.39317 2.697 2.66
threshold=-0.3264034031262773 -0.76421167474253671 -1.0479898373889627 1.0000000180025095e-35 1.0000000180025095e-35 0.06057297724311491 1.0000000180025095e-35 -0.40508740494723722 0.71938254935525381 1.0000000180025095e-35 0.30509734392515525 -0.58868340919614381 1.0000000180025095e-35 -0.40851761030017836 0.30306861144140224 0.048179897860840502 2.2675850438187806 0.68301241760694242 0.061105908599104274 -0.55870802054229551 0.79185160228758911 1.0000000180025095e-35 -0.1129255424812784 0.72647929924611965 0.077069198318985163 0.70983047146091238 -0.52475956970754922 0.037400288942993749 -0.12121327193370086 -0.18157535046847381 0.11832904601063772 -0.5914582869127617 0.15173821182585842 0.67026061993921537 0.41633014618366992 0.014054594010744702 -0.16342227727501227 -0.13410659538130321 -1.1137934693069744 -0.52156078204486811 -0.20295085160174062 0.14030441953757197 -0.9629456181742212 -0.49414260207902994 0.52398581398576416 -0.17946697965907174 1.5357846399697748 1.0000000180025095e-35 -0.64048428353014519 -0.12389370294828396 -0.4428189871650377 -0.4814627330044417 0.11947260719249569 0.68840370018600205 -0.092146080546406453 1.1833864879675293 -0.35917965357577403 1.0000000180025095e-35 0.037400288942993749 -0.13022167960652392 -0.14875554711547481 -0.37424134035089668
decision_type=2 2 2 2 2 2 2 2 2 2 2 2 2 2 2 2 2 2 2 2 2 2 2 2 2 2 2 2 2 2 2 2 2 2 2 2 2 2 2 2 2 2 2 2 2 2 2 2 2 2 2 2 2 2 2 2 2 2 2 2 2 2
left_child=2 12 19 6 5 9 11 25 18 53 15 -4 20 16 26 17 39 58 42 -1 21 38 -16 -21 -23 34 -15 28 29 -9 31 -12 37 41 -5 -20 -37 -28 -2 -7 -33 -26 -8 -6 45 -34 47 -24 -44 -13 51 -51 -41 54 -3 -55 -17 -58 59 61 -60 -11
right_child=1 4 3 7 43 13 8 27 -10 10 30 49 -14 14 22 56 -18 -19 35 23 -22 24 46 -25 33 -27 32 -29 -30 -31 -32 40 44 -35 -36 36 -38 -39 -40 52 -42 -43 48 -45 -46 -47 -48 -49 -50 50 -52 -53 -54 55 -56 -57 57 -59 60 -61 -62 -63
leaf_value=0.0028642257060808168 0.042751162243053649 -0.010013330778759632 0.013146628355281657 -0.024822382697113496 0.029782184297704829 0.022153264451412007 -0.0065241312186339441 -0.022201970730005481 0.016204372480480247 -0.00024367985770226065 0.039749178471301341 -0.038002470419809559 0.066722482944929815 -0.020589519097544709 0.0017322240145225057 -0.038211602569245849 -0.002700258943042648 0.03591491140455258 -0.017371500143890262 0.052742170742135601 0.061054459728727209 0.055934016903609385 0.022852673811468476 0.0085613862582840042 0.035583978509456743 0.021007479562048528 0.0024231537252564243 -0.0032866242925552536 0.055830849290109619 0.032536258495443726 0.055179615725649084 0.021317042259985444 0.013262498967012601 0.056034177286381139 0.011293743654543872 0.031437971952460946 -0.01790319859577047 0.048092113116142698 0.0068371037048937768 0.035725548896016639 -0.021890198677301281 -0.001774063578954382 -0.0039349749186929576 0.064219734296498146 0.018495831675806915 -0.044648817316249721 0.016849225810475515 0.065914793378937284 -0.031939725193157346 -0.030998077858238909 -0.033077468532221391 0.011403372663775642 0.061638000660495587 0.027776240361185114 -0.033928090226694456 -0.020076805313222659 0.0099072767703468987 -0.034319838248199307 -0.042085516373159257 -0.014793236707438423 0.00099482251995908189 0.043279652253749072
