tree
version=v4
num_class=3
num_tree_per_iteration=3
label_index=0
max_feature_idx=252
objective=multiclass num_class:3
feature_names=Column_0 Column_1 Column_2 Column_3 Column_4 Column_5 Column_6 Column_7 Column_8 Column_9 Column_10 Column_11 Column_12 Column_13 Column_14 Column_15 Column_16 Column_17 Column_18 Column_19 Column_20 Column_21 Column_22 Column_23 Column_24 Column_25 Column_26 Column_27 Column_28 Column_29 Column_30 Column_31 Column_32 Column_33 Column_34 Column_35 Column_36 Column_37 Column_38 Column_39 Column_40 Column_41 Column_42 Column_43 Column_44 Column_45 Column_46 Column_47 Column_48 Column_49 Column_50 Column_51 Column_52 Column_53 Column_54 Column_55 Column_56 Column_57 Column_58 Column_59 Column_60 Column_61 Column_62 Column_63 Column_64 Column_65 Column_66 Column_67 Column_68 Column_69 Column_70 Column_71 Column_72 Column_73 Column_74 Column_75 Column_76 Column_77 Column_78 Column_79 Column_80 Column_81 Column_82 Column_83 Column_84 Column_85 Column_86 Column_87 Column_88 Column_89 Column_90 Column_91 Column_92 Column_93 Column_94 Column_95 Column_96 Column_97 Column_98 Column_99 Column_100 Column_101 Column_102 Column_103 Column_104 Column_105 Column_106 Column_107 Column_108 Column_109 Column_110 Column_111 Column_112 Column_113 Column_114 Column_115 Column_116 Column_117 Column_118 Column_119 Column_120 Column_121 Column_122 Column_123 Column_124 Column_125 Column_126 Column_127 Column_128 Column_129 Column_130 Column_131 Column_132 Column_133 Column_134 Column_135 Column_136 Column_137 Column_138 Column_139 Column_140 Column_141 Column_142 Column_143 Column_144 Column_145 Column_146 Column_147 Column_148 Column_149 Column_150 Column_151 Column_152 Column_153 Column_154 Column_155 Column_156 Column_157 Column_158 Column_159 Column_160 Column_161 Column_162 Column_163 Column_164 Column_165 Column_166 Column_167 Column_168 Column_169 Column_170 Column_171 Column_172 Column_173 Column_174 Column_175 Column_176 Column_177 Column_178 Column_179 Column_180 Column_181 Column_182 Column_183 Column_184 Column_185 Column_186 Column_187 Column_188 Column_189 Column_190 Column_191 Column_192 Column_193 Column_194 Column_195 Column_196 Column_197 Column_198 Column_199 Column_200 Column_201 Column_202 Column_203 Column_204 Column_205 Column_206 Column_207 Column_208 Column_209 Column_210 Column_211 Column_212 Column_213 Column_214 Column_215 Column_216 Column_217 Column_218 Column_219 Column_220 Column_221 Column_222 Column_223 Column_224 Column_225 Column_226 Column_227 Column_228 Column_229 Column_230 Column_231 Column_232 Column_233 Column_234 Column_235 Column_236 Column_237 Column_238 Column_239 Column_240 Column_241 Column_242 Column_243 Column_244 Column_245 Column_246 Column_247 Column_248 Column_249 Column_250 Column_251 Column_252
feature_infos=[-1.8179837247629205:2.526883860490249] [-0.60179740949963723:6.6633587586356642] [-1.1801478233712721:7.2910889865708848] [-4.588552825671373:3.1537796971113878] [-1.0528151996263997:6.6420806026433823] [-0.80254306661310248:6.3277282017765577] [-1.8089460058040516:7.023169429619931] [-1.5675755441259589:9.1887811903572292] [-2.3236778185881612:3.4046521178433578] [-2.0845501382912817:9.4290335079394385] [0:1] [0:1] [0:1] [0:1] [0:1] [0:2] [0.0058651631359166682:0.99026528068972641] [0.00096842376127417862:0.82600206075050464] [0.0078866358830709943:0.99214826038058124] [0.0017012605676427484:0.99483346939086914] [0.00069713144330307841:0.86591726541519165] [0.0024280413053929806:0.99546957015991211] [0.0017873635515570641:0.99579489231109619] [0.00069858558708801866:0.79189062118530273] [0.0034210376907140017:0.99554896354675293] [0.0020780535414814949:0.99451667070388794] [0.0005999694112688303:0.85840225219726562] [0.003474218538030982:0.99598395824432373] [0.0032299451995640993:0.99301022291183472] [0.0016253299545496702:0.87352532148361206] [0.0043325223959982395:0.99336302280426025] [0.0018568114610388875:0.99529629945755005] [0.00055483612231910229:0.83307343721389771] [0.0038600056432187557:0.99540883302688599] [0.0021209446713328362:0.99458658695220947] [0.00049227912677451968:0.7872612476348877] [0.0038599646650254726:0.99547296762466431] [0.0016525689279660583:0.99517089128494263] [0.00054554746020585299:0.86091142892837524] [0.0033551000524312258:0.99619746208190918] [0.0019017660524696112:0.99553585052490234] [0.0006661228253506124:0.83758300542831421] [0.0036122652236372232:0.99484282732009888] [0.0020362006034702063:0.99585092067718506] [0.00063307402888312936:0.84346562623977661] [0.0028045820072293282:0.9935232400894165] [0.0020372446160763502:0.9943615198135376] [0.00079453084617853165:0.87875008583068848] [0.0038186453748494387:0.99592602252960205] [0.0014484763615530058:0.99294387126227912] [0.0001204158741138111:0.86870245841681437] [0.006322271703199313:0.99781035771271687] [0.0010373682297888762:0.99447108076023782] [0.00019520164630791324:0.87821599615354462] [0.0044658058319384146:0.99867403382400277] [0.0019491418899483073:0.99096289168222873] [0.00015975596871125938:0.89069212528967157] [0.0070350557530632699:0.99764445044230576] [0.0011555660081848322:0.99418733398259318] [0.00010896300505739612:0.87848144159413011] [0.0051644186649012318:0.99859779816036687] [0.0025839722646196243:0.99177598500237041] [0.00026693726295204124:0.85376371549758356] [0.0069019642738965287:0.99670416543930596] [0.0011752523667086737:0.99145150698114959] [0.00025951593327721943:0.89272933924954778] [0.007385770872973001:0.99826308069344394] [0.0037761173837385885:0.99428770113735221] [0.00022713872391137271:0.93865813653760266] [0.0037541748798200622:0.99482163284394431] [0.011580502864621069:0.98970141841033299] [0.00075780175780643631:0.85199103198480719] [0.0093699553549115907:0.98736375151211919] [0.0033167491558509388:0.99716116979791602] [0.00023917685461567425:0.90177143981316321] [0.0016398401717983492:0.99407582434603048] [0.0015367730510102468:0.99274187641983824] [0.0001254686325990594:0.83986198000162926] [0.0065746420908268438:0.99752598472369536] [0.0019230621302522273:0.99545560704821889] [0.00031327105672272434:0.67265061842501817] [0.0032774205642627074:0.99702237432219076] [0.0017180130506139041:0.99545428783260836] [0.0003549650175123677:0.7022080723094366] [0.0038617361225635307:0.99722920529168513] [0.00082946691008689056:0.99371047646394539] [0.00015694654235499819:0.85109358977622751] [0.0040167419811551752:0.99748659098028059] [0.0017514005488263884:0.99455228409558205] [0.00037009330576590814:0.65239148862407126] [0.004459453966776137:0.99639365336074137] [0.0015559385460426087:0.99567490834539585] [0.00052175836908027859:0.69659213439418] [0.0027292709496317142:0.99662287534353478] [0.001429096988367439:0.99481517718536905] [0.00050977802523325452:0.70957157040298735] [0.0041435086593993543:0.99739110334222547] [0.0019310038910252852:0.99105760887049221] [0.00042257768096250447:0.74640614761667057] [0.0072802866856421927:0.99704096301736711] [0.0025647746036705785:0.99145228331864321] [0.00077460323021811693:0.61895846194355819] [0.0072102906166845119:0.99383451023121971] [0.00192175402731362:0.99410042759068318] [0.00059365459149171877:0.72344627929052796] [0.0043236033149488548:0.99648949697941003] [0.0015885859955217395:0.99412032330500422] [0.00037788467827963454:0.74342730705363125] [0.0026158552250926457:0.99696969809453817] [0:0.9693553799076966] [0:0.402260299835692] [0.023797123940487462:0.99881820207692229] [0:0.97257007819505237] [0:0.45566723189231756] [0.021794203630674337:0.99987599206349209] [6.807351940095303e-05:0.97377972486360864] [0:0.39244377995274882] [0.020306752680504584:0.99975111996017929] [0.0018550896556277625:0.95690410363808931] [0:0.39185320515290056] [0.035276130620949156:0.99491173073551564] [0.0011016255520024366:0.95736736954356616] [0.0014124293785310734:0.44195544583846286] [0.033883981238847817:0.99701395233744483] [0.0018162763896113722:0.96612087279480807] [0.0017613309822684955:0.41441651706080107] [0.026677299915681178:0.99610183080489856] [0.0012135339559085497:0.95868582771973787] [0.0006691449814126394:0.46560695590873835] [0.033306341667441557:0.99743621976458929] [0.0023982274336411306:0.95239115238469441] [0.0024357031863479926:0.39133713542725662] [0.037458369362912636:0.99502719273477547] [0.0024998167536613614:0.95963393159661681] [0.0021971413980636455:0.42715065107838313] [0.032331207698282682:0.99449667676705211] [0.0011086474501108647:0.96435437213440878] [0.00060376806610420379:0.36741012919958166] [0.024971699542775776:0.99791200187823714] [0:0.9470553966149593] [0:0.32661855571360038] [0.040531563155966274:1] [0:0.96314400641249753] [0:0.26622222222222225] [0.029895408175637801:1] [0.00031165900569934192:0.93777431790059906] [0:0.43986752784609046] [0.050564400817324863:0.99950049950049957] [0:0.95036429872495443] [0:0.43888888888888888] [0.038208955223880597:1] [0:0.94115197765508107] [0:0.23558121535342536] [0.048005795519932115:1] [0:0.93585100906778507] [0:0.21800747265135528] [0.053482854642899126:0.9998459167950694] [0:0.93268204014054568] [0:0.23789729550771682] [0.05423668352371265:1] [0:0.9322588766990838] [0:0.20107434974939564] [0.054863580659469023:1] [0:0.93478318453731457] [0:0.22479847513919315] [0.053416254943499657:1] [0:0.92692515376601969] [0:0.18261027569992405] [0.057241089088538671:1] [2.8882415108764175e-06:0.99823147987176797] [3.0646742408571065e-06:0.32086871848918447] [0.00035834799427166762:0.99996241123768548] [1.2944255942386334e-05:0.99476348467963249] [4.5384290293614636e-07:0.57095785575284497] [0.0017265190426039739:0.99993669614796055] [8.8058672854733488e-06:0.99641443594382118] [1.7042482930834491e-06:0.86977289494584187] [0.003555905694351665:0.9999758489771321] [3.0024535740115912e-06:0.99826829050310806] [6.1721202010198476e-09:0.38436955464312983] [0.0017256427074755635:0.9999969837610897] [1.4431800016857458e-06:0.99690054402113293] [2.7907848594379142e-06:0.36819543317869008] [0.0014313912225824134:0.99999149282919531] [3.306356586072855e-09:0.9995707261521688] [1.4797465040520868e-07:0.49817334480875242] [7.3935008206670589e-05:0.99999674688202644] [2.5383787101971662e-11:0.99847764016821872] [1.2533214300193473e-12:0.47612646737750791] [0.0011315558102861702:0.99999997341595459] [4.1484425274178268e-08:0.99943365067661871] [3.734307210696603e-07:0.46350826386307148] [0.00026401699559352239:0.99999109780032935] [0.021276595744680851:0.91293654697491389] [0.012935323383084577:0.11363636363636363] [0.072306935563207081:0.95551257253384914] [2.6492881217219837e-05:0.98224043954930185] [0.0010461769029599061:0.21212562712743807] [0.014543002228912819:0.99876353323085831] [1.6656449055051474e-10:0.99924292901312373] [2.9001071398367735e-15:0.54436191315584126] [6.1776684620926234e-05:0.99999989079486162] [3.0668342428889948e-10:0.9998327391471159] [3.11372611567815e-08:0.72737123429315231] [6.2445536525117834e-05:0.99999996855605533] [0:1] [0:0.15254237288135594] [0:1] [0:1] [0:0.15254237288135594] [0:1] [0:0.92170022371364657] [0:0.11363636363636363] [0.062080536912751678:1] [0:0.94251336898395721] [0:0.33333333333333331] [0.046122994652406414:1] [0:0.94251336898395721] [0:0.33333333333333331] [0.046122994652406414:1] [0.06010230179028133:0.84896661367249604] [0.017191977077363897:0.080773606370875994] [0.13290937996820348:0.88746803069053704] [0:1] [0:0.73750759373853969] [0:1] [0:1] [0:0.73750759373853969] [0:1] [0:1] [0:0.5714285714285714] [0:1] [0:1] [0:0.5714285714285714] [0:1] [0:1] [0:0.5714285714285714] [0:1] [0:1] [0:0.8004838252968971] [0:1] [0:1] [0:0.8004838252968971] [0:1] [0:1] [0:0.59999999999999998] [0:1] [0:1] [0:1] [0:1] [0:1] [0:1] [0:1]
tree_sizes=1711 1680 1685 1731 1690 1718 1731 1699 1709 1737 1693 1734 1719 1709 1724 1720 1707 1729 1726 1714 1723 1735 1690 1730 1735 1710 1731 1737 1708 1721 1721 1721 1725 1721 1718 1730 1731 1720 1727 1717 1717 1725 1722 1713 1729 1721 1721 1730 1729 1726 1729 1742 1714 1740 1728 1726 1728 1732 1730 1721 1747 1718 1741 1730 1717 1739 1733 1732 1743 1735 1713 1736 1742 1724 1741 1736 1721 1745 1736 1731 1740 1736 1727 1733 1745 1719 1735 1731 1724 1733 1739 1726 1732 1736 1723 1750 1755 1724 1732 1739 1728 1736 1739 1734 1745 1750 1739 1755 1740 1734 1729 1737 1724 1728 1738 1734 1734 1747 1736 1725 1746 1743 1734 1743 1732 1743 1739 1738 1745 1737 1725 1737 1748 1732 1739 1747 1744 1737 1730 1734 1742 1748 1736 1743 1736 1733 1729 1752 1742 1732 1745 1736 1735 1741 1738 1740 1738 1735 1734 1735 1741 1753 1736 1742 1746 1750 1731 1737 1736 1736 1745 1744 1735 1740

Tree=0
num_leaves=15
num_cat=0
split_feature=16 67 76 16 16 75 182 40 250 207 127 90 68 2
split_gain=1551.05 96.4986 94.0482 14.6548 14.4742 12.7902 8.91671 8.75284 9.40623 8.25298 7.85339 7.82097 7.54046 7.30471
threshold=0.53929092922042809 0.81837754469812474 0.2534463835709857 0.91125155249583389 0.10671068507703539 0.3227524815070581 0.011246341407349845 0.33165864646434789 0.33365277845775837 0.63603868797308671 0.48878557096536451 0.40907563321402546 0.0089039569702427813 0.14556234809399587
decision_type=2 2 2 2 2 2 2 2 2 2 2 2 2 2
left_child=2 5 4 -3 -1 -2 -7 -4 10 12 -9 -12 -10 -8
right_child=1 3 7 -5 -6 6 13 8 9 -11 11 -13 -14 -15
leaf_value=-0.54826163203252065 -0.4458771949011745 -0.42878480529875679 -0.51426511286423415 -0.41484664589249653 -0.52878227597852789 -0.43307738589996986 -0.46416159025358178 -0.49414489570300324 -0.46541976042979938 -0.45855214188172305 -0.49373868166883672 -0.43199414847552581 -0.51231317923113118 -0.4969450644451911
leaf_weight=251.77054882049561 197.91962587833405 281.49346083402634 61.89359325170517 571.37927329540253 153.51009851694107 14.686615347862242 48.256021857261658 22.379604339599609 9.7910768985748273 10.140758216381071 7.6929889917373684 15.38597798347473 68.887219607830048 26.226098835468292
leaf_count=720 566 805 177 1634 439 42 138 64 28 29 22 44 197 75
internal_value=-0.462163 -0.427887 -0.527128 -0.419447 -0.540883 -0.452961 -0.468684 -0.498709 -0.491538 -0.501006 -0.473041 -0.452576 -0.506478 -0.475705
internal_weight=0 1139.96 601.452 852.873 405.281 287.088 89.1687 196.171 134.278 88.8191 45.4586 23.079 78.6783 74.4821
internal_count=4980 3260 1720 2439 1159 821 255 561 384 254 130 66 225 213
is_linear=0
shrinkage=1


Tree=1
num_leaves=15
num_cat=0
split_feature=53 23 191 29 71 182 176 2 137 77 107 7 92 20
split_gain=372.991 134.281 34.3658 42.3257 30.9712 26.6991 31.3165 34.2233 21.5613 20.9739 38.178 16.4935 15.4135 14.4845
threshold=0.3872990974395612 0.0961110293865204 0.036371020775623507 0.11427438631653787 0.038781928188009303 0.12941941469214807 0.090480718940700963 -0.031028389031686563 0.026779004398844206 0.049407961546206837 0.064500663934484156 -0.3967508730273463 0.12631107966187222 0.019111215136945251
decision_type=2 2 2 2 2 2 2 2 2 2 2 2 2 2
left_child=1 4 3 -3 13 6 11 -8 -6 10 -10 -4 -13 -1
right_child=-2 2 5 -5 8 -7 7 -9 9 -11 -12 12 -14 -15
leaf_value=-3.3821865274042766 -2.6602551067809062 -3.247446726333632 -3.1118723574647493 -2.7955321634373571 -3.1062234254285461 -3.3612099409516181 -3.2198909603033714 -2.9103330403021368 -3.3255702544938925 -3.3662026839129089 -2.9650001245234603 -3.3736917983548453 -3.176835075881089 -3.3553476753397651
leaf_weight=146.52579890191555 1.9219814836978901 1.0621476620435708 1.2644615024328212 1.0115692019462583 1.4161968827247609 3.6416491270065299 2.0737168639898305 1.5679322630167005 2.3771876245737062 6.6763567328453064 1.0621476620435713 3.3381783664226532 1.4161968827247617 76.525210127234459
leaf_count=2897 38 21 25 20 28 72 41 31 47 132 21 66 28 1513
internal_value=-3.35413 -3.35947 -3.21632 -3.027 -3.36885 -3.24584 -3.20234 -3.08661 -3.28895 -3.31453 -3.21422 -3.27237 -3.31505 -3.37298
internal_weight=0 249.959 15.3759 2.07372 234.583 13.3021 9.66049 3.64165 11.5319 10.1157 3.43934 6.01884 4.75438 223.051
internal_count=4980 4942 304 41 4638 263 191 72 228 200 68 119 94 4410
is_linear=0
shrinkage=1


Tree=2
num_leaves=15
num_cat=0
split_feature=45 18 48 72 42 181 18 18 188 68 197 80 105 10
split_gain=1491.56 111.244 88.9479 22.1323 14.6286 12.5158 10.2765 9.73978 9.26341 8.74093 9.68133 11.6181 7.34153 8.76757
threshold=0.48993043601512914 0.14425615493153232 0.81342479586601268 0.31738094334577355 0.64075136184692394 0.3499787406058838 0.082038905663190539 0.88209771162621398 0.0072912867002457764 0.012796937282188258 0.04763837734698461 0.12378298054072535 0.11307182358851485 1.0000000180025095e-35
decision_type=2 2 2 2 2 2 2 2 2 2 2 2 2 2
left_child=1 6 4 12 5 9 -1 -4 -7 -2 -11 -12 13 -3
right_child=2 3 7 -5 -6 8 -8 -9 -10 10 11 -13 -14 -15
leaf_value=-1.1384962623537127 -1.1358613212699686 -1.0471718757599766 -1.0178571176927076 -1.0859165211458186 -1.0349448891974693 -1.1005992525732247 -1.1253895554145719 -0.99899350438803003 -1.0391393460046054 -1.0382191801858647 -1.1236573836189423 -1.0457781181039789 -1.1138432220367904 -1.1184083781776408
leaf_weight=588.24842929840088 6.6846412420272818 9.3584977388381958 101.6065468788147 136.70091339945793 101.94077894091606 7.018873304128646 200.53923726081848 209.56350293755531 48.4636490046978 12.366586297750471 12.700818359851839 7.6873374283313742 213.57428768277168 8.0215694904327393
leaf_count=1760 20 28 304 409 305 21 600 627 145 37 38 23 639 24
internal_value=-1.09321 -1.12458 -1.02179 -1.10186 -1.0481 -1.06222 -1.13516 -1.00515 -1.04691 -1.08376 -1.07312 -1.09429 -1.1113 -1.08005
internal_weight=0 1156.44 508.033 367.655 196.863 94.9219 788.788 311.17 55.4825 39.4394 32.7547 20.3882 230.954 17.3801
internal_count=4980 3460 1520 1100 589 284 2360 931 166 118 98 61 691 52
is_linear=0
shrinkage=1


Tree=3
num_leaves=15
num_cat=0
split_feature=49 40 46 46 75 73 71 50 176 204 218 30 200 218
split_gain=1324.06 91.8106 85.6739 17.2137 15.6199 12.4279 11.0546 10.4231 7.27976 6.91136 6.88873 7.65278 6.8813 6.74859
threshold=0.54739837178427209 0.30052685737609869 0.82869848608970653 0.095500037074089064 0.3227524815070581 0.90889187742689448 0.033712649434809623 0.046515869789659041 0.014225224343511606 0.1646706142313783 0.093121178432462495 0.68250107765197765 0.090687339502296072 0.034895799519574118
decision_type=2 2 2 2 2 2 2 2 2 2 2 2 2 2
left_child=1 3 4 -1 -2 -4 7 10 -6 -10 11 -3 -8 -11
right_child=2 6 5 -5 8 -7 12 -9 9 13 -12 -13 -14 -15
leaf_value=-0.076618632799956912 0.017028797135569134 -0.02414427931815499 0.032370917568417944 -0.056676824082760195 0.020667314813443357 0.045419397893495188 -0.055737594725390652 0.013771038043224302 0.020890786096036583 -0.047081712394008275 0.018287021722521602 -0.078556782444353337 -0.021616244109702726 -0.010815869959097446
leaf_weight=290.11582460999489 191.58367785811424 68.766321808099747 271.6934267282486 172.5919192135334 17.104621022939682 555.74408760666847 39.077868610620499 22.567717283964157 10.863260596990584 18.945384532213211 8.4687819480895978 7.1321237981319419 23.760194957256317 39.727585911750793
leaf_count=800 553 195 791 480 49 1629 110 64 31 54 24 20 67 113
internal_value=0 -0.0576411 0.0330641 -0.0691803 0.00906181 0.0411349 -0.0261918 -0.0164113 -0.0085551 -0.0157433 -0.0244849 -0.0292574 -0.0428357 -0.022526
internal_weight=0 632.481 1105.66 462.708 278.225 827.438 169.773 106.935 86.6409 69.5362 84.3672 75.8984 62.8381 58.673
internal_count=4980 1760 3220 1280 800 2420 480 303 247 198 239 215 177 167
is_linear=0
shrinkage=0.05


Tree=4
num_leaves=15
num_cat=0
split_feature=23 71 9 38 7 107 52 71 77 183 134 209 134 5
split_gain=219.096 72.1993 34.7444 28.8433 27.4555 29.3041 28.6455 13.3241 30.9932 42.7207 12.664 27.5792 12.4543 10.0387
threshold=0.0961110293865204 0.14723919658898141 -0.61337000571735689 0.046041825786232955 -0.33963747443717002 0.12552797367869173 0.46840170813668963 0.038781928188009303 0.049407961546206837 0.52420335618599734 0.088169411942176895 0.08372113147318426 0.031922030844568121 -0.52754218186779256
decision_type=2 2 2 2 2 2 2 2 2 2 2 2 2 2
left_child=3 4 -3 -1 5 6 -2 13 9 -9 -6 -12 -10 -5
right_child=1 2 -4 7 10 -7 -8 8 12 -11 11 -13 -14 -15
leaf_value=-0.021293441563394491 0.41891216600862596 0.41602091715676037 0.17439248665212193 0.11670128133246885 0.0053304204131300117 0.025620488027808815 0.11300833614342574 0.0057245564517219294 0.15994635790972556 0.40432623641121018 0.28599518666277984 0.028795227433172123 -0.014576628194325786 -0.0013445591638998225
leaf_weight=200.44886238873005 1.7625538371503364 3.0994532071053982 2.8610654063522807 1.9834846705198312 6.2391740530729294 1.6527279615402219 1.3525717183947561 1.2317622974514946 1.2843805961310861 1.4797251299023626 1.5583222433924673 3.147326897829771 5.0086742080748081 19.576636698096994
leaf_count=4049 27 35 39 39 111 27 22 20 23 23 26 55 99 385
internal_value=0 0.151869 0.300039 -0.0143945 0.0956622 0.195801 0.28609 0.03085 0.0819326 0.223251 0.052039 0.11397 0.0210426 0.0095154
internal_weight=0 21.6732 5.96052 231.014 15.7127 4.76785 3.11513 30.5647 9.00454 2.71149 10.9448 4.70565 6.29305 21.5601
internal_count=4980 342 74 4638 268 76 49 589 165 43 192 81 122 424
is_linear=0
shrinkage=0.05


Tree=5
num_leaves=15
num_cat=0
split_feature=45 27 48 72 18 93 135 131 18 41 216 44 5 185
split_gain=1279.24 104.659 70.3142 14.7165 14.6341 11.8169 7.82477 8.92663 7.48099 7.23452 8.44433 9.95622 9.41851 8.3283
threshold=0.48993043601512914 0.1692105829715729 0.81342479586601268 0.30877342169660732 0.082038905663190539 0.6448486957944517 0.40919887589744541 0.035475749631610716 0.88209771162621398 0.021085663698613647 0.62619253494739879 0.034027617424726493 -0.012998979178144413 0.13160753670177885
decision_type=2 2 2 2 2 2 2 2 2 2 2 2 2 2
left_child=1 4 5 -3 -1 6 -2 -8 -4 -5 11 12 -11 -13
right_child=2 3 8 9 -6 -7 7 -9 -10 10 -12 13 -14 -15
leaf_value=-0.043726660045345089 0.051296408121018794 -0.01507270929793572 0.067601885244951407 -0.014461146483777894 -0.029336770457653739 0.053720061942893783 -0.024398601377370127 0.027476212900010379 0.083765291848182488 0.022079257029828873 -0.021245312780738435 0.001409104647018245 0.091388359367780697 0.043357571916133375
leaf_weight=570.47234484553337 29.708525866270065 166.76094368100166 105.98574268817902 30.779720395803452 255.95274087786674 95.973929107189178 9.4627000689506513 67.092407673597336 220.5648375749588 12.420807033777239 15.444170534610747 57.832308262586594 8.0969597697257978 14.875630110502241
leaf_count=1760 87 505 304 92 780 278 28 196 627 37 46 172 24 44
internal_value=0 -0.0300183 0.0641708 -0.00504912 -0.03927 0.0410024 0.0295163 0.0210642 0.0785193 0.00693761 0.0129986 0.0186716 0.0494308 0.00999152
internal_weight=0 1132.64 528.788 306.211 826.425 202.238 106.264 76.5551 326.551 139.45 108.67 93.2257 20.5178 72.7079
internal_count=4980 3460 1520 920 2540 589 311 224 931 415 323 277 61 216
is_linear=0
shrinkage=0.05


Tree=6
num_leaves=15
num_cat=0
split_feature=16 72 49 75 18 67 83 68 154 190 157 103 207 167
split_gain=1171.1 83.0428 65.139 11.6716 11.3875 10.1931 8.02287 7.23194 6.78316 6.30413 9.12549 6.03237 7.11183 7.90647
threshold=0.53929092922042809 0.1492177603741259 0.25683342361186251 0.3227524815070581 0.082038905663190539 0.11732746957600983 0.011639561277206679 0.010049268039233519 0.73978798799777223 0.47762306953136441 0.60359483091545374 0.6254114461497069 0.22961827807188637 0.044986338759392598
decision_type=2 2 2 2 2 2 2 2 2 2 2 2 2 2
left_child=2 4 5 -3 -2 -1 -5 9 -8 -4 -11 12 -9 -14
right_child=1 3 7 6 -6 -7 8 11 -10 10 -12 -13 13 -15
leaf_value=-0.07068430518930531 0.043496879786967542 0.015532613234883644 0.016407516860324257 0.037026405184275912 0.029853949479495309 -0.054703847738613746 -0.0055136944195397948 -0.0067173527654272314 -0.04914618266602408 -0.065940275000208839 0.009475711000819162 -0.076918834161912322 -0.059269244568533365 -0.030078207535334123
leaf_weight=280.50238966941833 580.13418158888817 220.42694342136383 14.275599092245104 9.7143042087554914 207.71532306075096 154.88471907377243 69.586498707532883 23.323167622089386 10.214997619390486 8.2471611499786395 7.8093909323215476 7.9176820516586295 29.937812894582748 103.01561197638512
leaf_count=757 1748 643 40 28 614 422 198 65 29 23 22 22 83 286
internal_value=0 0.0312745 -0.0542521 0.00934942 0.0398999 -0.0649994 -0.00587629 -0.0301974 -0.0110989 -0.00776712 -0.0292604 -0.0343411 -0.0321839 -0.0366513
internal_weight=0 1097.79 629.914 309.943 787.85 435.387 89.5158 194.526 79.8015 30.3322 16.0566 164.194 156.277 132.953
internal_count=4980 3260 1720 898 2362 1179 255 541 227 85 45 456 434 369
is_linear=0
shrinkage=0.05


Tree=7
num_leaves=15
num_cat=0
split_feature=23 71 35 221 7 69 0 71 20 77 170 218 197 164
split_gain=174.253 38.5561 27.5537 18.8945 17.8643 16.9721 19.3691 14.7957 21.5674 14.9923 10.3395 10.0891 13.5513 9.46521
threshold=0.0961110293865204 0.14723919658898141 0.03672797046601773 0.074157052455208206 -0.41578867255740498 0.33930718360834206 -0.72719713178865508 0.038781928188009303 0.046540344133973129 0.036678986516899187 0.058711476314248924 0.030014191106906344 0.053342118582476096 0.057618560578632912
decision_type=2 2 2 2 2 2 2 2 2 2 2 2 2 2
left_child=2 4 -1 -3 5 -2 -7 -4 -9 -10 -6 12 -11 -12
right_child=1 3 7 -5 10 6 -8 8 9 11 13 -13 -14 -15
leaf_value=-0.022682072769307126 0.024972091915052376 0.2681881454551272 0.0049583750361031614 0.10260714219791645 -0.034855833662595419 0.10038127699976047 0.32715636117298957 0.25794280455907587 0.20739313725903641 0.00053602660808633996 0.16266507500734617 -0.016921258901087661 0.23342595784988185 0.045062216023078777
leaf_weight=182.22778651863337 1.6690372340381205 5.4104805327951899 34.172224942594767 2.5278148241341114 2.8419688306748858 1.8389515392482279 1.9295595549046995 1.3648726642131794 1.2367203831672657 1.4151140190660938 2.2774899452924711 5.599438913166523 1.1181854866445062 6.8778227455914021
leaf_count=3783 26 45 673 29 48 22 23 21 18 24 37 100 19 112
internal_value=0 0.124119 -0.0140371 0.215462 0.0825292 0.157708 0.216495 0.0210439 0.0722513 0.0452011 0.0484559 0.0205371 0.103332 0.0743173
internal_weight=0 25.3731 227.134 7.9383 17.4348 5.43755 3.76851 44.9066 10.7343 9.36946 11.9973 8.13274 2.5333 9.15531
internal_count=4980 342 4638 74 268 71 45 855 182 161 197 143 43 149
is_linear=0
shrinkage=0.05


Tree=8
num_leaves=15
num_cat=0
split_feature=45 27 48 18 57 66 60 93 114 73 8 18 58 250
split_gain=1108.22 96.5217 58.0361 14.0887 13.1774 11.8863 10.1588 7.73033 9.873 10.2285 7.04329 7.92003 7.03057 6.88237
threshold=0.48993043601512914 0.1692105829715729 0.81342479586601268 0.082038905663190539 0.32747165726480248 0.4145892791864077 0.39482911143062954 0.6448486957944517 0.48586466114439936 0.44158357132935039 1.0264233218797731 0.38375795559665143 0.52274750199697306 0.33113311103933085
decision_type=2 2 2 2 2 2 2 2 2 2 2 2 2 2
left_child=1 3 6 -1 12 10 -2 8 13 -10 11 -6 -3 -8
right_child=2 4 -4 -5 5 -7 7 -9 9 -11 -12 -13 -14 -15
leaf_value=-0.042321839860713091 -0.02237577273189776 0.021400317700667405 0.071172378106232781 -0.028027917168876565 0.0023022391718774331 -0.0074565192199553092 0.016268039954227289 0.049603588709683219 0.029814966625925022 -0.016086708643985297 0.065094385173068425 0.044953537047449234 -0.015591476719679045 0.061526003626270066
leaf_weight=552.24573591351509 6.8455542325973502 13.852506846189497 337.25223097205162 250.62164407968521 31.416643410921097 57.747790455818176 11.712575763463972 97.867772340774536 43.575417697429657 16.821577131748199 9.0801701545715314 16.654222220182419 176.52995803952217 29.702812820672989
leaf_count=1760 20 41 931 780 94 171 34 276 125 49 27 49 538 85
internal_value=0 -0.0287605 0.0583898 -0.0378599 -0.00482981 0.008542 0.0375162 0.0395694 0.029924 0.0170306 0.0247076 0.0170788 -0.0128999 0.0487267
internal_weight=0 1108.15 543.778 802.867 305.281 114.899 206.526 199.68 101.812 60.397 57.151 48.0709 190.382 41.4154
internal_count=4980 3460 1520 2540 920 341 589 569 293 174 170 143 579 119
is_linear=0
shrinkage=0.05


Tree=9
num_leaves=15
num_cat=0
split_feature=16 31 49 16 67 180 251 125 46 73 18 71 55 110
split_gain=1026.78 78.1429 56.0045 14.1105 9.17644 7.66829 6.58552 8.52862 6.64001 6.07861 5.82357 7.05111 7.88579 7.78023
threshold=0.53929092922042809 0.8555833399295808 0.25683342361186251 0.74056594048848323 0.11732746957600983 0.07703610885718444 0.31803819790905835 0.045780486716584599 0.50332754850387584 0.90889187742689448 0.60618311631022659 0.033712649434809623 0.56403859731264905 0.091974619203771188
decision_type=2 2 2 2 2 2 2 2 2 2 2 2 2 2
left_child=2 3 4 5 -1 -2 8 -8 -7 -3 11 12 13 -4
right_child=1 9 10 -5 -6 6 7 -9 -10 -11 -12 -13 -14 -15
leaf_value=-0.065494770100791772 -0.037338988635318232 0.031989467319443472 -0.00054795995969908451 0.021180198169162983 -0.050419932764518172 -0.030157593873014539 0.011784997851994536 -0.052624885571015717 0.010756074352842981 0.042574169158709582 -0.042263597443160904 -0.035549641773600878 -0.050182425529077805 -0.052114859245225575
leaf_weight=283.34262418746948 11.732019931077955 184.09605368971825 61.407185077667236 188.29513758420944 156.82479131221771 10.648483097553251 9.7589870691299456 10.857186853885649 144.32408311963081 515.32448571920395 52.530615478754044 61.903306186199188 12.254522591829298 8.3036987483501417
leaf_count=757 34 560 171 561 422 30 28 31 417 1599 143 170 34 23
internal_value=0 0.0299093 -0.0502173 0.0115143 -0.0601238 0.00179808 0.00441304 -0.0221355 0.00794481 0.0397881 -0.028015 -0.0228124 -0.0131928 -0.00669042
internal_weight=0 1075.04 636.567 375.616 440.167 187.321 175.589 20.6162 154.973 699.421 196.399 143.869 81.9654 69.7109
internal_count=4980 3260 1720 1101 1179 540 506 59 447 2159 541 398 228 194
is_linear=0
shrinkage=0.05


Tree=10
num_leaves=15
num_cat=0
split_feature=35 35 86 218 16 3 110 107 202 94 71 53 104 3
split_gain=144.337 30.0782 22.1014 19.2847 20.9796 10.8351 9.74206 13.7782 13.0467 11.1958 9.0167 15.6264 15.2252 12.509
threshold=0.11025790870189668 0.03672797046601773 0.24123086189371287 0.032263909892058205 0.6272413887938143 -0.52960611130205193 0.082072243602049566 0.14599747535020849 0.37104548318884184 0.58087728626556834 0.038781928188009303 0.036662565539703894 0.054439541748581802 0.13484779923527451
decision_type=2 2 2 2 2 2 2 2 2 2 2 2 2 2
left_child=1 -1 3 4 -2 -4 -5 8 -8 -10 -3 -12 13 -13
right_child=2 10 5 6 -6 -7 7 -9 9 -11 11 12 -14 -15
leaf_value=-0.022307835779893179 0.28579608504858584 0.0086104422017789419 0.26994512474094828 -0.0093038167455763484 0.036961258572590847 0.14157668492317801 0.20424301531101974 0.018942701505616166 -0.035026543750184345 0.1673487622728321 0.18355099889803195 0.21390732796579148 -8.8502887197367141e-05 0.0061199929462146738
leaf_weight=177.11288477852941 2.168474908918149 35.858794439584017 2.5988534316420555 3.8637795336544505 1.3900498002767561 4.4732098020613185 3.1253855936229211 4.625038031488657 1.5335978865623476 1.2327603511512277 2.0518289729952803 1.8049526512622827 8.5843420512974244 1.2097897231578825
leaf_count=3783 19 689 18 59 22 38 38 68 24 18 24 25 136 19
internal_value=0 -0.012677 0.113891 0.0843803 0.188595 0.18875 0.058592 0.0835363 0.134243 0.0551571 0.0217758 0.056359 0.0338593 0.130524
internal_weight=0 226.623 25.0111 17.9391 3.55852 7.07206 14.3806 10.5168 5.89174 2.76636 49.5097 13.6509 11.5991 3.01474
internal_count=4980 4676 304 248 41 56 207 148 80 42 893 204 180 44
is_linear=0
shrinkage=0.05


Tree=11
num_leaves=15
num_cat=0
split_feature=18 42 72 18 105 251 145 31 103 60 18 191 105 154
split_gain=960.043 84.8933 59.9733 18.9172 10.6825 13.4955 12.0012 6.7601 7.39894 8.41142 6.52997 6.42272 6.99608 6.38704
threshold=0.39040279869899314 0.64075136184692394 0.13532807106998399 0.8655732311510832 0.27074946790487148 0.32972073983195499 0.78042601719790838 0.86992815136909496 0.79212869053492285 0.2339527966401401 0.082038905663190539 0.031306804086708509 0.43082708877726122 0.61792005885985379
decision_type=2 2 2 2 2 2 2 2 2 2 2 2 2 2
left_child=2 -2 10 -3 7 6 11 8 -4 -10 -1 -6 13 -13
right_child=1 3 4 -5 5 -7 -8 -9 9 -11 -12 12 -14 -15
leaf_value=-0.040981934945834873 0.0182888472199144 0.04870216392811496 -0.023474686088737665 0.069256018663286525 -0.030775560958110994 0.049278387076043983 0.04629263186191368 -0.039845695260823405 -0.0087905558248915008 0.045757917196617544 -0.029471011247505799 -0.0056452923144692194 -0.040223978000450092 0.034758281165492066
leaf_weight=529.99118268489838 164.87886822223663 200.49841967225075 108.57038938999176 253.46694454550743 29.564912110567093 12.486486881971357 9.895970553159712 32.382280379533768 68.627972453832626 7.8784540593624106 160.52190554141998 34.921209812164307 10.018141835927961 13.58710604906082
leaf_count=1749 475 551 335 684 90 37 30 103 215 24 511 105 30 41
internal_value=0 0.0490176 -0.0299445 0.0601782 -0.012338 0.000323173 -0.00591517 -0.0187701 -0.0150826 -0.00317328 -0.038306 -0.0117801 -0.00218441 0.00567169
internal_weight=0 618.844 1018.45 453.965 327.933 110.474 97.9873 217.459 185.077 76.5064 690.513 88.0914 58.5265 48.5083
internal_count=4980 1710 3270 1235 1010 333 296 677 574 239 2260 266 176 146
is_linear=0
shrinkage=0.05


Tree=12
num_leaves=15
num_cat=0
split_feature=16 31 49 69 67 68 48 238 207 73 190 160 9 5
split_gain=905.254 72.9504 49.1565 13.8339 8.24645 6.2944 6.07966 7.50462 9.45431 5.96775 5.91379 7.04821 5.61366 5.46969
threshold=0.53929092922042809 0.8555833399295808 0.25683342361186251 0.16522367316747485 0.12284047665288091 0.010049268039233519 0.473273515701294 0.74384603029049734 0.22630528766212174 0.90889187742689448 0.47762306953136441 0.61020758221782057 0.92177448044674037 -0.12121327193370086
decision_type=2 2 2 2 2 2 2 2 2 2 2 2 2 2
left_child=2 3 4 -2 -1 10 7 8 -5 -3 -4 -12 13 -9
right_child=1 9 5 6 -6 -7 -8 12 -10 -11 11 -13 -14 -15
leaf_value=-0.061007919582836773 0.024090876917171766 0.03058260561147182 0.018056931480669183 -0.020873341219222602 -0.046595312086465883 -0.029918327157834247 -0.034253218820572341 0.018717818992187718 0.0087792837870433998 0.041206068050086177 -0.059142657058802367 0.0066254849733431266 0.043846999994302256 -0.0043273118695189433
leaf_weight=290.78061702847481 129.17751723527908 179.81052652001381 14.402863234281542 47.385576963424683 150.676234126091 167.134172052145 10.037667363882063 69.089451402425766 62.120784401893616 499.22387203574181 8.0636314153671282 8.2328678369522077 13.90279573202133 41.044387131929398
leaf_count=776 391 560 40 138 403 456 28 203 180 1599 22 23 41 120
internal_value=0 0.0286366 -0.0468072 0.010864 -0.0560887 -0.026096 0.00384943 0.00548708 -0.004052 0.0383929 -0.00528631 -0.0259171 0.0139087 0.0101294
internal_weight=0 1051.79 639.29 372.758 441.457 197.834 243.581 233.543 109.506 679.034 30.6994 16.2965 124.037 110.134
internal_count=4980 3260 1720 1101 1179 541 710 682 318 2159 85 45 364 323
is_linear=0
shrinkage=0.05


Tree=13
num_leaves=15
num_cat=0
split_feature=47 71 20 251 202 184 32 44 183 177 100 122 221 182
split_gain=123.208 26.6745 13.9269 11.4864 13.5686 24.4514 12.014 16.2786 10.1309 19.3809 17.0203 7.89778 7.79856 7.38181
threshold=0.057977447286248214 0.14723919658898141 0.019111215136945251 0.28366943222372137 0.18776601451939104 0.13052592076505026 0.059718793258070953 0.057348595932126052 0.1812439902766452 0.31474826424234997 0.59791625723764763 0.097335232702194713 0.074157052455208206 0.12941941469214807
decision_type=2 2 2 2 2 2 2 2 2 2 2 2 2 2
left_child=2 3 -1 4 5 -2 -6 -8 -9 10 -10 -5 -3 -11
right_child=1 12 -4 11 6 -7 7 8 9 13 -12 -13 -14 -15
leaf_value=-0.027074798229712316 0.012523492754424929 0.1646023998247948 0.00040341143784548996 -0.034858472007271969 -0.023831970754861834 0.24003963196065628 0.22110151878508233 -0.021307335078109588 0.070444058629792597 0.058923057826430196 0.2695676423954147 0.092668294516743244 0.07243846397745915 -0.034987172721347798
leaf_weight=129.78451120480895 2.0870378874242332 8.0947638601064664 71.525497253984213 5.4907071217894545 4.5644367113709476 2.7199740819633007 1.5589396618306661 3.7002050094306496 2.3628935925662544 8.9997389353811723 1.9660883359611032 1.5587198808789251 3.2036564648151389 2.7265035957097998
leaf_count=2899 29 46 1435 92 82 35 22 63 34 124 26 20 30 43
internal_value=0 0.0710732 -0.0173118 0.0508939 0.0641158 0.14126 0.0497862 0.0655514 0.0532767 0.0704659 0.16088 -0.00666065 0.138469 0.0370877
internal_weight=0 49.0337 201.31 37.7352 30.6858 4.80701 25.8788 21.3144 19.7554 16.0552 4.32898 7.04943 11.2984 11.7262
internal_count=4980 646 4334 570 458 64 394 312 290 227 60 112 76 167
is_linear=0
shrinkage=0.05


Tree=14
num_leaves=15
num_cat=0
split_feature=45 33 48 72 18 58 182 134 82 105 182 110 176 175
split_gain=850.994 82.8498 43.2629 12.9393 10.4353 8.23602 6.61143 7.86521 6.15874 6.13653 5.96257 5.90442 5.84416 5.57878
threshold=0.48993043601512914 0.15509594231843951 0.81342479586601268 0.30877342169660732 0.082038905663190539 0.58332704458533835 0.0094481936806920779 0.020352755521179728 0.5148883991809472 0.11307182358851485 0.021428390148460905 0.049038760428265472 0.014632391151101855 0.12234661712480148
decision_type=2 2 2 2 2 2 2 2 2 2 2 2 2 2
left_child=1 4 5 8 -1 10 -5 -8 -3 12 11 -2 -10 -12
right_child=2 3 -4 6 -6 -7 7 -9 9 -11 13 -13 -14 -15
leaf_value=-0.03983276668145997 0.065562573065241714 0.020299964316132825 0.060577672944680916 -0.027904019344462939 -0.026593819792065845 -0.019229958167457699 0.056169261924054359 0.0058060587653811866 -0.0173083838883661 -0.019226263243685593 0.0020619903881016945 0.030453812321445384 0.04899612050358463 0.032394985407082237
leaf_weight=514.54256084561348 25.73223078250885 12.037146359682081 347.72714331746101 13.354522585868834 209.42877793312073 7.5838347077369681 8.2885531783103925 119.79349610209465 6.6026843786239606 167.7339118719101 17.003725647926331 22.399661213159561 6.6913131773471832 139.66402128338814
leaf_count=1760 71 36 931 40 680 22 24 352 21 526 47 62 21 387
internal_value=0 -0.0264945 0.0497176 -0.00591486 -0.036003 0.0319369 0.00557455 0.0090652 -0.0143318 -0.0166346 0.0338316 0.0492236 0.0160649 0.0291028
internal_weight=0 1058.47 560.111 334.502 723.971 212.383 141.437 128.082 193.065 181.028 204.8 48.1319 13.294 156.668
internal_count=4980 3460 1520 1020 2440 589 416 376 604 568 567 133 42 434
is_linear=0
shrinkage=0.05


Tree=15
num_leaves=15
num_cat=0
split_feature=70 40 31 46 69 17 51 63 174 243 165 70 5 125
split_gain=797.272 65.633 51.4446 11.978 9.80928 6.51294 6.12771 6.27319 6.07354 7.74454 7.60679 7.507 5.90979 5.77358
threshold=0.6230772337205347 0.33165864646434789 0.85827797651290905 0.095500037074089064 0.16522367316747485 0.094060572939989998 0.34933805341318086 0.362367110230645 0.094104368006098157 0.20602414860781779 0.20133734603056272 0.78006453241710483 -0.19764618259357203 0.034649011771301828
decision_type=2 2 2 2 2 2 2 2 2 2 2 2 2 2
left_child=1 3 4 -1 -2 6 13 -8 10 12 -6 -12 -10 -3
right_child=2 5 -4 -5 8 -7 7 -9 9 -11 11 -13 -14 -15
leaf_value=-0.057151852215216896 0.023472645153153969 0.041213203941764705 0.037217319970671063 -0.041210240916205357 0.01292942409989304 -0.035907384552121141 -0.058986568703023518 -0.013964247125054674 0.032174264339392855 -0.0011386521479297444 -0.0013894193148462207 -0.069493205742832104 0.0050819392851377985 -0.007005354518136918
leaf_weight=298.06252524256706 131.63746806979179 9.2800959050655383 651.960603505373 194.86718708276749 13.358719050884249 35.642978519201279 8.2557597160339338 123.12897276878357 46.579750597476959 83.905570805072784 7.530826777219775 8.7451942563056928 35.446712851524353 18.753559201955795
leaf_count=800 405 27 2139 521 40 97 23 339 139 245 22 26 104 53
internal_value=0 -0.041135 0.0290982 -0.0508497 0.0129206 -0.0165852 -0.0122652 -0.0167933 0.00581793 0.00954167 -0.0150322 -0.037982 0.0204667 0.00895663
internal_weight=0 687.991 979.165 492.93 327.204 195.061 159.418 131.385 195.567 165.932 29.6347 16.276 82.0265 28.0337
internal_count=4980 1860 3120 1321 981 539 442 362 576 488 88 48 243 80
is_linear=0
shrinkage=0.05


Tree=16
num_leaves=15
num_cat=0
split_feature=32 68 176 107 181 134 83 125 20 182 10 102 179 102
split_gain=107.788 25.7994 11.5124 12.5971 13.5871 14.4949 11.6085 11.1486 10.8989 10.5705 10.5276 9.72779 9.42492 11.429
threshold=0.055293818935751922 0.20164352847081218 0.12467399724568394 0.085677799109366293 0.099683310101980102 0.0864772388112688 0.069511062229534529 0.089537809468005117 0.019111215136945251 0.12941941469214807 1.0000000180025095e-35 0.5580875519616707 0.020283010726891582 0.34669578731377426
decision_type=2 2 2 2 2 2 2 2 2 2 2 2 2 2
left_child=8 2 3 6 -5 -6 7 12 -1 10 -7 -12 13 -2
right_child=1 -3 -4 4 5 9 -8 -9 -10 -11 11 -13 -14 -15
leaf_value=-0.026760835377693932 0.1981381673502941 0.12011409948197349 -0.019836563675262577 0.1927700930807873 0.016286173439499729 0.21313849286589859 -0.027682937023648015 0.18947905325343853 -0.0015415521619402417 -0.003609152528866406 0.012791775700606817 0.17555100611088284 0.010473759088887813 0.0027006805169027264
leaf_weight=125.1056764498353 1.7091478928923636 13.495330881327389 6.57602784782648 2.3965492621064213 7.7797069177031508 2.8046214617788774 6.9741531424224368 1.3278592191636551 65.151225380599499 1.5947726778686044 2.0735236480832104 1.6474371068179605 8.7999183312058431 1.3302870094776151
leaf_count=2900 23 93 103 24 118 28 119 16 1320 25 28 15 145 23
internal_value=0 0.0594762 0.0412968 0.0517556 0.0817875 0.0650596 0.0244742 0.0520999 -0.0181248 0.111787 0.139988 0.0848526 0.0366919 0.1126
internal_weight=0 58.5093 45.014 38.438 18.2966 15.9001 20.1414 13.1672 190.257 8.12035 6.52558 3.72096 11.8394 3.03943
internal_count=4980 760 667 564 238 214 326 207 4220 96 71 43 191 46
is_linear=0
shrinkage=0.05


Tree=17
num_leaves=15
num_cat=0
split_feature=45 33 48 72 18 60 170 193 41 86 182 177 82 103
split_gain=750.514 76.9043 38.5938 11.3748 10.2407 7.85441 6.27403 7.82644 6.10741 7.46041 5.71219 6.37402 5.61844 5.84194
threshold=0.48993043601512914 0.15509594231843951 0.81342479586601268 0.30877342169660732 0.082038905663190539 0.39482911143062954 0.0085300710301295258 0.73116371373233735 0.021289681084454063 0.025371405625073316 0.021428390148460905 0.85413266487941109 0.5148883991809472 0.89254727094998942
decision_type=2 2 2 2 2 2 2 2 2 2 2 2 2 2
left_child=1 4 5 12 -1 -2 -5 8 -8 -10 -7 -12 -3 -14
right_child=2 3 -4 6 -6 10 7 -9 9 -11 11 -13 13 -15
leaf_value=-0.038735029896829545 -0.022967585232776411 0.019299511970992177 0.05655651234021928 -0.037367862430793923 -0.025441890320974665 0.046250900346898112 -0.027145499146392877 0.034495282593768217 0.057117082073920238 0.0030154147941175661 0.029201961723109134 -0.013910801018145609 -0.01758900405337754 0.031381355360577595
leaf_weight=495.76297920942307 6.8776365518569937 12.131706595420836 348.82020995020866 8.2105510234832746 204.70655035972595 49.066092312335968 15.282814800739287 22.584266602993011 6.86347672343254 89.001307278871536 149.37784719467163 9.0951758921146375 172.63683873414993 6.3128827810287467
leaf_count=1760 20 36 931 25 680 134 46 66 20 259 410 25 548 20
internal_value=0 -0.0254457 0.046295 -0.00566473 -0.0348502 0.0296012 0.00505682 0.00766151 0.00220912 0.00688884 0.0313433 0.0267276 -0.0136291 -0.0158615
internal_weight=0 1033.49 563.237 333.024 700.47 214.417 141.942 133.732 111.148 95.8648 207.539 158.473 191.081 178.95
internal_count=4980 3460 1520 1020 2440 589 416 391 325 279 569 435 604 568
is_linear=0
shrinkage=0.05


Tree=18
num_leaves=15
num_cat=0
split_feature=70 40 70 19 70 75 95 53 8 113 200 86 83 250
split_gain=707.857 59.218 47.5804 11.3887 8.42836 6.69752 6.28139 10.404 4.98347 4.94976 7.67909 6.17803 6.31445 4.87786
threshold=0.6230772337205347 0.33165864646434789 0.84177014238654713 0.092132590711116805 0.92759515993355224 0.3227524815070581 0.0123681228767286 0.013335794920679716 0.020249600510564049 0.041429280557688762 0.011692060317024322 0.030862632984576813 0.021182190204213521 0.33365277845775837
decision_type=2 2 2 2 2 2 2 2 2 2 2 2 2 2
left_child=1 3 5 -1 -4 -2 -3 8 -8 11 -11 12 -9 -12
right_child=2 6 4 -5 -6 -7 7 9 -10 10 13 -13 -14 -15
leaf_value=-0.054573117101511595 0.014267286204743471 -0.047539600832963609 0.028150920233936911 -0.039158525842846723 0.039491898494780991 -0.0050487363691040571 0.00060624812151550565 0.0087807299089931543 0.04888055960976101 -0.069372145691841636 -0.0022664299852955174 0.016901047289992324 -0.054433954607760682 -0.025344034244939324
leaf_weight=279.85344314575195 215.65448942780495 14.13590559363365 272.66580051183701 209.54968738555908 410.41589710116386 56.668916761875153 14.348485022783281 7.4618779718875876 8.5209935903549177 8.0868247449398023 31.661699116230011 20.446202009916306 8.3945304155349714 82.719620525836945
leaf_count=760 657 39 894 561 1406 163 40 21 24 22 87 57 23 226
internal_value=0 -0.038676 0.0279197 -0.047973 0.0349649 0.0102477 -0.0154354 -0.0129369 0.0185929 -0.0174785 -0.022285 -0.00126339 -0.0246857 -0.018956
internal_weight=0 685.179 955.405 489.403 683.082 272.323 195.776 181.64 22.8695 158.771 122.468 36.3026 15.8564 114.381
internal_count=4980 1860 3120 1321 2300 820 539 500 64 436 335 101 44 313
is_linear=0
shrinkage=0.05


Tree=19
num_leaves=15
num_cat=0
split_feature=32 68 101 74 224 134 200 179 50 164 161 221 158 182
split_gain=95.5757 20.0444 11.8451 10.9559 10.2414 10.4252 9.59775 9.47984 10.401 9.44463 22.2786 9.42163 12.3372 9.32192
threshold=0.055293818935751922 0.17393610010057201 0.20325953033347952 0.094261115534181664 1.0000000180025095e-35 0.089509519182174854 0.029281981921357673 0.04033345796568294 0.1010499659366605 0.056790158428552916 0.05445861099633751 0.075773536348858347 0.035344846845130666 0.034104440601754965
decision_type=2 2 2 2 2 2 2 2 2 2 2 2 2 2
left_child=3 2 4 -1 7 -6 -3 8 11 10 -9 12 13 -2
right_child=1 6 -4 -5 5 -7 -8 9 -10 -11 -12 -13 -14 -15
leaf_value=-0.018853520293506475 0.041190848319638956 0.18473492958770002 0.14271905438432983 0.10639798847802349 -0.026282161948461641 0.063507276606147259 0.084052452824637067 0.013278589290835911 0.20489855194358927 -0.0018680709607948192 0.19992275084888261 0.18525633827172255 -0.035096575948302809 0.21912812892292788
leaf_weight=183.52730494365096 1.9594794660806676 2.8762042298913029 2.5103892982006064 1.7626718059182156 11.403829660266636 4.5117711611092082 13.370407812297342 5.0965458713471916 1.6523545160889623 10.485036753118036 2.3296485468745232 1.3553161509335039 2.8939412198960781 1.1788966469466684
leaf_count=4192 30 15 26 28 183 55 96 74 16 156 28 18 45 18
internal_value=0 0.0542193 0.0371564 -0.017662 0.0309743 -0.000828558 0.101877 0.049755 0.0914958 0.028688 0.0718302 0.0661315 0.0393671 0.108031
internal_weight=0 61.6238 45.3772 185.29 42.8668 15.9156 16.2466 26.9512 9.03999 17.9112 7.42619 7.38763 6.03232 3.13838
internal_count=4980 760 649 4220 623 238 111 385 127 258 102 111 93 48
is_linear=0
shrinkage=0.05


Tree=20
num_leaves=15
num_cat=0
split_feature=45 72 18 75 93 135 135 83 137 202 81 93 137 215
split_gain=664.424 71.8883 35.1768 12.6969 8.57402 7.51659 7.23633 7.03512 10.0067 7.3529 6.83736 6.54466 9.0641 7.80135
threshold=0.48993043601512914 0.13532807106998399 0.80758961579948618 0.3227524815070581 0.6448486957944517 0.40919887589744541 0.44313374786510518 0.010665410484863658 0.021426945528535926 0.78475423684305901 0.056467915833445737 0.56107481154289229 0.076225826914073203 0.093395903707187769
decision_type=2 2 2 2 2 2 2 2 2 2 2 2 2 2
left_child=1 10 4 -3 5 -2 -7 -5 -9 -10 -1 13 -13 -8
right_child=2 3 -4 7 -6 6 11 8 9 -11 -12 12 -14 -15
leaf_value=-0.039392985886723145 0.039472474540859968 -0.014295993200129571 0.053976657323746874 -0.038047829099023989 0.037884367740663998 -0.035131261311589258 0.039404715241617844 0.054949556939310445 0.0076626360699350434 -0.033344441914512267 -0.02879848467216577 -0.021085169010902377 0.03577643419741016 -0.011216934752745468
leaf_weight=360.91804492473602 31.947049975395203 244.93905073404312 326.36969381570816 9.0416765213012678 122.41090640425682 7.7325139939784995 34.120532721281052 10.262803137302397 108.01092737913132 12.16247448325157 263.45123866200447 20.679221361875538 10.601558953523634 9.79602402448654
leaf_count=1331 88 790 874 28 329 22 94 30 315 37 929 57 29 27
internal_value=0 -0.0244494 0.0433261 -0.00743887 0.0286771 0.018866 0.0109277 0.00460301 0.00755951 0.0035124 -0.0349227 0.015664 -0.00181386 0.0281131
internal_weight=0 1008.79 563.658 384.417 237.288 114.877 82.9299 139.478 130.436 120.173 624.369 75.1973 31.2808 43.9166
internal_count=4980 3460 1520 1200 646 317 229 410 382 352 2260 207 86 121
is_linear=0
shrinkage=0.05


Tree=21
num_leaves=15
num_cat=0
split_feature=16 31 49 75 67 182 24 2 135 198 200 103 18 116
split_gain=633.605 60.7093 37.1432 10.4485 7.24809 6.52656 6.02061 5.64805 5.52634 6.89153 5.36587 5.35246 5.55097 6.25584
threshold=0.53929092922042809 0.8555833399295808 0.25683342361186251 0.3227524815070581 0.11732746957600983 0.011246341407349845 0.040474422276020057 0.14556234809399587 0.23373354043826641 0.48755808957608021 0.089727355303025128 0.6316462144654037 0.60618311631022659 0.10699838915839725
decision_type=2 2 2 2 2 2 2 2 2 2 2 2 2 2
left_child=2 3 4 -2 -1 -5 -3 8 -7 -10 -9 12 13 -4
right_child=1 6 11 5 -6 7 -8 10 9 -11 -12 -13 -14 -15
leaf_value=-0.052164986664261774 0.013870868747066251 0.039719100656037641 -0.0082389646206572093 0.025799108356743913 -0.038684095736944708 -0.035806763916760791 0.029845473733439282 -0.045286336581141638 0.017685627962603114 -0.033080007221859553 0.0027091495365514427 -0.054996698368616086 -0.032866260062845765 -0.034448656458549803
leaf_weight=274.18042355775833 274.121576577425 308.19196239113808 106.63361883163452 13.827780544757841 156.68725061416626 9.4509993493556959 309.38205078244209 18.279512345790867 31.035466998815536 8.5206092298030836 8.5459976792335492 11.061894804239271 53.407854527235031 28.947118610143661
leaf_count=757 845 1097 290 41 422 27 1062 51 89 24 24 30 143 78
internal_value=0 0.0252281 -0.0389961 0.00902464 -0.0472626 -0.00579191 0.0347728 -0.0115524 -0.00145672 0.00675041 -0.0299961 -0.0211918 -0.0192131 -0.0138349
internal_weight=0 981.356 630.918 363.782 430.868 89.6604 617.574 75.8326 49.0071 39.5561 26.8255 200.05 188.989 135.581
internal_count=4980 3260 1720 1101 1179 256 2159 215 140 113 75 541 511 368
is_linear=0
shrinkage=0.05


Tree=22
num_leaves=15
num_cat=0
split_feature=17 191 101 20 224 113 197 74 35 35 20 220 70 102
split_gain=85.3348 17.8708 22.6351 10.0266 9.90813 11.0675 11.2845 10.6356 9.16146 9.04839 8.37376 9.16028 7.328 7.42055
threshold=0.043467411876539595 0.036371020775623507 0.20325953033347952 0.019111215136945251 0.11624936819091496 0.058925483291547114 0.03378588382730735 0.11526747726042455 0.086352638900280013 0.10579372197389604 0.11094927042722703 0.42492277125504446 0.2623436823357137 0.2713060778857716
decision_type=2 2 2 2 2 2 2 2 2 2 2 2 2 2
left_child=3 4 9 -1 5 6 -2 -6 -7 -3 11 -11 -4 -14
right_child=1 2 12 -5 7 8 -8 -9 -10 10 -12 -13 13 -15
leaf_value=-0.026157501569128286 0.1145784474292932 -0.0049712190704119122 0.13021374708541045 -0.0012330304151733553 -0.0349073670587298 0.0070995180849664791 0.29047895874439222 0.11698006842153932 0.1335795922061235 0.037167265242786122 0.025547422052712095 0.19303385448471466 0.11349373284131381 -0.0026126225546657424
leaf_weight=116.88674674555659 1.985839139670132 21.549008753150702 6.6545993685722333 61.622088987380266 2.404420379549264 2.3136624135077 1.6857935972511766 2.2136383466422558 3.7559872567653656 2.0462063513696225 14.520591668784617 1.7477959245443342 2.6108202710747719 2.9099697954952717
leaf_count=2900 26 348 30 1282 40 32 23 14 28 27 166 21 16 27
internal_value=0 0.04884 0.0352141 -0.0175535 0.0982211 0.126818 0.195341 0.037899 0.0853672 0.0169898 0.0428292 0.108971 0.0948823 0.0522949
internal_weight=0 66.3983 52.039 178.509 14.3593 9.74128 3.67163 4.61806 6.06965 39.8636 18.3146 3.794 12.1754 5.52079
internal_count=4980 798 635 4182 163 109 49 54 60 562 214 48 73 43
is_linear=0
shrinkage=0.05


Tree=23
num_leaves=15
num_cat=0
split_feature=45 72 18 75 93 81 182 137 87 21 31 172 196 202
split_gain=589.233 67.2005 32.4173 11.0969 7.64744 6.83352 6.59393 6.23455 6.27291 6.79016 6.11772 8.74892 7.52374 6.04609
threshold=0.48993043601512914 0.13532807106998399 0.80758961579948618 0.3227524815070581 0.6448486957944517 0.056467915833445737 0.0094481936806920779 0.021426945528535926 0.2343891869804266 0.27573114633560186 0.86992815136909496 0.89028401144783276 0.77798717855241095 0.2458345054405108
decision_type=2 2 2 2 2 2 2 2 2 2 2 2 2 2
left_child=1 5 4 10 -2 -1 -5 -8 -9 -10 11 -3 -13 -6
right_child=2 3 -4 6 13 -7 7 8 9 -11 -12 12 -14 -15
leaf_value=-0.038465606408157528 0.017449250152254174 -0.014943681918022131 0.050993192777803446 -0.026796075799436259 0.022648181656400288 -0.027692362220542895 0.044346447982798347 -0.029072528267013766 0.037554780984639227 0.0028232957897175357 -0.034730152669720009 0.056610185106415592 1.5236230910622234e-06 0.045046468007697807
leaf_weight=346.55953255295753 115.42172101140022 179.09010899066925 323.57912686467171 15.347350835800169 53.02531909942627 255.87065050005913 10.74401870369911 12.397241353988646 16.883204519748688 84.532141894102097 29.910848170518875 7.6230120658874503 25.518194109201431 69.775544762611389
leaf_count=1331 317 578 874 47 142 929 31 38 50 244 105 24 83 187
internal_value=0 -0.0234869 0.0406877 -0.00708291 0.0266897 -0.0338899 0.0041278 0.00793811 0.00450113 0.00860525 -0.0135602 -0.0105766 0.0130224 0.0353749
internal_weight=0 984.476 561.802 382.046 238.223 602.43 139.904 124.557 113.813 101.415 242.142 212.231 33.1412 122.801
internal_count=4980 3460 1520 1200 646 2260 410 363 332 294 790 685 107 329
is_linear=0
shrinkage=0.05


Tree=24
num_leaves=15
num_cat=0
split_feature=16 31 49 67 67 7 73 182 91 240 201 192 88 201
split_gain=565.374 56.9559 34.1825 11.3316 7.08099 6.584 5.48231 5.15843 7.43026 6.91269 6.54024 10.9321 6.71607 7.99702
threshold=0.53929092922042809 0.85827797651290905 0.25683342361186251 0.82834853183230039 0.11732746957600983 -1.1011494556395196 0.90889187742689448 0.0022907945719939315 0.86761803813076377 0.16855321613405072 0.23508898658812205 0.31988215958468785 0.82624260122475501 0.095864023412719282
decision_type=2 2 2 2 2 2 2 2 2 2 2 2 2 2
left_child=2 3 4 5 -1 -2 -3 -7 9 -9 11 12 13 -11
right_child=1 6 -4 -5 -6 7 -8 8 -10 10 -12 -13 -14 -15
leaf_value=-0.049900765377805252 0.036327413055523769 0.025833477266506713 -0.019920884359352263 0.022936708627197606 -0.036491612447277166 0.038310062860809777 0.036717624578993462 0.013695770832581092 -0.04234125785320457 -0.045202533552488822 0.0026406729255858256 -0.066033492631311988 -0.049651545519456546 0.016583645896067461
leaf_weight=268.57691806554794 14.280008733272551 157.84619510173798 200.28104066848755 101.60292357206345 155.43046200275421 9.1342562139034253 433.25196325778961 80.418896347284317 9.9211103916168195 6.7111628055572536 103.59959122538567 10.055433660745619 7.5497732758522025 23.842348575592041
leaf_count=757 43 546 541 329 422 28 1593 243 31 20 303 29 23 72
internal_value=0 0.0242043 -0.0369443 0.00873623 -0.0449853 0.00330217 0.0338111 0.00142502 3.33637e-05 0.00184406 -0.00443632 -0.0196604 -0.00742263 0.00301214
internal_weight=0 958.214 624.288 367.116 424.007 265.513 591.098 251.233 242.098 232.177 151.758 48.1587 38.1033 30.5535
internal_count=4980 3260 1720 1121 1179 792 2139 749 721 690 447 144 115 92
is_linear=0
shrinkage=0.05


Tree=25
num_leaves=15
num_cat=0
split_feature=38 68 85 58 17 82 176 71 164 191 204 186 202 95
split_gain=77.0392 13.7029 9.5547 15.5356 8.84578 8.49563 8.17442 8.16033 10.0393 10.3197 9.24476 8.71352 10.402 8.0901
threshold=0.049932319670915611 0.17393610010057201 0.70005639368988026 0.75899319604812876 0.013662966407624561 0.9604174814793216 0.12467399724568394 0.028703898151075057 0.07929627938924956 0.035394190486198511 0.51161077688607437 0.6403789736270642 0.18776601451939104 0.036414454895391545
decision_type=2 2 2 2 2 2 2 2 2 2 2 2 2 2
left_child=4 2 3 6 -1 -6 7 -2 9 -9 -10 12 -11 -4
right_child=1 -3 13 -5 5 -7 -8 8 10 11 -12 -13 -14 -15
leaf_value=-0.027557044703447608 0.0059306316948538719 0.080722527843018962 0.069893515682395962 0.18541017752619801 -0.0063293333136305299 0.16067243573555623 -0.018529625284391064 0.10659855446815186 0.066995407183613132 0.15949420348227938 0.217620127759584 -0.035463956443107014 0.027484656067719538 -0.03480055973537912
leaf_weight=97.223722148686647 9.7797212563455087 18.798864662647247 2.3773471005260935 1.7997705005109299 72.872443046420813 0.76958343759179015 6.0116403549909583 5.1912610195577207 2.4142022319138041 1.771861609071492 1.7623158954083917 4.2889996841549864 9.4566974714398366 8.2439064085483533
leaf_count=2520 165 112 39 19 1585 20 91 47 27 15 15 57 124 144
internal_value=0 0.044037 0.0310488 0.0416548 -0.0176559 -0.00458411 0.0352943 0.0446284 0.0598363 0.0455744 0.130553 0.0251593 0.0483157 -0.011367
internal_weight=0 71.8966 53.0977 42.4765 170.866 73.642 40.6767 34.6651 24.8853 20.7088 4.17652 15.5176 11.2286 10.6213
internal_count=4980 855 743 560 4125 1605 541 450 285 243 42 196 139 183
is_linear=0
shrinkage=0.05


Tree=26
num_leaves=15
num_cat=0
split_feature=45 72 18 105 93 81 136 176 239 174 218 125 127 119
split_gain=524.098 63.1155 30.3229 10.0393 8.09952 6.77192 6.46282 7.07242 6.83706 6.75911 6.05139 8.38525 8.06423 5.89292
threshold=0.48993043601512914 0.13532807106998399 0.83322403070711271 0.27074946790487148 0.6448486957944517 0.056467915833445737 0.80220117620963738 0.10475715892942326 0.20367443954529646 0.33246040763333412 0.093395903707187769 0.078775273755225653 0.58840129880348047 0.034571768676404067
decision_type=2 2 2 2 2 2 2 2 2 2 2 2 2 2
left_child=1 5 4 -3 10 -1 7 -5 9 -9 11 12 -2 -6
right_child=2 3 -4 6 13 -7 -8 8 -10 -11 -12 -13 -14 -15
leaf_value=-0.037594960160298986 0.0032141539073360539 -0.014191036598235441 0.04950975720402339 -0.0050752698892786597 0.056828079251160069 -0.026688301003779294 0.044810423293549784 0.050043179000322784 0.06199822213161188 -0.0087990881942821286 -0.0089475882825764321 0.049915339899859544 0.038984459892390473 0.029571700051638353
leaf_weight=332.42604227364063 53.416376531124115 205.41851359605789 291.12989801168442 133.76098790764809 23.477161020040512 248.86786270141602 8.4407018125057203 6.8267395794391694 7.7540051639080039 17.11719873547554 19.782299965620041 20.350005626678467 22.348698854446411 127.66923585534096
leaf_count=1331 147 682 798 400 63 929 26 20 22 50 54 55 61 342
internal_value=0 -0.0225725 0.0383484 -0.00670675 0.0261802 -0.0329255 0.00213404 -4.30474e-05 0.0211922 0.00797764 0.016236 0.0214193 0.0137655 0.0338054
internal_weight=0 960.612 558.174 379.318 267.044 581.294 173.9 165.459 31.6979 23.9439 115.897 96.1151 75.7651 151.146
internal_count=4980 3460 1520 1200 722 2260 518 492 92 70 317 263 208 405
is_linear=0
shrinkage=0.05


Tree=27
num_leaves=15
num_cat=0
split_feature=70 34 31 19 69 174 240 196 24 104 20 24 146 200
split_gain=505.57 44.5177 41.1371 9.15405 7.42471 5.88476 6.77883 6.63166 5.79927 5.58633 8.20879 8.05601 7.69612 6.25132
threshold=0.6230772337205347 0.31119735538959509 0.85827797651290905 0.092132590711116805 0.16522367316747485 0.094104368006098157 0.20602414860781779 0.81274835045261606 0.040474422276020057 0.051976882226812182 0.042286815121769912 0.66690072417259227 0.055478421957549741 0.023280934849203645
decision_type=2 2 2 2 2 2 2 2 2 2 2 2 2 2
left_child=1 3 4 -1 -2 7 -7 -6 -4 11 -11 12 -3 -12
right_child=2 9 8 -5 5 6 -8 -9 -10 10 13 -13 -14 -15
leaf_value=-0.047753555379391265 0.01982072828703894 -0.0088129635438592892 0.037831787651762323 -0.033361945355155152 -0.042680136724777717 0.018258233375702204 -0.0021900521293673819 0.0052141597944345645 0.02775602686199348 -0.053478819006627654 -0.057810867370564768 -0.052210380194386452 0.026120301840267493 -0.011757622793763505
leaf_weight=263.27799269556999 123.96335011720657 75.736528754234314 285.25823763012886 190.40041583776474 13.25868406891823 79.473292112350464 82.712973237037659 15.889152795076368 285.98120686411858 17.311909407377243 8.0951042771339399 8.5453228652477247 19.911507934331894 82.11785888671875
leaf_count=760 405 210 1097 520 39 243 245 49 1042 47 22 23 55 223
internal_value=0 -0.0328788 0.0247857 -0.0417137 0.0102884 0.0041125 0.00782986 -0.0165719 0.0327875 -0.013947 -0.0219421 -0.00569636 -0.00154074 -0.0158901
internal_weight=0 665.397 886.537 453.678 315.297 191.334 162.186 29.1478 571.239 211.718 107.525 104.193 95.648 90.213
internal_count=4980 1860 3120 1280 981 576 488 88 2139 580 292 288 265 245
is_linear=0
shrinkage=0.05


Tree=28
num_leaves=15
num_cat=0
split_feature=38 86 17 179 144 121 107 206 17 3 107 200 82 19
split_gain=69.4243 11.3428 8.63555 7.83036 12.798 14.5007 12.4533 10.2208 10.5361 9.89011 7.58106 9.20729 7.02998 6.76865
threshold=0.049932319670915611 0.24123086189371287 0.013662966407624561 0.043714942314683709 0.36054839881783279 0.69804706706721864 0.088678716145270051 0.074628844114528123 0.13453916846090458 -0.1684898555752441 0.12552797367869173 0.060789428874646709 0.9604174814793216 0.88189420104026806
decision_type=2 2 2 2 2 2 2 2 2 2 2 2 2 2
left_child=2 3 -1 7 -5 6 -6 8 13 -9 -8 -12 -4 -2
right_child=1 -3 12 4 5 -7 10 9 -10 -11 11 -13 -14 -15
leaf_value=-0.027238334150884887 -0.00019542450233269218 0.084482334766284556 -0.005985918938753697 -0.030043026061909828 -0.013590094548420535 0.18173195445903492 0.082366868301225984 0.17664306155259391 0.12478386677340861 0.042947627679233297 0.103490394608949 -0.0083240589643828813 0.13627687943476904 0.12253728376900921
leaf_weight=93.3034334667027 9.7766630314290541 12.465279478579758 72.02449856325984 9.7580759227275831 11.541677597910168 1.6052866615355004 9.9970097690820712 3.0347888804972172 2.6581819467246524 2.5418712384998789 2.4738380014896375 7.1981221251189709 0.87898118793964286 1.2692003995180119
leaf_count=2520 139 57 1585 155 179 18 100 31 13 37 20 85 20 21
internal_value=0 0.04097 -0.017164 0.0322012 0.0202293 0.0351781 0.0276403 0.0586365 0.0354138 0.115704 0.0518341 0.0202752 -0.00427069 0.0139069
internal_weight=0 74.32 166.207 61.8547 42.574 32.8159 31.2106 19.2807 13.704 5.57666 19.669 9.67196 72.9035 11.0459
internal_count=4980 855 4125 798 557 402 384 241 173 68 205 105 1605 160
is_linear=0
shrinkage=0.05


Tree=29
num_leaves=15
num_cat=0
split_feature=57 93 18 18 223 40 95 117 135 34 224 191 200 176
split_gain=469.335 59.3541 31.722 11.5119 6.93069 11.2405 6.87706 6.66792 6.55049 8.30255 6.26759 10.1426 6.58669 6.1802
threshold=0.32747165726480248 0.65669949340002831 0.082038905663190539 0.8655732311510832 0.30336604851416699 0.70597717165946972 0.012049388727624675 0.24763777723587099 0.28053700029304346 0.56861439347267162 0.15676419299553687 0.092850335915168239 0.01190292463210278 0.13873428810129948
decision_type=2 2 2 2 2 2 2 2 2 2 2 2 2 2
left_child=2 6 -1 -3 5 -4 -2 -8 -9 10 12 -12 -10 -6
right_child=1 3 4 -5 13 -7 7 8 9 -11 11 -13 -14 -15
leaf_value=-0.03503844864243378 0.043086843346041757 0.032607073978783978 0.061505550882812413 0.049011910168593312 -0.017945939320170193 -0.022662136242426446 -0.031343799700425175 0.044441621148973591 0.042988191950203133 -0.015522925485586007 0.0060745235225711522 0.068523360365396718 0.0048829411154315203 0.016413383420983297
leaf_weight=424.54201075434685 15.282625824213026 190.43517160415649 7.4938638508319846 243.9120834171772 366.62685066461563 8.4280114173889142 10.069853246212004 13.173366129398344 12.452361285686491 31.45927095413208 14.058017969131472 12.096739292144774 127.02569308876991 13.57186111807823
leaf_count=1760 43 514 22 683 1266 28 30 38 35 95 39 33 352 42
internal_value=0 0.0308583 -0.0255429 0.0418194 -0.015366 0.0169526 0.0106521 0.00840241 0.0103059 0.00802431 0.0124967 0.0349575 0.00828491 -0.0167194
internal_weight=0 669.965 820.663 434.347 396.121 15.9219 235.618 220.335 210.265 197.092 165.633 26.1548 139.478 380.199
internal_count=4980 1862 3118 1197 1358 50 665 622 592 554 459 72 387 1308
is_linear=0
shrinkage=0.05


Tree=30
num_leaves=15
num_cat=0
split_feature=70 49 18 67 67 83 113 199 19 57 76 215 160 75
split_gain=451.97 41.4035 39.6176 8.55879 7.10353 5.69318 10.3559 9.07442 13.8708 5.48727 5.41746 5.27143 6.01984 5.11994
threshold=0.6230772337205347 0.25683342361186251 0.085969540044455978 0.81837754469812474 0.11732746957600983 0.010100753672201852 0.023648755123504946 0.76373977012392402 0.84297382831573497 0.07151317787079077 0.68389676634290963 0.015083459020726759 0.70236857390060881 0.35134117329081432
decision_type=2 2 2 2 2 2 2 2 2 2 2 2 2 2
left_child=1 4 -2 5 -1 -4 7 10 -9 -5 -7 12 -8 -13
right_child=2 -3 3 9 -6 6 11 8 -10 -11 -12 13 -14 -15
leaf_value=-0.046148165939484072 0.034001037487493758 -0.015167545348026598 0.026018304387833181 -0.011870143331051464 -0.032506180229706409 -0.030423464796828888 -0.048856232117482121 -0.069725245113772816 0.013743447741520146 0.022533852320948615 0.020419736488745996 0.01811458075889907 0.0084224196529358118 -0.0067289709981925381
leaf_weight=255.14587607979774 452.91320560872555 248.975500613451 30.167621314525604 12.393302470445631 152.4347562789917 7.8601992428302792 7.8594224452972439 14.529016464948656 7.5709387958049765 178.77767157554626 15.712542891502379 99.114618271589279 11.017301142215727 26.225988656282425
leaf_count=757 1788 680 97 44 423 23 23 44 25 613 49 305 34 75
internal_value=0 -0.0312326 0.0237997 0.0125644 -0.0410461 0.00584115 0.00263563 -0.0181132 -0.0411308 0.0203035 0.00346635 0.00920664 -0.0154258 0.0129164
internal_weight=0 656.556 864.142 411.229 407.581 220.058 189.89 45.6727 22.1 191.171 23.5727 144.217 18.8767 125.341
internal_count=4980 1860 3120 1332 1180 675 578 141 69 657 72 437 57 380
is_linear=0
shrinkage=0.05


Tree=31
num_leaves=15
num_cat=0
split_feature=38 68 17 101 179 206 110 143 107 144 187 146 197 176
split_gain=63.1362 10.5259 7.44919 6.9594 6.77677 9.26052 9.8546 9.79227 7.02064 8.14614 11.7121 6.95478 12.0489 6.46181
threshold=0.046041825786232955 0.17393610010057201 0.013662966407624561 0.20325953033347952 0.043714942314683709 0.074628844114528123 0.071722324598676099 0.072062095114962713 0.088678716145270051 0.37566992144152628 0.60125684575276372 0.042386656753911331 0.04925872504705802 0.12467399724568394
decision_type=2 2 2 2 2 2 2 2 2 2 2 2 2 2
left_child=2 3 -1 4 5 11 -7 -8 -6 -10 13 12 -2 -11
right_child=1 -3 -4 -5 8 6 7 -9 9 10 -12 -13 -14 -15
leaf_value=-0.026907661597880956 0.014249559609378806 0.067698416796528924 -0.0049453775065380137 0.096560002915355284 -0.012747845676793119 0.18677663357288946 -0.014794894792027558 0.13498019145660309 -0.035031504718440111 0.048223385107591395 0.15818203106091816 -0.025167138438677329 0.1536066855545544 -0.035148959996134412
leaf_weight=89.522145140916109 5.9820541627705115 20.699149679392576 67.888947635889053 3.333466548472642 17.963753152638674 2.0188930220901957 2.3983577340841293 2.0024578645825386 3.7931444644928005 10.517216160893438 2.0456984080374232 4.8909970186650744 2.093998484313488 2.9833238869905463
leaf_count=2520 88 113 1529 26 302 25 35 15 60 107 18 75 23 44
internal_value=0 0.0369525 -0.0174357 0.0263498 0.0222213 0.0462012 0.0953144 0.0533557 0.00975867 0.0306643 0.0466935 0.0218864 0.0503828 0.0297999
internal_weight=0 80.7225 157.411 60.0234 56.6899 19.3868 6.41971 4.40082 37.3031 19.3394 15.5462 12.967 8.07605 13.5005
internal_count=4980 931 4049 818 792 261 75 50 531 229 169 186 111 151
is_linear=0
shrinkage=0.05


Tree=32
num_leaves=15
num_cat=0
split_feature=57 93 73 18 93 75 89 199 43 102 2 112 142 102
split_gain=419.354 54.2373 30.8996 11.1646 5.97293 5.66648 6.39882 6.30241 5.82086 9.58232 5.84536 6.71205 9.56793 6.25206
threshold=0.32747165726480248 0.65669949340002831 0.85528267354159382 0.8655732311510832 0.91884496639734603 0.37978394983626368 0.033384361908378783 0.47244713327658078 0.80567237734794628 0.13605231016072861 -0.12316268666247737 0.72919005132717263 0.75794873606497182 0.24166133211192095
decision_type=2 2 2 2 2 2 2 2 2 2 2 2 2 2
left_child=2 -2 5 4 -3 6 8 -7 9 -1 13 -12 -13 -11
right_child=1 3 -4 -5 -6 7 -8 -9 -10 10 11 12 -14 -15
leaf_value=0.051678965118312076 0.0099143019457980461 0.032570367991786406 -0.032048235524163318 0.046967689478837671 -0.011594322885703185 0.051521546122192285 -0.02202257900767518 -0.0049582603824428334 -0.015903504888758614 -0.0015246866468696932 -0.017762378015394344 0.07979258475785718 -0.0059336975772256396 -0.046535793580863058
leaf_weight=9.2126900851726514 236.03275561332703 181.36353468894958 508.84885144233704 238.48293825984001 7.9929531812667838 7.0431917607784298 122.9326796233654 16.534657031297684 76.045244291424751 24.712892651557922 8.2838435173034686 6.9700440466403943 6.1063671112060547 11.216219216585158
leaf_count=31 665 492 2137 683 22 20 414 50 277 83 27 22 20 37
internal_value=0 0.0291555 -0.0246323 0.0397705 0.0307061 -0.0115774 -0.0136637 0.0119134 -0.00645494 0.0043495 -0.00326154 0.0174522 0.0397605 -0.0155761
internal_weight=0 663.872 797.907 427.839 189.356 289.058 265.48 23.5778 142.547 66.5021 57.2894 21.3603 13.0764 35.9291
internal_count=4980 1862 3118 1197 514 981 911 70 497 220 189 69 42 120
is_linear=0
shrinkage=0.05


Tree=33
num_leaves=15
num_cat=0
split_feature=49 73 16 73 114 162 127 75 52 102 18 205 0 59
split_gain=405.392 45.7699 31.2659 8.7799 14.0212 8.68292 6.82144 6.59384 7.45788 6.30421 14.4085 6.11514 5.62519 5.98666
threshold=0.54739837178427209 0.85528267354159382 0.1596573991470229 0.44158357132935039 0.48586466114439936 0.53967336043884628 0.91792258246025871 0.36755419604995099 0.60307982129945736 0.31962768258309765 0.39040279869899314 0.9302079226321468 -0.57182744531557161 0.033581754009148847
decision_type=2 2 2 2 2 2 2 2 2 2 2 2 2 2
left_child=2 5 -1 -4 9 7 11 -2 -9 -5 -11 -3 -6 -14
right_child=1 6 3 4 12 -7 -8 8 -10 10 -12 -13 13 -15
leaf_value=-0.042871002553033978 0.011901637261583475 0.02604702160601759 -0.02619730176184978 -0.055558052336748813 0.038111095293041533 -0.044335269978432762 0.035763165436900377 0.014008595786073339 -0.022725808715660753 0.028155594288719561 -0.029453473040989494 -0.015082857991712318 0.023517820340566223 -0.03174645957489957
leaf_weight=297.30421021580696 279.50164277851582 216.91033361852169 208.37526080012321 11.476285576820372 16.584196597337723 7.8816992044448844 308.41609084606171 24.329285502433777 31.976820319890976 14.494952052831648 43.205555409193039 9.430034399032591 10.884126096963884 8.913755536079405
leaf_count=900 902 835 570 32 46 22 1266 68 91 41 117 36 30 24
internal_value=0 0.0217757 -0.0312507 -0.0202459 -0.0084977 0.00753939 0.0309254 0.00875694 -0.00685325 -0.0217131 -0.0149815 0.0243334 0.01663 -0.00136425
internal_weight=0 878.446 611.238 313.934 105.559 343.689 534.756 335.808 56.3061 69.1768 57.7005 226.34 36.3821 19.7979
internal_count=4980 3220 1760 860 290 1083 2137 1061 159 190 158 871 100 54
is_linear=0
shrinkage=0.05


Tree=34
num_leaves=15
num_cat=0
split_feature=38 26 89 70 191 20 44 53 4 140 98 182 77 92
split_gain=57.229 8.8991 8.0826 7.21703 9.23175 7.20059 8.65739 7.14338 11.0431 12.8932 7.03066 7.14234 6.85648 15.7893
threshold=0.046041825786232955 0.11147119104862215 0.1613399736474623 0.24444918556505324 0.045032715068343533 0.019111215136945251 0.013677370734512808 0.036662565539703894 -0.15024608583276952 0.042170237153844027 0.053674029446815291 0.068777833483037357 0.008605949690606211 0.022708144689351315
decision_type=2 2 2 2 2 2 2 2 2 2 2 2 2 2
left_child=5 2 7 -3 -5 -1 -7 8 -2 -10 -11 -12 13 -8
right_child=1 3 -4 4 -6 6 12 -9 9 10 11 -13 -14 -15
leaf_value=-0.024732355342530921 -0.022833285248238595 0.079894988205890305 0.11978945858895756 0.096409880770724418 0.021266819619581122 0.12989585050641606 -0.034339753857891071 -0.00072742852175800747 0.16682607578983419 -0.034692399393947568 0.13153844159410749 -0.0046909881026561944 -0.010740345318832041 0.15232765940515014
leaf_weight=100.84101631492376 4.1847874633967868 14.355925213545559 1.8855455070734013 5.0667645968496826 21.145994529128075 1.217814229428767 2.4046913646161547 27.223099663853645 2.7013936601579172 2.2465245611965656 2.3570011444389825 1.6258015930652616 46.417873062193394 2.1418473348021507
leaf_count=2900 75 72 17 32 200 29 57 407 32 41 28 27 1016 47
internal_value=0 0.0346746 0.0186066 0.0513983 0.0357915 -0.0169301 -0.00185253 0.013877 0.0441906 0.0755969 0.0360348 0.0759289 -0.0050007 0.0535982
internal_weight=0 82.7928 42.2242 40.5687 26.2128 153.023 52.1822 40.3386 13.1155 8.93072 6.22933 3.9828 50.9644 4.54654
internal_count=4980 931 627 304 232 4049 1149 610 203 128 96 55 1120 104
is_linear=0
shrinkage=0.05


Tree=35
num_leaves=15
num_cat=0
split_feature=57 42 18 18 226 18 191 183 176 17 73 214 71 119
split_gain=374.994 50.0972 29.6484 11.899 6.32466 6.64945 6.3062 5.82883 5.69645 6.71328 7.62773 7.30675 7.3814 6.45015
threshold=0.32747165726480248 0.64075136184692394 0.082038905663190539 0.8655732311510832 0.30336604851416699 0.24477192544290624 0.075806844765155076 0.10901584904287055 0.13873428810129948 0.034238411454110891 0.85528267354159382 0.81030832265152919 0.024814422880984188 0.037649022948877515
decision_type=2 2 2 2 2 2 2 2 2 2 2 2 2 2
left_child=2 7 -1 6 5 -4 -3 -2 9 10 11 -6 13 -13
right_child=1 3 4 -5 8 -7 -8 -9 -10 -11 -12 12 -14 -15
leaf_value=-0.03343983631701733 0.041794954316297581 0.022783398375632952 -0.014975841335932978 0.045150108115127353 -0.016000124498271682 0.049887617700539781 0.042056192636569949 0.0063130129534240955 0.016658309108046145 -0.02852795405193961 -0.023134778930752022 0.0058551016062388479 0.054540243081394914 -0.040282509939504677
leaf_weight=391.48290990293026 12.249532967805861 141.42379009723663 7.9950507581233961 232.82740956544876 85.158745110034943 7.8117586672306061 60.64500880241394 210.07685017585754 13.501317173242567 86.688233852386475 103.83321864902973 63.896778702735901 6.8902603387832633 8.5941857695579511
leaf_count=1760 35 386 27 684 292 23 165 592 42 298 402 222 23 29
internal_value=0 0.0275751 -0.0237549 0.0374452 -0.0138906 0.0170798 0.0285676 0.00826796 -0.0152189 -0.016431 -0.0125236 -0.00582732 0.00508588 0.000385245
internal_weight=0 657.223 775.852 434.896 384.37 15.8068 202.069 222.326 368.563 355.061 268.373 164.54 79.3812 72.491
internal_count=4980 1862 3118 1235 1358 50 551 627 1308 1266 968 566 274 251
is_linear=0
shrinkage=0.05


Tree=36
num_leaves=15
num_cat=0
split_feature=16 18 16 16 18 180 45 68 194 19 19 251 125 79
split_gain=363.344 45.0677 27.4695 10.451 6.50286 6.46121 6.31799 6.58038 6.38282 6.22209 5.7878 5.62908 6.4999 5.49823
threshold=0.53929092922042809 0.085969540044455978 0.1596573991470229 0.74056594048848323 0.60618311631022659 0.07703610885718444 0.59076514840126049 0.0078595860169630976 0.083172458172458177 0.15947289019823077 0.35734821856021887 0.31803819790905835 0.045780486716584599 0.13471662153994166
decision_type=2 2 2 2 2 2 2 2 2 2 2 2 2 2
left_child=2 -2 -1 5 6 -3 7 -4 -9 13 -8 -7 -13 -6
right_child=1 3 4 -5 9 11 10 8 -10 -11 -12 12 -14 -15
leaf_value=-0.041380117991994689 0.032274703808095787 -0.035698289393452258 0.020871220862577707 0.015794572757227159 0.030445373365328751 0.0060662200843845946 -0.016086643832333363 -0.029020381759246677 -0.0044053205357667113 -0.033449723732316992 0.028029320252175652 0.0088871689824075641 -0.048043101310132418 -0.019329772277449524
leaf_weight=288.55988311767578 420.42759343981743 11.682509213685988 10.214601278305052 267.83069822192192 7.0893860757350913 150.42658591270447 13.712740153074266 80.237312495708466 39.203765362501144 107.23846754431725 16.239036023616791 9.2289218306541461 10.977219700813292 25.517607241868973
leaf_count=900 1789 34 28 932 20 447 37 217 106 296 44 27 31 72
internal_value=0 0.0205032 -0.0303711 0.00950889 -0.0197626 0.000274878 -0.0128657 -0.017647 -0.0209411 -0.0276341 0.00783183 0.00273781 -0.0220409 -0.0085077
internal_weight=0 870.574 588.013 450.146 299.453 182.315 159.607 129.656 119.441 139.845 29.9518 170.633 20.2061 32.607
internal_count=4980 3260 1720 1471 820 539 432 351 323 388 81 505 58 92
is_linear=0
shrinkage=0.05


Tree=37
num_leaves=15
num_cat=0
split_feature=17 35 110 105 161 165 239 250 205 139 155 114 65 35
split_gain=51.9426 8.93546 8.40871 10.6925 7.07725 7.63129 6.42961 13.0296 25.5406 6.27286 10.0199 8.28962 8.73713 7.21982
threshold=0.034238411454110891 0.13444402068853381 0.020438223736860071 0.054209008758539255 0.090379179932745399 0.46005544546939542 0.19588334484280637 0.67025550031954773 0.81036020123259223 0.57346200402864789 0.037041308339905647 0.63999905609539076 0.028004180705132036 0.058805437758564956
decision_type=2 2 2 2 2 2 2 2 2 2 2 2 2 2
left_child=6 2 -2 -4 9 -6 -1 -8 -9 10 -5 12 -12 -14
right_child=1 -3 3 4 5 -7 7 8 -10 -11 11 -13 13 -15
leaf_value=-0.020304294852264121 0.11080815064844662 0.05118470578570973 0.15605394313993892 0.11913071924968653 0.01354134001606333 0.13426592598273732 -0.0039258147122896315 0.36432153581388138 -0.034166936910004546 -0.023753773318266107 0.15336722026720329 -0.023193869216764588 -0.034715792608566554 0.038205645254713289
leaf_weight=132.99571654573083 2.3778520189225665 34.102069340646267 1.3063644766807545 2.2249363884329787 3.0191184915602198 2.3110314048826694 8.2216804884374124 0.75246234983205684 0.86359825916588306 13.473816294223068 1.3250096440315307 12.106593783944843 4.4881034567952183 13.928298342972992
leaf_count=3673 33 228 19 24 41 21 200 18 25 241 21 189 82 165
internal_value=0 0.0309693 0.018781 0.0147424 0.0112511 0.0658848 -0.0174191 0.0215857 0.151375 0.00512654 0.016547 0.00938036 0.0293568 0.0204346
internal_weight=0 90.6632 56.5611 54.1833 52.8769 5.33015 142.833 9.83774 1.61606 47.5468 34.0729 31.848 19.7414 18.4164
internal_count=4980 1064 836 803 784 62 3916 243 43 722 481 457 268 247
is_linear=0
shrinkage=0.05


Tree=38
num_leaves=15
num_cat=0
split_feature=45 72 18 37 46 81 176 251 4 75 88 8 159 42
split_gain=336.159 51.6302 22.2072 8.066 7.31509 6.94118 6.53688 6.12853 7.00642 5.72255 8.6564 6.98463 6.8575 5.20983
threshold=0.50682833790779125 0.13532807106998399 0.8655732311510832 0.85577294230461132 0.87932187318801891 0.056467915833445737 0.19475678095688945 0.34546700604687403 -0.13706989439052672 0.46082077938293203 0.53550783300796534 0.30609440771772572 0.49835969207822123 0.64075136184692394
decision_type=2 2 2 2 2 2 2 2 2 2 2 2 2 2
left_child=1 5 13 4 6 -1 7 9 -9 -3 11 12 -11 -2
right_child=2 3 -4 -5 -6 -7 -8 8 -10 10 -12 -13 -14 -15
leaf_value=-0.034662411166779948 0.012814351697471776 -0.0094010949066853783 0.043526428821452842 -0.026553314341840384 0.050910745732861307 -0.022832791942761634 0.037759962806213659 -0.011304778910151322 0.053327896704520254 -0.018122968091632399 0.036565590001658675 -0.038138819830806664 0.038276465114997743 0.027197030464616519
leaf_weight=281.52907867729664 92.027832627296448 260.35443018376827 226.50793591141701 39.29916900396347 6.2605785727500907 221.61687916517258 9.2751347124576551 7.5773551762104061 9.3881989121437055 10.689892739057543 18.202436774969101 11.356379210948942 10.869987815618513 199.35757195949554
leaf_count=1331 250 844 684 151 22 929 27 23 28 30 51 32 30 548
internal_value=0 -0.0189199 0.0317832 -0.00509399 -0.00264226 -0.0294519 -0.00363503 -0.00480403 0.0244609 -0.00639805 0.00889686 -0.00640373 0.0103123 0.0226546
internal_weight=0 886.42 517.893 383.274 343.974 503.146 337.714 328.439 16.9656 311.473 51.1187 32.9163 21.5599 291.385
internal_count=4980 3498 1482 1238 1087 2260 1065 1038 51 987 143 92 60 798
is_linear=0
shrinkage=0.05


Tree=39
num_leaves=15
num_cat=0
split_feature=49 73 16 129 205 73 114 75 8 102 18 84 157 0
split_gain=326.151 40.674 28.3293 7.43358 7.9758 7.17443 13.1479 7.05157 6.13957 5.76888 13.062 5.5192 5.49038 5.2322
threshold=0.54739837178427209 0.85528267354159382 0.1596573991470229 0.063310265404218871 0.9302079226321468 0.44158357132935039 0.48586466114439936 0.3227524815070581 1.9925787702399795 0.31962768258309765 0.39040279869899314 0.48966933388322265 0.55207810321937278 -0.57182744531557161
decision_type=2 2 2 2 2 2 2 2 2 2 2 2 2 2
left_child=2 7 -1 -3 8 -4 9 -2 -5 -7 -11 -12 -13 -8
right_child=1 3 5 4 -6 6 13 -9 -10 10 11 12 -14 -15
leaf_value=-0.040024368137724531 0.010972382619720326 0.034578336038624639 -0.023532978176628479 0.025809850728959017 -0.020753715850518557 -0.052456525795392166 0.037675853945677372 -0.0054323231690048303 -0.026643334135979902 0.027459568034347459 -0.043161773774721128 -0.03052876795173172 0.024216851356549225 -0.00045869243739004499
leaf_weight=279.6790891289711 249.79164274036884 277.37915267050266 205.56646072864532 205.2035947740078 10.26290190219879 11.592504888772963 16.502396702766418 88.792878031730652 5.7346153855323783 14.390650540590284 24.490172386169434 10.697736024856569 8.0080822706222516 19.771015763282776
leaf_count=900 830 1233 570 841 41 32 46 253 22 41 66 29 22 54
internal_value=0 0.0200442 -0.0284774 0.0291263 0.0222896 -0.0180939 -0.0074912 0.00667029 0.0243838 -0.0202755 -0.0137972 -0.0275418 -0.00709181 0.0168904
internal_weight=0 837.165 590.698 498.58 221.201 311.019 105.453 338.585 210.938 69.1791 57.5866 43.196 18.7058 36.2734
internal_count=4980 3220 1760 2137 904 860 290 1083 863 190 158 117 51 100
is_linear=0
shrinkage=0.05


Tree=40
num_leaves=15
num_cat=0
split_feature=38 17 71 70 82 225 159 170 87 5 6 185 221 200
split_gain=47.4036 7.13118 7.0019 7.48743 6.68559 6.30745 12.7459 8.17139 6.29241 6.06644 8.47628 11.4779 7.28294 7.00696
threshold=0.046041825786232955 0.013662966407624561 0.038781928188009303 0.24444918556505324 0.9604174814793216 0.28855048660399557 0.53671641053739727 0.029000536402906469 0.78868811866532595 -0.39069837962108173 0.057296998130396196 0.040015127961806125 0.064276617624364152 0.088681916388500037
decision_type=2 2 2 2 2 2 2 2 2 2 2 2 2 2
left_child=1 -1 9 8 -3 7 -7 -5 -4 10 -2 -12 -11 -13
right_child=2 4 3 5 -6 6 -8 -9 -10 12 11 13 -14 -15
leaf_value=-0.025936647397212777 -0.019382324991848617 -0.0055417622553125233 0.083174500799775522 0.084891120873377343 0.1313013913035655 0.07071374588101946 -0.025658558738177406 -0.0094638436749935901 0.015907109355231052 -0.030455810892598807 0.16330305560598937 -0.034761076866102712 0.026520829648288159 0.11221908616333616
leaf_weight=79.851281616836786 3.172649238258602 64.17384747415781 14.457440119236709 2.7410143241286304 0.90514094009995361 14.514521799981596 4.4929137080907813 14.088908590376375 4.5772150531411162 11.180168747901918 2.5006538778543472 2.088425356894732 11.254396196454762 1.3255364559590814
leaf_count=2520 55 1509 64 22 20 115 47 143 40 197 28 37 169 14
internal_value=0 -0.015924 0.0308673 0.041656 -0.0036385 0.0281954 0.0479336 0.00590333 0.0669989 0.0120869 0.0465515 0.0819189 -0.00187323 0.0223068
internal_weight=0 144.93 86.3938 54.872 65.079 35.8374 19.0074 16.8299 19.0347 31.5218 9.08726 5.91462 22.4346 3.41396
internal_count=4980 4049 931 431 1529 327 162 165 104 500 134 79 366 51
is_linear=0
shrinkage=0.05


Tree=41
num_leaves=15
num_cat=0
split_feature=57 60 69 95 72 117 171 226 40 200 199 192 40 62
split_gain=301.14 43.4549 27.3857 8.79659 7.09301 7.07537 6.34458 5.88227 9.03507 5.81236 6.01963 5.79756 5.29803 6.31697
threshold=0.32747165726480248 0.73341929026576491 0.087968829216757291 0.012049388727624675 0.87773578441004185 0.24763777723587099 0.1759753435687261 0.30336604851416699 0.70597717165946972 0.011692060317024322 0.13770617397173454 0.18278390873425859 0.27947133779525762 0.021206179675241556
decision_type=2 2 2 2 2 2 2 2 2 2 2 2 2 2
left_child=2 3 -1 -2 -3 -5 11 8 -4 -8 -11 -7 -12 -14
right_child=1 4 7 5 -6 6 9 -9 -10 10 12 -13 13 -15
leaf_value=-0.031299916794084948 0.043073470263854378 0.028674948028697717 0.056743776348445088 -0.032474845097993053 0.042869905959142224 0.0048587524082856354 0.033376270964998199 -0.013361147845789007 -0.019745238935319556 -0.023512215591919114 0.021641786227690224 0.062621983988575478 -0.014996727747363501 0.0086755418559909831
leaf_weight=384.53511352837086 19.090513437986374 160.15914079546928 7.6617625653743726 10.407345026731489 195.33774948120117 7.4920655190944698 19.790497571229935 334.43306462466717 7.7822299301624298 16.979115664958954 49.785230755805969 10.33784645795822 37.389327377080917 114.43917965888977
leaf_count=1840 53 457 22 31 607 22 55 1229 27 47 135 29 107 319
internal_value=0 0.0248057 -0.0220901 0.0102865 0.0364748 0.00793886 0.00958046 -0.011968 0.018201 0.00742863 0.00507944 0.0383501 0.00748732 0.002846
internal_weight=0 641.208 734.412 285.711 355.497 266.621 256.213 349.877 15.444 238.383 218.593 17.8299 201.614 151.829
internal_count=4980 1862 3118 798 1064 745 714 1278 49 663 608 51 561 426
is_linear=0
shrinkage=0.05


Tree=42
num_leaves=15
num_cat=0
split_feature=70 16 18 73 216 74 108 155 144 132 150 40 199 88
split_gain=292.62 33.3342 32.4046 8.60612 11.0951 7.00548 5.70134 5.23792 6.87626 8.76587 5.84867 4.98847 4.94096 4.83215
threshold=0.6294035676694788 0.1596573991470229 0.083417064612485783 0.44158357132935039 0.63525498891352561 0.0054713839758392139 0.597745050099039 0.094357041314072757 0.45800457226407509 0.58754584264384135 0.38806914632581968 0.38290132582187658 0.46321820161104316 0.4040847890852835
decision_type=2 2 2 2 2 2 2 2 2 2 2 2 2 2
left_child=1 -1 -2 7 6 -4 11 8 9 10 -3 -5 -12 -10
right_child=2 3 5 4 -6 -7 -8 -9 13 -11 12 -13 -14 -15
leaf_value=-0.038764813190339482 0.030749853893207914 -0.013686835397029232 0.025716877306451405 -0.050697775874917778 0.030905595338194355 0.0073829231336187467 0.023225440425829514 -0.046650373128689221 -0.028078824037497875 -0.054761052781802932 0.002316245198152718 -0.01148690585703511 0.050324605019051533 0.0011591331599705784
leaf_weight=270.6879675090313 384.93542383611202 20.635457187891006 61.950492590665817 8.8100385069847089 17.942160308361053 327.79256276786327 10.945632964372633 19.248491734266281 127.56116789579391 7.0696384310722342 12.15995302796364 102.28262728452682 9.5830934047698957 15.891969949007033
leaf_count=900 1770 57 227 24 50 1103 30 54 359 20 33 284 26 43
internal_value=0 -0.0255716 0.02046 -0.0154297 -0.00580674 0.0102971 -0.0112042 -0.0217791 -0.0192974 -0.0032184 0.00538001 -0.0145965 0.0234756 -0.0248398
internal_weight=0 622.818 774.678 352.13 139.98 389.743 122.038 212.15 192.901 49.4481 42.3785 111.093 21.743 143.453
internal_count=4980 1880 3100 980 388 1330 338 592 538 136 116 308 59 402
is_linear=0
shrinkage=0.05


Tree=43
num_leaves=15
num_cat=0
split_feature=17 26 122 200 239 250 80 179 176 202 225 37 238 19
split_gain=43.2781 6.88121 8.23555 10.6519 6.15563 10.2336 25.1714 6.12307 7.03062 5.90074 8.59265 6.21497 5.6354 5.88934
threshold=0.034238411454110891 0.11147119104862215 0.018521915595447015 0.052141554337772206 0.19588334484280637 0.67025550031954773 0.024561477203531763 0.043714942314683709 0.09530016177036589 0.83458296857455705 0.28597699255335512 0.24420913308858874 0.39708831710594855 0.13501503318548205
decision_type=2 2 2 2 2 2 2 2 2 2 2 2 2 2
left_child=4 2 3 -2 -1 -6 -7 8 -4 10 11 -3 13 -12
right_child=1 9 7 -5 5 6 -8 -9 -10 -11 12 -13 -14 -15
leaf_value=-0.019388470862526548 0.018672161895795493 0.053939750412033506 0.023697618325499575 0.20874461301488367 -0.0028779519856286812 -0.034256249256372266 0.33779788097207719 -0.0044626505187954765 0.14093533164622749 0.091628852576369546 0.06937330785604312 -0.017805465235908893 0.078447633159099833 0.0013278734070399608
leaf_weight=125.17268152162433 1.8523474857211106 4.367054931819438 16.627063009887937 1.2242828346788881 7.9550671055912954 1.0443643312901256 0.80502972379326809 28.75805464014411 1.3853353559970845 5.307454638183116 5.5756819248199481 9.7750333063304407 11.673395451158283 7.4003672450780869
leaf_count=3673 31 20 245 16 200 29 14 454 14 26 27 96 75 60
internal_value=0 0.0277955 0.0150676 0.0943077 -0.0164001 0.021752 0.127697 0.0098551 0.0327144 0.0421825 0.0354172 0.00434935 0.0532418 0.0305663
internal_weight=0 93.9461 49.8471 3.07663 134.977 9.80446 1.84939 46.7705 18.0124 44.099 38.7915 14.1421 24.6494 12.976
internal_count=4980 1064 760 47 3916 243 43 713 259 304 278 116 162 87
is_linear=0
shrinkage=0.05


Tree=44
num_leaves=15
num_cat=0
split_feature=45 31 18 69 100 81 59 218 56 9 171 171 193 90
split_gain=270.241 45.3394 20.764 6.85541 6.62953 6.29329 7.24615 5.69724 7.20752 6.7985 6.48873 6.18813 4.89397 4.89007
threshold=0.50682833790779125 0.85338857769966137 0.8655732311510832 0.16522367316747485 0.85458905062924961 0.056467915833445737 0.028922364373009501 0.098636554118773964 0.040052466409258282 -0.61337000571735689 0.7269567731679214 0.22099232314664755 0.91165185887402 0.90371728006477925
decision_type=2 2 2 2 2 2 2 2 2 2 2 2 2 2
left_child=1 3 13 12 7 -3 -7 8 10 -9 -5 -10 -1 -2
right_child=2 5 -4 4 -6 6 -8 9 11 -11 -12 -13 -14 -15
leaf_value=-0.019427372800383157 0.021189106854102843 -0.033505184808359803 0.040706289885061177 -0.0011610574732320324 0.042213762859480725 -0.024208117559740894 0.013724216040296359 -0.0069413430840003058 -0.040192536607872857 0.038328508860568863 0.045771715547318015 -0.0092294489665550421 0.01972778420949069 -0.019419952850239029
leaf_weight=96.275228425860405 279.91890934109688 256.49185028672218 213.16289478540421 156.33114556968212 8.5006822645664197 177.31766042113304 13.552324309945105 15.774862259626387 21.223960667848587 17.487041473388672 7.7286570072174063 67.31967106461525 8.7016775459051114 7.614933341741561
leaf_count=368 776 1322 684 495 29 799 58 48 71 50 22 203 33 22
internal_value=0 -0.0174578 0.0288806 -0.00521165 -0.00129949 -0.0283894 -0.0215148 -0.00259343 -0.00515481 0.0168587 0.00104989 -0.0166513 -0.0161817 0.0201136
internal_weight=0 846.705 500.697 399.343 294.366 447.362 190.87 285.865 252.603 33.2619 164.06 88.5436 104.977 287.534
internal_count=4980 3498 1482 1319 918 2179 857 889 791 98 517 274 401 798
is_linear=0
shrinkage=0.05


Tree=45
num_leaves=15
num_cat=0
split_feature=49 73 16 162 127 8 73 138 1 205 0 50 71 19
split_gain=263.162 36.3637 25.9258 7.35445 6.98501 5.9452 5.72384 14.455 6.62261 5.32765 4.7677 4.65806 7.72111 4.63902
threshold=0.54739837178427209 0.85528267354159382 0.1596573991470229 0.53967336043884628 0.91792258246025871 1.9925787702399795 0.44158357132935039 0.48522178059400584 -0.45754340616121053 0.9302079226321468 -0.66687713586381092 0.058867747982477979 0.032915022880274626 0.84297382831573497
decision_type=2 2 2 2 2 2 2 2 2 2 2 2 2 2
left_child=2 3 -1 13 5 9 -4 8 -8 -3 -9 -10 -13 -2
right_child=1 4 6 -5 -6 -7 7 10 11 -11 -12 12 -14 -15
leaf_value=-0.037622492703670116 0.0038505461334308526 0.023788105554546177 -0.021129364207217317 -0.041700083252233441 0.032827965671706628 -0.023094455252543389 0.016523997814336239 0.04353540300563738 -0.037168382492949514 -0.01983437471690544 0.0052021307997038475 0.029324938527696288 -0.030560557323687176 0.018325900102550155
leaf_weight=261.81127592921257 255.03157114982605 187.24425178766251 202.23160764575005 7.9439583718776694 263.30111527442932 7.5395919382572165 10.726941376924513 13.143352836370466 36.865968763828278 7.2711010575294486 21.186986953020096 8.5093665122985858 14.647082537412642 70.690506964921951
leaf_count=900 798 812 570 22 1266 29 30 37 101 30 58 24 40 263
internal_value=0 0.0184297 -0.0260606 0.00583282 0.0274617 0.0204689 -0.0162106 -0.00674406 -0.0196621 0.0221575 0.019878 -0.0261292 -0.00855426 0.00699209
internal_weight=0 799.022 569.123 333.666 465.356 202.055 307.311 105.08 70.7494 194.515 34.3303 60.0224 23.1564 325.722
internal_count=4980 3220 1760 1083 2137 871 860 290 195 842 95 165 64 1061
is_linear=0
shrinkage=0.05


Tree=46
num_leaves=15
num_cat=0
split_feature=38 17 112 86 179 107 144 215 199 199 92 146 143 7
split_gain=39.6474 6.82207 6.45907 5.66348 5.56725 7.63871 7.81506 7.37996 7.46304 7.10234 8.59805 7.10404 7.34647 7.66546
threshold=0.046041825786232955 0.013662966407624561 0.9502076098812251 0.24123086189371287 0.043714942314683709 0.088678716145270051 0.37566992144152628 0.12161137440758295 0.64677855889797542 0.50782393746183496 0.15343263971103996 0.080008581607230095 0.054322429433681381 -0.33963747443717002
decision_type=2 2 2 2 2 2 2 2 2 2 2 2 2 2
left_child=1 -1 -3 4 -2 -6 -7 8 9 10 11 12 -8 -14
right_child=3 2 -4 -5 5 6 7 -9 -10 -11 -12 -13 13 -15
leaf_value=-0.025241856320773304 0.041579846002022934 -0.0048455193823072548 0.12851822338517258 0.055888205009575059 -0.012000774696690066 -0.026459166083009206 0.12249834679768967 -0.023613900414392375 0.13024578594851863 -0.037277412978669468 -0.020715689743715345 0.13306784163118726 0.072071228041357377 -0.035547211123498644
leaf_weight=74.032255114987493 24.719630245119333 62.676912037655711 0.92123630456626315 15.013073205947874 19.334969196468592 5.3552904874086407 2.4510616026818841 3.8305004574358454 2.6525524184107772 2.5289974287152281 3.1565468944609156 3.4192395694553843 3.5009492002427649 3.1375259943306375
leaf_count=2520 274 1505 24 57 313 74 17 43 17 26 30 18 21 41
internal_value=0 -0.0149242 -0.00291371 0.0278849 0.0222103 0.0125115 0.0282925 0.0401743 0.051895 0.0404722 0.0530241 0.071632 0.0485215 0.0212078
internal_weight=0 137.63 63.5981 89.1003 74.0873 49.3676 30.0327 24.6774 20.8469 18.1943 15.6653 12.5088 9.08954 6.63848
internal_count=4980 4049 1529 931 874 600 287 213 170 153 127 97 79 62
is_linear=0
shrinkage=0.05


Tree=47
num_leaves=15
num_cat=0
split_feature=45 69 18 31 94 70 109 169 251 175 116 187 105 176
split_gain=242.028 42.8045 20.1972 8.55131 6.44887 7.26008 5.4646 8.18854 5.4534 5.75282 6.01135 4.59631 8.38824 4.40822
threshold=0.50682833790779125 0.09092085007876792 0.8655732311510832 0.85827797651290905 0.89197148687127947 0.83106464134692404 0.8274364720415176 0.87006826595980569 0.32972073983195499 0.38634775072166722 0.035456397645055947 0.93369447055435162 0.094987574552483217 0.19475678095688945
decision_type=2 2 2 2 2 2 2 2 2 2 2 2 2 2
left_child=1 -1 -2 4 5 6 8 -8 13 -10 -11 -5 -13 -3
right_child=2 3 -4 11 -6 -7 7 -9 9 10 -12 12 -14 -15
leaf_value=-0.029575712992859715 0.018923667053857084 -0.0064342640161212748 0.039455997674578094 -0.026350621260588011 0.038115793246941421 -0.022120518714259355 -0.0096003097031401637 0.05886077051924931 0.0488985351614196 0.039449470611979863 -0.020554524758373202 -0.020067504295922217 0.056031030327449376 0.03282890951146538
leaf_weight=364.21414893865585 285.60165163874626 263.92972613871098 206.27759805321693 70.766117423772812 9.1333462297916395 50.018557876348495 8.507230609655382 8.9764104634523374 9.7220781743526477 6.547226935625079 11.515118539333342 12.319383442401888 5.1288602501153937 7.3478033542633048
leaf_count=1880 798 840 684 309 34 192 30 30 27 20 35 58 22 21
internal_value=0 -0.0167463 0.0275342 -0.00667407 -0.00338465 -0.00441868 -0.00162155 0.0255488 -0.00320997 0.0178874 0.00119568 -0.0206834 0.00230144 -0.00537078
internal_weight=0 828.126 491.879 463.912 375.697 366.564 316.546 17.4836 299.062 27.7844 18.0623 88.2144 17.4482 271.278
internal_count=4980 3498 1482 1618 1229 1195 1003 60 943 82 55 389 80 861
is_linear=0
shrinkage=0.05


Tree=48
num_leaves=15
num_cat=0
split_feature=49 73 46 162 70 215 73 138 1 161 206 174 166 72
split_gain=236.37 34.1575 24.9089 6.79823 6.17205 6.59664 6.11438 13.6637 6.14093 4.88154 5.6663 4.74436 4.74635 4.71538
threshold=0.54739837178427209 0.85528267354159382 0.095500037074089064 0.53967336043884628 0.92759515993355224 0.0070130189142716785 0.44158357132935039 0.48522178059400584 -0.45754340616121053 0.022124100019786059 0.011207083716171974 0.22113299550650803 0.65236434040347835 0.17015506613466891
decision_type=2 2 2 2 2 2 2 2 2 2 2 2 2 2
left_child=2 3 -1 -2 5 -3 -4 8 -8 -7 -11 -10 -13 -12
right_child=1 4 6 -5 -6 9 7 -9 11 10 13 12 -14 -15
leaf_value=-0.037948049330574364 0.0066093051964167468 -0.037356665417092594 -0.020901603031974567 -0.040084962944801114 0.03127157573927225 0.030395328416564102 0.016005146520576066 0.019583402124062621 -0.059124193081448131 -0.030734687863846429 0.019789284454955997 -0.025950881189809601 0.015609224674035766 -0.027900925706450242
leaf_weight=221.85651102662086 323.51148521900177 5.0018187761306754 231.7162820994854 7.9873173236846915 276.64481897652149 75.035071536898613 10.688002973794935 34.217178672552109 8.7655233442783338 6.7885469496250144 80.416297376155853 43.023401707410812 8.1752374470233899 5.5403055250644675
leaf_count=800 1061 20 670 22 1392 334 30 95 24 27 344 118 23 20
internal_value=0 0.01766 -0.0249413 0.00548423 0.0266409 0.0192267 -0.016368 -0.00635065 -0.0189106 0.0209135 0.0132423 -0.025134 -0.0193147 0.0167154
internal_weight=0 780.926 558.442 331.499 449.427 172.782 336.586 104.869 70.6522 167.78 92.7451 59.9642 51.1986 85.9566
internal_count=4980 3220 1760 1083 2137 745 960 290 195 725 391 165 141 364
is_linear=0
shrinkage=0.05


Tree=49
num_leaves=15
num_cat=0
split_feature=26 20 77 182 68 44 68 176 200 65 64 56 185 185
split_gain=36.1598 6.31479 7.93665 23.1637 8.96313 6.93632 5.32525 5.3545 5.90129 13.3586 6.83283 6.56888 8.24633 7.31804
threshold=0.044978026300668723 0.019111215136945251 0.008605949690606211 0.039455155546409909 0.01515412350292707 0.013677370734512808 0.20164352847081218 0.13873428810129948 0.052141554337772206 0.023307080281300133 0.087948748859895065 0.04086996571028291 0.035340370765970019 0.024060692099068335
decision_type=2 2 2 2 2 2 2 2 2 2 2 2 2 2
left_child=1 -1 3 4 -3 -4 7 8 11 -10 -11 -2 13 -13
right_child=6 2 5 -5 -6 -7 -8 -9 9 10 -12 12 -14 -15
leaf_value=-0.022812537163430832 -0.029491498416270041 -0.034304585982993699 0.12940343694508311 0.28305403637456095 0.15535049800743217 -0.0097265775660484895 0.047721224978699378 -0.026585773365721529 0.17446640878333139 0.11397725380845275 0.024202380165208787 0.010788466432408416 -0.0055768876818420004 0.11679050729041923
leaf_weight=84.715950893238187 8.9827877432107943 2.9448087923228736 0.91511110216379066 0.94382973574101914 0.79012639448046673 42.524691458791494 21.9385128878057 5.7859554104506961 1.6645087115466584 2.2570049352943888 34.786391872912645 3.0611951686441925 9.6362777911126596 3.4781714826822281
leaf_count=2899 159 74 20 18 17 983 94 87 24 17 407 36 122 23
internal_value=0 -0.0145964 -0.000131348 0.061743 0.00581699 -0.00679564 0.0262391 0.0194728 0.0236454 0.0358987 0.0296722 0.00479309 0.0238323 0.067169
internal_weight=0 132.835 48.1186 4.67876 3.73494 43.4398 91.5908 69.6523 63.8663 38.7079 37.0434 25.1584 16.1756 6.53937
internal_count=4980 4011 1112 109 91 1003 969 875 788 448 424 340 181 59
is_linear=0
shrinkage=0.05


Tree=50
num_leaves=15
num_cat=0
split_feature=57 48 18 95 42 19 98 138 83 88 75 252 238 97
split_gain=217.629 36.114 24.4916 5.89692 7.02264 6.1488 5.90254 5.71738 5.86118 8.83426 6.19099 5.57699 5.56488 5.54771
threshold=0.32747165726480248 0.81342479586601268 0.082038905663190539 0.012049388727624675 0.64075136184692394 0.15947289019823077 0.038201661651461279 0.050200466117557692 0.010100753672201852 0.91834474695885893 0.37978394983626368 0.76288121970491451 0.38194432835174502 0.68723506490427366
decision_type=2 2 2 2 2 2 2 2 2 2 2 2 2 2
left_child=2 3 -1 -2 11 6 -6 -4 -9 10 -10 -5 -7 -12
right_child=1 -3 7 4 5 12 -8 8 9 -11 13 -13 -14 -15
leaf_value=-0.029864947913668023 0.035192196724488707 0.034442353724011852 0.044513186948350721 0.0054289330354766211 -0.033117441275692321 0.042914263173808545 0.015613289535252118 -0.023920900189645881 -0.011610978688638966 0.057071797489024981 -0.0016381626222355386 -0.024559552478418775 0.015463146284420422 0.052244759660830781
leaf_weight=318.72335429489613 21.907289117574692 282.51098984479904 4.6064289063215247 187.89347293972969 9.6232947707176226 29.899380892515182 17.540283381938934 75.430656805634499 253.35240778326988 5.0870269387960425 14.313106566667559 16.89780381321907 48.262207567691803 7.1698907911777487
leaf_count=1760 61 931 19 531 27 83 49 307 947 22 42 47 133 21
